-0.05868194
0.003057753
0.04693821
0.007676867
-0.007718395
0.04645369
-0.009609386
-0.02995501
-0.05457959
0.04030704
-0.03827061
0.03512942
0.00702794
0.01372518
0.001391103
0.02488752
-0.06623438
-0.00714517
0.01943131
0.06785093
0.01429918
0.03699089
-0.03549694
-0.04679062
-0.03988892
-0.06532728
-0.05696046
0.06265481
-0.02486215
-0.01376537
0.01926261
0.0520101
-0.04042466
0.03449357
-0.03311625
0.03019421
-0.008957582
-0.06653789
-0.0265351
-0.01961052
-0.01533328
0.008049634
-0.05331009
-0.004707483
-0.04309546
0.02333352
-0.04677837
-0.009187091
-0.01047259
0.03576776
-0.02064629
0.0511966
-0.009878596
0.0247172
-0.02858579
-0.02773621
-0.02938193
0.02579221
-0.02037084
-0.01032774
0.03547752
-0.004327571
0.06284376
0.0271224
-0.04689219
-0.02234409
0.007617461
0.04047099
-0.02109518
0.03913352
-0.03409152
-0.06763311
-0.04854669
-0.02889479
0.01524759
-0.06168708
0.02236436
0.03714717
0.06424146
0.004714179
0.04938771
0.02016326
0.005190779
0.007306702
-0.0610557
0.03600264
-0.006047921
0.002794757
-0.004857262
0.06255658
-0.008360483
0.03318683
0.02176956
0.05172925
0.01284858
0.05693091
0.01314249
-0.01249587
-0.02575191
0.04718525
-0.05222056
-0.01931274
-0.05602853
0.01833051
0.001922665
-0.0209498
0.03180667
-0.04892043
-0.05846701
-0.03483533
0.01783605
0.001407519
0.02948737
0.04285161
0.008221176
-0.05262236
0.05841827
-0.01239956
0.02024149
-0.0149582
0.05164045
-0.06311392
-0.02260837
-0.01571514
-0.02044262
0.0006582682
-0.02146605
-0.03233932
0.02619326
0.0262533
-0.006892949
-0.0330764
-0.005037538
-0.05088041
-0.01100188
0.0007638254
0.008255166
0.05479689
-0.06255259
0.02783071
-0.06374065
-0.02506411
-0.006674853
-0.03795855
-0.0232161
0.05816862
-0.06423716
0.04685458
-0.02442854
-0.002465687
0.06644926
-0.04239457
0.03519927
0.05714291
0.06348142
-0.05704326
-0.06464099
0.02762323
-0.02916349
-0.06667222
-0.06742036
-0.003790632
-0.007177065
-0.01678369
0.03999424
-0.01702417
-0.06149156
0.01243115
-0.01408313
-0.06047927
0.007059099
-0.06431524
-0.0177836
0.0603474
-0.01915417
0.008767944
0.01149756
-0.05258644
-0.06043566
-0.01067462
-0.003041198
-0.0003840086
0.06002584
-0.03927768
0.02774066
-0.032435
-0.0003390447
0.005756172
-0.04642521
-0.02189524
-0.002531808
0.04856855
0.01602376
-0.06381698
0.02731445
0.007986601
0.05004957
-0.05782778
-0.01001618
0.06174469
0.05172356
-0.008731687
-0.006998914
-0.03188589
0.05841184
0.06282789
0.04332564
0.04278849
0.008360464
-0.01322315
-0.0006041983
0.05588207
0.02012227
0.04944775
0.004305595
0.0009002659
0.004120151
-0.03583601
0.02341227
0.004492619
0.0512515
0.000688885
-0.009080261
-0.06012451
0.009989158
0.02642716
-0.01240239
-0.02190323
-0.03490368
0.04079585
0.02665499
0.001388717
0.02536636
-0.05424374
0.005538441
-0.06224613
-0.06132172
0.02397511
-0.02975289
0.0328494
-0.00782402
0.02480908
0.06533233
0.03473456
0.04664558
0.009522744
-0.03949034
0.03451264
-0.0001859554
-0.04152243
-0.06407017
0.01794896
-0.01330343
0.05342783
-0.05744343
-0.01690194
-0.06758805
-0.01481103
0.02606157
-0.03595195
0.007293649
-0.002707743
0.00975555
0.03550124
0.02805848
0.0659437
-0.03742091
0.006429388
-0.02402732
-0.001384894
-0.00571464
0.04808166
0.06185351
0.05849949
-0.05561998
-0.04149421
0.003293176
0.0241218
-0.03883347
-0.06747021
-0.002019115
0.0210216
0.04621934
-0.06131787
0.0369294
-0.05923059
-0.05324448
0.03987515
-0.06473693
-0.04549624
-0.0625947
0.02142593
0.06585016
-0.06173756
-0.04238087
0.06282035
-0.05288309
-0.03810553
-0.06126054
0.04863849
-0.02099297
0.02201689
-0.009396666
-0.06673768
0.03212883
-0.04421521
0.02403207
-0.003866294
0.04111119
0.0519874
0.0477415
-0.02377323
-0.04391418
0.02559516
0.03400379
0.05420868
0.01900954
0.003136797
0.06650846
0.01935245
0.05125156
-0.009359445
0.003229694
-0.0464677
-0.00672681
0.04079605
0.05016813
0.05565445
0.03294374
-0.0505037
-0.05654774
-0.02653791
0.01744572
-0.01953534
0.02145938
0.04390061
-0.03751836
0.04502041
-0.02551007
0.01320799
-0.01532605
0.01855844
0.06670059
-0.04878771
-0.02530112
0.02911514
-0.002596511
-0.02768162
-0.02780473
-0.02865293
-0.02412581
0.01191674
-0.03667738
-0.01267638
0.06532355
0.0563031
-0.04914942
-0.03086559
0.007925749
0.0592694
-0.02644672
0.03631425
0.03112659
0.02367827
0.04059852
0.006342794
0.02671767
0.04355778
-0.06380085
0.05803979
0.02379042
0.04192575
-0.03928975
-0.01463614
-0.03325812
-0.0352435
-0.008123414
-0.01591922
0.04677004
0.03209467
-0.02454406
0.009913126
0.01552255
-0.006339957
0.04155873
-0.000527858
-0.05779716
-0.03781452
-0.01692227
0.0330929
0.02511341
0.06128385
-0.03084197
-0.01684285
-0.02828192
0.01629633
0.05536847
-0.0249143
-0.02144961
0.03629271
-0.06553916
0.02178233
-0.0318174
-0.0179079
0.01549328
0.001885055
-0.01673014
0.04589539
-0.04735488
0.03263043
-0.003510108
0.03470642
-0.009699001
0.0437677
0.01587684
0.03157678
-0.04714493
-0.03047008
0.05005616
-0.02681024
-0.003796665
-0.003404424
-0.00745657
-0.02895713
-0.03501024
0.03044319
0.0048311
0.04548972
-0.05429085
0.01838217
-0.02267534
-0.05114573
-0.06240623
-0.0574593
0.0296972
0.02161023
-0.0262061
-0.03450617
0.04610338
-0.02826294
-0.05173434
-0.03575593
-0.05839627
0.01838392
-0.03133361
0.05834362
0.003046226
-0.006673046
0.03521693
0.008077928
-0.004495366
0.01790192
-0.00703384
-0.06257599
-0.02784725
0.005801891
-0.03869772
0.06507635
-0.05083428
0.05298671
0.06499057
0.005716763
0.03224962
0.002199574
-0.01263085
-0.020301
0.02917602
-0.02017632
-0.05386613
0.06220322
-0.01015374
0.05529786
-0.008636835
0.01038248
-0.04301252
-0.03597736
-0.01294478
0.04209613
-0.06556014
-0.02541724
-0.04053966
-0.05643247
-0.05766383
0.005567844
-0.04505908
0.02735935
0.02382473
-0.06776686
0.03832457
-0.04404131
-0.007628668
-0.02334583
-0.05160851
0.06105329
-0.0253169
0.01048551
-6.892844E-05
0.007340779
-0.03692185
0.05690401
-0.03876903
-0.04471407
-0.02074354
0.04095033
-0.04970495
0.008143393
-0.04139787
0.0505203
0.04837315
-0.05980651
-0.04918995
-0.01285723
0.06269987
0.04251959
0.02558975
0.05348643
-0.00455603
-0.04125485
-0.02067796
0.02794642
0.0238109
0.02900626
0.009435727
0.05811181
0.001895273
-0.05474453
0.03896975
-0.001753504
-0.03223724
0.01443859
0.03202819
0.04765107
0.01108136
-0.05452752
-0.05458484
-0.06376221
0.03224769
-0.03067753
-0.01266383
0.01473414
0.0008205964
0.04124105
-0.04820339
0.03019446
-0.06278797
-0.06270806
-0.01810908
-0.02619148
-0.03247308
-0.01086671
-0.05289508
-0.0267507
-0.03991788
0.003068349
-0.03484351
0.0001613316
0.01378682
-0.01091872
-0.02888157
-0.06289704
0.03711026
0.02829226
0.01482091
-0.03400206
-0.02389808
-0.0289044
0.04399803
0.04929078
0.0291678
0.02141534
-0.04669788
-0.04181512
0.0393456
0.03252451
-0.0408108
0.05050647
0.00927303
0.04717789
0.05296316
-0.00333329
0.03130117
-0.002775392
-0.03721704
0.0465661
-0.0006029539
-0.009157725
0.01963232
-0.05992361
0.04825261
0.01319045
-0.009612413
-0.02477021
0.06614065
-0.01770341
0.0455605
0.04046496
-0.04151648
0.0537353
-0.01384408
0.03405305
-0.03876947
0.0005367625
0.01257734
0.0140482
-0.03210545
0.05685666
0.001840318
-0.00450577
-0.02405748
-0.01741336
0.05882492
0.03454556
0.00405474
0.04238835
-0.02626159
-0.02805097
-0.002427319
0.03619144
0.03453751
0.05319626
0.0193999
0.03598502
-0.06689845
-0.05195927
-0.03690887
0.04600895
-0.04001915
-0.01088761
0.05490063
-0.01333913
0.02408633
0.02347435
-0.00691465
-0.04902651
-0.03250044
-0.03717221
0.05258389
0.01667138
0.01073492
0.01047701
0.05693858
-0.04379853
0.03207049
-0.002270657
0.02230215
0.02377865
0.03911167
-0.04418431
-0.05937845
0.005674848
-0.02504435
-0.009771297
-0.04873884
0.000896278
-0.05328348
-0.006817867
-0.0005014067
-0.003400007
-0.01697956
-0.01017778
0.02893918
-0.05520869
0.00853022
0.05721828
0.02643694
-0.03258605
-0.02647642
-0.01485537
0.006952166
-0.057026
-0.01269823
0.04883792
-0.04248011
-0.04387612
0.06419431
-0.004738195
-0.06402209
0.003308826
-0.006324801
0.007249099
-0.06103934
-0.06377146
-0.01944579
-0.01871084
-0.05623141
-0.034079
0.004276571
0.06012569
-0.06367966
0.04225405
0.03126581
-0.01195273
-0.03428568
-0.04702391
0.04947444
0.04421065
0.01560787
0.04278883
0.03922903
-0.01304842
-0.01768155
-0.01396958
0.01680014
0.06558418
-0.04956354
-0.005945646
-0.03522781
0.0630739
0.004638594
0.01939134
-0.0107324
0.06412639
-0.06501183
0.04370797
-0.01707506
0.02477402
0.03217372
-0.04069556
0.04551307
-0.007420684
0.031074
-0.01866549
-0.01911234
0.03263474
-0.02035519
0.06719112
0.01518698
-0.06339281
-0.02541394
-0.04795296
0.04759055
-0.03887429
0.03201642
-0.06121301
-0.04300597
0.02086685
-0.01263498
-0.01709334
-0.03708392
0.01765086
-0.06678781
0.009139292
-0.01244952
-0.01513438
-0.01495017
0.03507605
-0.01487752
-0.01005703
0.03798776
-0.04323619
-0.05589968
-0.01163318
0.06521238
-0.02128691
0.02381421
-0.06695268
-0.06279386
0.05210202
0.01800274
-0.04881804
0.04680399
-0.03977162
0.02055122
-0.01534506
0.03973741
-0.03979473
-0.03582665
0.0641378
0.01877732
0.02999471
-0.03052763
-0.01866957
0.06432498
-0.04007442
-0.008569495
-0.04600192
0.06172065
0.06395866
-0.0203517
0.01250539
0.01413202
-0.04269261
-0.03344395
-0.05011437
-0.0599899
-0.008712885
-0.03615006
-0.01463329
-0.01709059
-0.04398992
0.01572409
0.003199623
0.03284055
-0.0562025
0.03878349
0.04092043
0.05652469
-0.06504108
0.01306484
-0.04309207
0.002966079
-0.0110787
0.03910227
-0.05994356
0.05522805
0.03070651
-0.008021537
0.03735018
0.0552192
0.001879503
-0.06073671
-0.0588159
0.004517106
-0.06243927
0.004986564
0.02155998
0.06160896
0.002728968
-0.02329178
-0.01948632
0.06429195
0.04674326
0.01329177
-0.00516939
-0.05366601
0.03420937
0.0164265
0.05259085
-0.01092128
0.0184467
-0.03458999
0.05882511
-0.0170428
-0.04519626
-0.05839732
-0.0427259
-0.01385826
-0.04143701
-0.0374058
-0.02275979
0.06724527
-0.005563613
-0.001915873
0.04896653
-0.05118982
0.006603367
0.06661914
0.02734319
0.006747559
-0.05071311
0.04724809
-0.0141409
0.02618732
-0.03538546
-0.0394474
0.02415944
0.04356615
-0.02366496
0.06165906
-0.04691794
-0.05365662
0.007324231
-0.01966516
-0.03116412
-0.03146713
-0.0516252
0.02616352
-0.01822326
0.06389467
-0.02022415
-0.03251838
0.03510935
-0.02780185
0.06740464
-0.01879498
0.001918943
-0.01927749
0.03226186
-0.02191619
0.00766725
0.03552685
0.05701993
-0.02209333
-0.02814479
0.03913523
0.04748753
-0.03529883
-0.04959396
0.06218776
-0.01462014
-0.01835543
-0.05812993
-0.03515945
-0.05842449
-0.03703979
-0.008015579
-0.05383507
-0.03868838
0.01249703
-0.06750124
0.04837647
0.01690578
0.03138515
-0.04096491
0.04974189
-0.05579788
-0.05427567
0.02671931
0.05134614
0.02657028
-0.02449969
-0.05663233
0.06618785
-0.01394481
-0.01450817
-0.04273992
-0.03851906
-0.059457
-0.00236272
-0.01101804
0.05161025
0.00782086
-0.0124744
0.01057818
0.0660679
-0.04232507
0.002332177
-0.03731398
0.03650781
0.05715722
-0.01218261
-0.04852573
-0.04817179
-0.02235157
0.02722741
-0.04931555
-0.04230184
-0.04906504
-0.009950055
0.02699648
0.03382657
0.005918482
-0.03300348
-0.03231914
-0.05805707
-0.02965972
-0.05638116
0.04672198
0.0240203
-0.06223649
-0.03743314
-0.0623147
0.03161096
-0.04442155
-0.05117487
-0.02738102
-0.03855644
-0.04712966
-0.03909619
0.02413034
0.009806568
0.05097494
0.05814812
0.06212554
-0.02918373
-0.04391058
0.05947608
0.0206028
0.02676441
-0.03312924
0.06749853
-0.05739065
0.01842968
0.03857742
0.02309201
-0.02224485
-0.02711228
-0.04809189
0.0006986287
0.027791
-0.05388054
0.02354682
0.006602337
0.03080768
0.02665374
-0.01780453
-0.01220007
0.06418638
-0.03911332
-0.0133282
0.05717752
-0.0631088
0.05796777
0.03385623
-0.05074671
0.05078825
0.01570698
-0.02719239
0.06480122
0.05379013
-0.02119918
-0.009047335
-0.04797905
-0.01078708
-0.0617984
-0.04797911
-0.01280776
0.06097016
0.000423059
0.03900661
0.06766789
-0.05840117
0.02010834
0.001049427
0.01007425
0.05419637
-0.02356402
-0.04059617
-0.03246482
0.05655742
0.03622612
0.06322632
-0.008220506
-0.02784401
-0.02237014
0.06267072
-0.04742179
0.05251008
0.02138751
0.04024038
0.02998479
-0.06785651
-0.04495649
0.01484512
-0.01894643
0.02310342
0.003589241
-0.0505472
0.02466946
0.00669623
0.06293985
-0.005233616
-0.004173301
-0.0101833
-0.01305947
0.04764207
-0.01528052
-0.01101828
-0.04415465
-0.03700646
0.006415652
-0.01163347
-0.0626642
-0.05969282
-0.05037261
-0.01648889
0.06710979
0.04780159
-0.05635356
-0.0565325
0.0673793
0.00261879
-0.02835396
0.0281193
-0.0589148
0.06758779
0.05449193
-0.0626734
-0.04794076
0.05490746
-0.01732949
-0.04095344
0.002670991
0.02877557
0.06155419
-0.02647689
-0.0005369982
-0.06597383
0.05315208
-0.002075587
0.01001461
0.03153311
0.0287281
-0.009542656
-0.03411189
-0.02631836
0.0627443
-0.05320029
-0.002718891
0.06547908
0.02393025
0.02372427
-0.06213026
0.01326533
0.007253551
-0.007615565
-0.04481627
0.03564402
-0.01920512
-0.01271063
0.06108676
-0.02054374
-0.03101414
-0.03112548
0.04825965
-0.02056754
0.05363216
-0.02350314
-0.05331039
0.0440409
0.05198473
0.065147
0.06258614
0.01365865
0.001389512
-0.03209043
0.04182731
0.04912531
-0.005705426
0.03534018
-0.06309314
0.03975561
0.007982108
-0.04548321
-0.03695942
0.02688286
-0.04675979
0.05734228
-0.0464146
0.001233137
-0.04959724
0.0317556
0.02116791
-0.002073912
0.004774278
-0.03737827
-0.005389376
-0.008083043
0.01013431
0.05439226
-0.0120139
0.01831082
-0.06782652
0.02117683
-0.05444228
0.02671987
0.02907476
-0.00785229
-0.0560608
-0.02859264
0.01849375
-0.02600497
-0.02658718
0.01339132
-0.01755411
-0.04660547
0.03941078
-0.05346755
-0.06210269
-0.04655983
-0.04174437
0.0642265
-0.04502516
0.01339309
0.02570151
-0.04770749
-0.02395754
-0.003276576
-0.05905225
-0.02916883
0.04123557
-0.01802627
-0.02894562
0.007838933
-0.02058254
-0.01346734
0.0396455
0.0547419
-0.05897755
0.004257334
0.06574472
0.02902912
0.04546646
0.05011466
0.05067601
0.04434435
-0.009593841
-0.06016003
-0.05245642
-0.01655687
-0.00885243
-0.01985845
-0.01391698
-0.01124248
0.02820001
-0.00830378
-0.004600643
-0.01328299
0.06341194
0.06120183
-0.01725921
-0.03558528
-0.01673666
0.04104466
-0.001891593
-0.03141661
-0.06499597
0.03351051
-0.03396276
0.06384984
-0.01831435
0.0526055
-0.06242662
0.001576602
-0.04436793
-0.002836868
-0.04917658
-0.0272032
0.0306537
0.04929378
0.02982297
-0.03173413
-0.01875678
0.02544124
0.04762021
-0.0068426
0.06382734
0.05023348
0.04757554
0.05565786
0.05906993
-0.01500812
0.05926658
-0.05224276
-0.04642007
0.03339338
-0.02217084
-0.06351482
-0.01593037
0.014156
0.0414037
0.02483227
0.04173935
-0.04836964
-0.06617914
0.006478691
-0.02536846
0.05244304
-0.03481117
-0.03689975
-0.02706382
-0.04533406
0.02399993
-0.05381846
-0.03655776
-0.0534617
0.05110811
0.02575872
0.06136106
-0.06298561
-0.02730732
-0.04729282
0.05387159
-0.02168399
-0.0631567
0.0646304
0.06127554
0.05775277
-0.01993994
-0.009824689
-0.04860265
-0.05359838
0.05666379
-0.05143892
-0.06004654
-0.06294592
-0.005536853
-0.03832376
0.02368377
-0.0267951
-0.04941076
-0.05655233
0.01710803
0.01653867
0.01478506
0.03646737
0.02892857
0.04514843
0.05225162
-0.06089499
0.05022189
0.02000706
-0.05693926
-0.02088137
-0.0264733
0.0207599
0.0388973
-0.00451328
-0.05314956
-0.06287292
0.01313978
-0.0151846
0.004446363
0.04295014
-0.05623372
-0.04140206
-0.03406123
0.007502225
-0.06170855
-0.04154846
0.02001177
0.02149525
-0.06586166
0.02021954
0.05436177
-0.03869161
0.00353577
-0.0306037
0.03146756
-0.03168745
-0.0322348
-0.05180951
-0.06243548
-0.02698158
0.007890043
-0.0006730864
-0.06459574
0.009608539
0.042971
-0.01286982
-0.0339066
0.06691305
-0.05311082
0.01862006
0.02800175
0.03371046
0.00693793
0.04209451
0.004835763
-0.0117495
0.00259198
-0.04651028
0.03892036
0.02586347
-0.01297014
-0.03920998
0.01793211
-0.009222173
-0.007306523
-0.05571831
-0.05071249
0.001564377
0.03195577
0.04647451
0.0372985
-0.002987336
-0.02068575
-0.03650868
-0.03287653
0.01237599
-0.04474293
0.02426685
0.03246785
0.01909789
0.06029475
0.02103534
0.006669441
-0.01654511
0.06015441
-0.04728531
0.02230708
0.02937788
0.03249716
-0.02471955
0.03365719
-0.05366115
-0.02279324
-0.02036232
0.05392519
-0.0208366
0.04933143
0.01256305
-0.05102156
0.03075268
-0.03009395
0.03246565
-0.03297935
-0.03164871
0.04925818
-0.03694753
-0.01354042
-0.02449001
0.007034415
0.0603964
-0.03494319
0.04626175
-0.0110415
-0.04811415
0.03350534
0.03393114
0.0220572
-0.03345941
-0.00143996
-0.02795784
-0.01008876
-0.01215375
0.03700384
-0.01126129
-0.05511929
0.02302303
-0.04813071
0.0676132
-0.02249725
0.0558967
0.03098118
0.01063064
0.007351789
-0.06622145
-0.01874479
-0.04010751
-0.01392193
-0.02961847
0.002133338
0.02916532
0.03419173
-0.02113954
-0.04559316
0.04003739
-0.05771299
0.05533206
0.02531697
-0.04261572
0.01406897
-0.04794258
0.02504282
0.01485421
-0.05393361
0.0448729
-0.02709518
0.04999642
0.06339843
0.04621856
-0.04446603
-0.04170148
-0.05675345
-0.01321699
0.06594386
0.01907434
-0.03852141
0.0223628
-0.02902666
-0.01275667
0.03856726
0.005676227
-0.02008355
-0.01626095
0.03234388
0.03733134
0.005787054
-0.05688584
-0.03449721
0.06490307
-0.02148492
-0.04251473
0.06564268
0.06242162
-0.01439239
-0.04249129
-0.03708274
-0.05180965
-0.00337237
0.03041551
0.02881034
-0.0008045908
-0.03556932
0.007796132
-0.05308906
-0.02410181
0.01798214
-0.0205279
-0.01914678
0.003269125
0.01062218
-0.01213916
0.0164221
-0.02986298
-0.01324635
-0.05954388
0.0400776
-0.02663286
0.05044696
-0.02332833
-0.02885078
-0.03814596
0.01655702
0.06643198
-0.0002331373
0.06598532
-0.03940753
-0.05123844
-0.06676123
0.04049854
-0.01177954
-0.05464838
-0.04220146
0.008494449
0.02636961
-0.02856477
-0.02669107
0.04005694
-0.0311085
-0.01149094
-0.04858743
-0.04162167
0.03019756
0.03017028
-0.01365572
0.05859086
0.008999789
0.02756904
0.007731352
-0.02278513
-0.01463228
0.05748674
-0.03431999
-0.04798066
-0.008670333
-0.0009803171
0.05057501
-0.03406468
-0.05990735
-0.05113776
-0.05263089
0.001283968
-0.02170329
0.008291305
-0.05288796
-0.002666066
-0.03787433
-0.06000897
0.01170403
-0.0526182
0.03508381
-0.06791595
-0.06346098
-0.005998726
-0.04267753
-0.05516573
-0.0004068958
0.05432336
0.01215108
0.009112621
-0.01095109
0.0009600478
0.008966824
0.02396053
-0.01280581
-0.001329652
0.04760823
-0.06215742
-0.05077184
-0.0405867
-0.01120317
-0.06056302
0.03202767
-0.04790736
-0.02679667
0.01806523
0.04801825
-0.04603037
0.01512162
0.05694697
0.02852857
0.001072139
-0.05207161
-0.007587072
0.01006768
-0.01465294
0.05301109
0.03961536
0.06263349
-0.02144122
0.0673632
0.06418828
0.02172087
-0.001083352
0.02774994
0.01434568
0.06025377
0.0222728
-0.04683951
0.01637832
0.01766232
-0.04365353
0.05869949
-0.0156459
0.02652159
0.02771021
-0.032007
0.05238301
-0.04713868
0.007193865
-0.03524735
-0.02231315
-0.02873488
0.02314073
0.04852067
0.0559134
-0.01490496
-0.05138272
-0.05404378
-0.06608949
0.01359588
-0.05994375
-0.05685429
0.03860601
-0.04001327
-0.007454822
-0.01434727
-0.0348256
-0.007720683
0.02679428
0.02574809
-0.04219118
-0.06712748
0.06667992
-0.02865198
0.004245485
0.01030927
0.03151091
0.03382796
0.05029409
-0.05058257
-0.06730855
0.01881742
-0.012497
-0.05413049
0.02173973
0.02498654
0.06651676
0.0183326
0.03977317
-0.03868598
0.04369987
0.008379957
-0.04868664
-0.06515419
0.009669454
-0.05473587
-0.04784314
-0.04356925
-0.03396021
-0.02587914
-0.06511801
-0.00783293
-0.005996339
0.0493824
-0.0609928
-0.02312229
-0.02747818
-0.01614391
-0.02366144
-0.0223325
0.02152075
-0.01727406
-0.03640125
0.0524297
0.0129678
-0.01082455
0.02357933
0.02479988
0.006183621
0.03549526
-0.0129274
0.01477842
0.02044277
-0.002456364
0.04998484
0.01736549
0.04949578
0.06389749
0.02961519
-0.008955267
-0.00978421
0.007143536
-0.0001484502
0.008236615
-0.05340117
0.008461011
-0.04312286
0.006057222
-0.06107432
-0.0230746
-0.0154719
0.01472404
-0.02594259
-0.005830954
0.007729892
-0.006962686
-0.02315542
-0.03317972
-0.01018537
-0.04744262
-0.01037858
-0.004706397
0.01818375
-0.001518848
0.05498488
-0.01195981
0.03966092
0.06439664
0.06733419
-0.01042166
-0.004681451
-0.02343905
0.02217753
0.05323045
0.05538834
-0.05355941
0.05081101
0.02329876
0.03789425
-0.06342983
-0.03563831
-0.05041451
0.01793758
-0.0386784
-0.01696947
0.04028518
-0.02721562
-0.0416629
0.05775037
-0.0109891
-0.02741572
0.01473888
0.006146236
0.009121185
-0.06651331
0.06285881
0.0568964
-0.06656622
0.02118836
0.02649527
0.03673671
-0.03958289
0.006659656
0.01728396
0.04954347
-0.05996947
0.06048314
-0.01123642
0.006717333
-0.006647322
0.01016293
0.02148244
-0.003137349
-0.01469216
0.05613231
-0.02790069
0.04529265
-0.01107447
-0.052486
-0.05323692
-0.05268082
0.0133872
-0.06129034
0.01038667
-0.05094257
0.04851628
0.03835133
-0.05488028
0.05180714
0.06046615
-0.04251919
0.04944061
-0.06582622
-0.05653764
-0.03222992
-0.06399205
0.01086245
-0.067283
-0.02028524
-0.02493662
0.04773866
0.05195742
0.01955639
-0.003538934
0.04678459
0.01903846
-0.05006039
-0.04709823
0.0209255
0.029324
-0.05037046
3.425794E-05
0.0538564
0.006488657
0.01123946
-0.04458711
-0.04622917
0.06420961
0.0002899065
-0.06690944
-0.03038418
0.0474268
0.004893064
0.01418781
-0.03206475
0.02865894
0.01937204
-0.01453633
-0.05039886
0.05218773
0.02917348
0.04463903
-0.05872586
0.04038724
-0.03303896
-0.03670162
0.06176743
0.01018521
0.03153869
-0.002044407
0.03064005
0.01751294
-0.007869153
-0.04545349
0.04289999
0.02538317
0.06352083
-0.004378255
0.0001595182
-0.05557943
0.05017374
0.01458946
0.0003637087
-0.02131242
-0.06248907
-0.06762476
-0.02087226
-0.06256804
-0.0394108
-0.04981097
0.06760304
0.03241257
-0.06463598
0.03667438
-0.0677861
-0.02707287
-0.009176509
-0.05446746
-0.02840901
-0.01999553
-0.03841792
0.01152224
-0.0352657
-0.06560231
-0.02961287
0.02003951
-0.01264067
-0.01759007
0.03922444
0.0104887
0.03307474
-0.04418633
0.05324077
-0.06275605
-0.06592263
-0.05335261
-0.0236613
0.03052319
0.03493969
-0.03335082
0.05210726
0.05639885
-0.0183406
0.01341304
-0.00171083
0.06616411
0.0142123
0.02339309
-0.04560401
0.002036236
-0.03337694
0.05005167
-0.04390587
-0.04778157
0.05077511
-0.02928512
-0.01808146
-0.001970605
-0.05963617
-0.01459196
0.01295253
0.06465443
-0.03385586
0.01803712
-0.01494908
0.04385275
0.04710842
0.06605669
0.03466039
0.05350313
0.06452505
0.02823692
-0.02147053
-0.06299481
-0.004166176
-0.02688015
-0.03807377
0.01925788
0.004045143
-0.02784036
-0.06210942
0.03190286
-0.03992268
-0.03074842
-0.02407098
0.05095969
0.06765617
0.03308572
-0.04559455
0.03129911
0.03266548
0.04624593
0.02222274
-0.01840498
0.02163327
0.05538945
0.02231809
0.0315589
-0.0395745
0.02237304
-0.04888093
0.01609224
0.05666932
-0.03117052
0.005447808
0.006322758
0.003585574
-0.04884768
0.02432123
0.009718639
-0.05914797
0.03059729
0.06192087
0.03614081
-0.02041916
0.04898629
0.0366405
0.06482918
-0.02582852
0.002027848
0.04413321
-0.05391392
0.04371461
-0.06457535
-0.04709897
-0.0496575
-0.06192244
0.06487107
-0.01669146
0.008380994
0.01873839
-0.001696049
-0.009104249
0.04960872
-0.04689605
-0.01026503
0.04317017
0.05918445
0.0317404
0.03754288
-0.02056251
0.04856722
-0.05917213
0.01262344
0.02251046
-0.06586843
0.05226168
0.05401856
-0.06592243
0.04058361
-0.04918767
0.02542553
-0.01054921
0.02633428
0.04617646
-0.06290363
0.04031425
0.05330805
-0.05200817
-0.01283131
0.0003085763
0.006651126
0.0357804
-0.05199639
0.05891687
0.0104847
-0.02823509
-0.05562447
0.01510024
0.05778249
-0.0621205
0.04539267
-0.03484784
0.004565227
-0.04534627
0.06350261
-0.06267841
-0.03684545
-0.01914919
-0.04916716
-0.03398255
-0.04800437
0.06285688
0.01066156
-0.01036796
0.06124948
-0.05908346
0.0324981
-0.06450436
-0.05192905
0.01735734
0.05779874
0.043256
-0.02336491
-0.03070232
0.04072299
-0.0551498
0.06076087
0.02164319
-0.05591086
0.03030328
0.03994953
-0.0290183
-0.05576831
0.03476748
-0.02664371
-0.007663257
0.05282218
0.003743925
0.05061047
0.06771141
0.009223074
0.004520618
0.06509561
-0.04678538
-0.01962367
0.01173086
-0.04281778
0.02630819
0.06560401
0.001631539
0.007203441
-0.05905674
-0.00090734
-0.02751147
-0.05198262
-0.06579995
0.05645369
-0.03266907
-0.01813264
0.05071579
-0.05550266
0.009447988
-0.03117495
-0.01153381
-0.005995456
0.04895055
0.05068857
0.04383069
-0.05166087
0.0009761203
-0.04396902
-0.03918245
-0.04717821
-0.05170383
-0.05980235
-0.0146585
0.04609701
-0.04451615
0.05685797
-0.0389445
0.05560459
-0.03348394
0.0239758
0.01039422
-0.04483679
0.03106964
0.03982566
0.03967979
0.01881348
-0.02878038
0.003819669
0.01755464
-0.04606006
0.0678313
0.05527745
0.0677117
-0.03224105
0.008692797
0.0271467
-0.0006376021
0.02897892
-0.01871185
0.01003244
-0.003308733
-0.02233606
-0.02155073
0.05605809
-0.01714013
-0.03564574
0.0306125
-0.04396034
0.03303323
-0.02159043
-0.04712476
0.06304782
0.0459179
0.05340881
0.02636744
-0.03463365
0.03087153
-0.05881173
-0.05692784
-0.04291941
0.04505613
0.06509307
0.006412963
-0.06105901
-0.04707288
-0.03904466
-0.05957744
-0.05035407
-0.03053241
-0.003726226
-0.01044105
1.32053E-05
0.006379819
0.02442024
-0.04065209
-0.03520634
0.04465056
0.04294817
-0.01097083
0.007388904
0.0561376
-0.05275666
0.03872307
-0.02879156
-0.06687193
-0.06315313
-0.05857708
-0.05363372
0.009328129
-0.02461018
0.06421179
-0.009762495
0.01797014
-0.04372906
0.03291292
-0.0004651838
0.0391876
-0.02842834
0.03519435
-0.0460321
-0.04400492
0.01302995
0.05450868
-0.03117717
0.05678724
0.02079866
-0.01126863
-0.04643896
0.02612428
-0.006362841
-0.01134759
0.05585998
0.02009572
0.003619876
-0.03112038
0.02987617
-0.04156661
-0.0327321
-0.06212371
-0.05185637
-0.0484042
0.06199291
0.008254421
0.06201439
-1.395661E-06
0.06725807
0.04997969
-0.01782774
0.05944394
0.02774972
-0.006457314
0.005142279
-0.0601828
-0.03287535
-0.0165428
-0.02482898
-0.03932872
0.001963617
-0.01764217
-0.01973396
0.01605211
0.05579851
-0.01182138
-0.05224565
0.05467403
-0.0595848
0.0380784
-0.05358636
0.05532794
-0.06489987
-0.02683519
0.003983078
-0.03424125
0.0191141
-0.06556452
-0.03806121
-0.06316109
0.06043091
0.03676084
0.05746579
0.03875559
-0.06137751
-0.03794627
0.06631118
-0.06784215
0.05144675
0.04810616
-0.01496555
-0.04777395
0.06164521
0.001268271
0.02440639
0.0528467
0.02554687
2.813705E-05
-0.03626609
0.005877666
-0.007436549
-0.06059626
-0.008353213
-0.03875696
0.03562943
-0.005219061
0.05640718
-0.01335172
0.05749623
-0.0285531
-0.01136028
-0.03524745
-0.04641821
-0.02960451
-0.03182301
0.03313939
-0.007171343
0.009447074
0.009492997
0.02580816
-0.01019594
-0.05234012
-0.06470934
-0.03975434
-0.01489267
0.06212422
0.06161935
0.001768483
0.01669504
0.019073
0.008148507
-0.04885066
0.03863819
0.02399775
0.01221208
0.05309055
-0.02282256
0.02828612
-0.06481045
0.01177818
-0.02641683
0.01172628
-0.05740176
0.01206323
-0.008470184
-0.04765471
0.06658088
0.0233131
-0.03484534
0.05920362
-0.007918584
-0.05183683
0.05847176
0.005862372
-0.05186301
-0.02303305
-0.06382354
-0.0365355
0.04407234
0.04144183
0.001098211
-0.01329792
0.03788986
-0.0295134
0.03123502
-0.03044625
-0.005949023
-0.002479339
0.02612003
-0.01697694
-0.01197466
0.03247916
0.006320908
0.06565144
-0.01571163
0.0460144
-0.06287499
-0.008835954
0.03665247
-0.03517457
0.06347995
-0.02963037
-0.0313228
0.02542805
-0.04094503
-0.007951286
-0.0393858
-0.0351608
0.007924141
-0.03269149
0.04897746
-0.05422369
0.05215041
-0.03831566
-0.05725666
0.05481771
0.04177304
0.04004826
0.04876483
-0.04596056
0.02623093
0.0011236
0.0651297
0.05006822
0.00324166
0.02753888
0.009778885
0.06075694
-0.04636262
-0.02994079
-0.02809468
0.01294904
-0.005251343
0.01131029
0.0458985
-0.03720804
-0.04991174
-0.05547481
-0.05650498
-0.02875032
-0.05899708
-0.03872484
0.05753314
-0.009125098
0.001982215
-0.0256876
0.04826538
-0.02330005
0.05497148
-0.00259272
-0.06369526
-0.03498663
0.01033583
0.0146764
0.006531117
-0.005580269
-0.02682345
-0.0134544
-0.04575023
-0.0005472911
0.05020645
-0.03220611
-0.0567348
-0.03007169
0.06333981
-0.0319082
0.01896428
-0.02709651
-0.01627755
0.047888
0.03679284
0.02931122
0.02861662
0.00957853
-0.0549001
-0.002980851
0.01152708
0.00631817
-0.01985061
-0.03900737
0.04721013
-0.03485769
-0.06215116
0.02416672
-0.03418216
-0.06104467
-0.06532342
0.04800887
-0.06315745
-0.01645785
0.05755203
0.03147928
0.05821205
0.01197893
-0.01102015
0.04114566
-0.04992666
0.01966821
-0.004528284
-0.03404621
0.02328475
0.007425261
0.06091412
-0.06085315
0.02855106
-0.02506986
0.004333369
-0.06717931
0.001639884
-0.05842466
0.05082927
0.034795
-0.06154041
0.06119375
0.0201792
0.01712752
-0.03799158
-0.0129649
-0.06382615
0.05644786
-0.0345214
0.03889202
-0.03187568
-0.06775632
0.05827259
-0.06262306
0.0390358
-0.05129892
-0.04733795
-0.02810914
-0.02099081
0.05979549
-0.05709017
-0.05374102
0.005644508
-0.02815175
-0.02783519
0.06663861
0.06355228
0.05882433
0.00255858
-0.06608072
-0.02156763
0.06320383
0.0006494966
-0.04517959
0.02508307
0.06495491
0.05973634
0.03978896
0.01120062
0.03097486
0.01555774
0.00696048
-0.06746143
0.05232935
-0.02863568
0.06073381
-0.05118911
0.02323751
0.003830961
-0.01230433
0.04809525
-0.0381876
0.03050278
0.0589704
0.02394855
0.06013723
-0.01238738
-0.01960566
-0.02297392
-0.03669357
-0.008580556
-0.05471386
-0.01404734
-0.0363773
-0.007476971
-0.02714289
-0.0004691913
0.03551556
-0.01976951
0.04201751
-0.04309865
-0.01919028
0.02862686
0.01597095
-0.02369887
0.003885974
-0.05421621
0.02125178
-0.0674527
-0.02063238
0.0498911
-0.02762185
-0.01294326
-0.05307372
-0.04623935
-0.05131666
-0.03523557
0.009615716
-0.001191523
0.03288246
0.009405669
0.01140539
-0.005173749
-0.02004244
-0.0283812
0.002334974
-0.0469288
0.03685249
-0.008130302
0.06644384
-0.006733615
-0.01876806
-0.02492961
0.02975008
-0.0371423
-0.0006510933
0.001122162
-0.05340479
0.01473265
-0.04787404
0.04641682
0.03429747
-0.02008959
0.06559509
-0.01864805
-0.04889533
0.02616602
-0.02891025
-0.05807457
-0.02409694
-0.05984394
0.05785171
-0.03122954
0.01528466
-0.03532478
0.01343258
0.05392009
-0.01926732
-0.02358447
0.04190278
-0.01712185
-0.02313207
-0.03855454
-0.06595992
0.05403785
0.0007225373
0.06524438
0.02524329
0.05200521
0.02234837
0.0154978
-0.0497674
0.06281969
-0.0212541
0.05440225
0.04304483
-0.03644165
-0.002832214
0.06654223
-0.0474225
0.04410557
0.04991807
0.02699044
-0.05196999
0.05835116
0.003351292
-0.05547514
0.02772236
-0.002861761
0.01736174
0.01336544
-0.04754714
0.03811631
0.04076649
0.03718442
0.001612276
0.004915382
-0.02206629
-0.05637939
0.04856604
-0.04620308
-0.06701389
-0.01297884
-0.01248632
0.02834188
0.05786008
0.06296865
0.05796118
0.02881903
-0.01043299
-0.01806239
-0.01118432
-0.01787293
-0.04409859
0.06573383
0.0008966993
0.01781411
-0.05452117
-0.05637446
-0.01725006
-0.01173894
-0.0304146
-0.03983157
-0.03329315
-0.05895369
-0.004891677
-0.01994709
-0.04588342
0.009498096
-0.01514664
-0.02980718
0.05356126
-0.01438945
-0.04996043
0.0667172
0.04318284
-0.005039713
-0.02845987
-0.01237525
-0.06744555
0.008319267
-0.0454997
0.06683995
-0.06036539
-0.03251249
-0.04338687
0.03826241
0.01427828
0.04296928
-0.0316489
0.05173479
-0.008500067
-0.03362845
0.02880729
-0.007631641
0.05214814
0.04075431
-0.0476223
-0.02146925
-0.03470306
0.009870554
0.04091545
-0.01947353
-0.02397095
-0.04856243
-0.00368703
-0.06473149
-0.03584912
-0.04287918
-0.04538563
-0.06200021
-0.02166265
0.02579069
-0.05686554
0.0423673
-0.03417586
-0.02931793
-0.0474028
0.06715596
0.0523698
0.02478254
0.03371125
-0.02091608
-0.02678963
0.001055188
0.04662951
0.01925309
0.02473989
0.02560783
-0.05336756
-0.06550809
-0.02535403
0.060946
-0.0456088
-0.009379479
0.03534044
0.04191045
0.02287428
0.05613366
0.03911116
-0.046592
0.006174904
-0.01077917
0.02041829
-0.03758531
0.005460817
0.03364586
-0.04469954
0.05437661
-0.0413924
0.01352945
0.02022048
-0.04684164
-0.005902422
0.00845102
0.04409593
-0.006105093
-0.06062052
0.04291048
-0.02725532
0.0449965
-0.02153476
0.006479671
-0.05744823
-0.04781416
0.03129045
-0.01467203
0.003462876
0.02045057
-0.06090977
-0.008149691
0.01574441
-0.03559984
-0.03989182
0.03102517
-0.04932899
-0.0234462
0.02660225
-0.05714095
0.06353099
-0.05495297
-0.003983996
0.03829989
-0.0009363877
0.001039607
-0.01779195
-0.04644902
-0.001088196
0.0138768
0.01446122
-0.02649109
0.03459435
0.04790042
0.01545236
0.06205128
0.04287938
0.06763186
-0.02126755
0.0002958314
-0.00093913
-0.04780377
-0.03775363
0.002786519
0.04734976
0.03469391
0.06572167
-0.0121163
0.06098681
0.03100903
-0.01015661
-0.0003944944
0.03522928
0.06445704
0.04731611
-0.04023897
-0.01895612
0.008101971
-0.06052056
0.00944878
0.03791441
0.009802838
0.05435279
0.0575227
-0.06194727
0.03351794
0.02519258
0.03578061
0.01688442
-0.03400648
0.05608241
-0.04902422
0.06575797
-0.0416302
0.01173481
0.04339815
0.05073728
0.06116611
0.05888676
0.03230632
0.003254563
0.06226097
-0.0394992
0.0358394
-0.04390321
-0.05308091
0.006216255
0.03807393
-0.06735232
-0.01224529
0.01307078
-0.03315921
0.0602158
0.03722029
0.03031804
0.05719465
-0.03421994
-0.02733971
-0.003202829
-0.0541048
-0.05843529
-0.03799557
0.0389359
0.02705667
0.04286324
-0.02906901
0.001784154
0.008922861
-0.01521439
-0.06401865
-0.02303964
-0.01218561
0.01715184
-0.02489026
-0.06174241
0.04359006
-0.01863458
-0.04942323
0.03348929
0.05907026
-0.04063493
0.05505526
0.0351963
-0.03880691
0.02085936
0.021305
-0.0413034
-0.03939893
-0.004011624
0.02247678
0.009681462
0.01014038
-0.003567686
0.04505494
0.02280499
-0.02668649
-0.04461155
0.001380753
0.06091278
0.05310243
0.01307156
0.06523002
-0.0146483
0.06460296
-0.05714228
-0.04268023
0.01762557
0.01716944
0.03102607
0.0546646
0.007892615
-0.05273333
0.007107619
0.005663536
0.05446675
-0.04555393
-0.005255249
0.009806186
-0.06173931
-0.04637838
-0.05570224
-0.02675353
-0.05500214
0.03024546
-0.005763494
0.03475661
0.0593187
0.04003352
0.02024137
0.03288071
0.02026499
0.04792129
-0.04239939
0.04832349
-0.02193792
-0.03792833
0.001766939
0.03852997
-0.04960126
-0.00439703
-0.0642572
0.00946379
-0.002488383
0.009260395
-0.05335246
-0.005521829
-0.06490386
0.0587054
0.05852481
0.0004222911
0.04650538
0.01351889
-0.004816555
0.03935453
0.04086804
-0.02811153
0.05229553
0.02304286
0.002429833
-0.02396226
-0.03406231
0.04552868
0.06486469
0.06608199
-0.03353701
0.02790795
0.05760268
0.02672075
-0.04033516
0.02445846
0.02061576
0.02415141
-0.008529179
0.01059434
-0.0500578
0.002770591
0.04367147
0.00367409
0.0156613
0.06769495
0.03172385
-0.06732332
0.04944533
-0.04811754
0.05431195
-0.06119052
-0.01519878
-0.0138173
-0.06048118
-0.06176301
-0.02228724
0.0466607
-0.03183649
0.04229763
-0.03827134
-0.04184925
0.01253572
-0.000633745
-0.02513922
-0.01332379
0.004812114
-0.023688
0.03110394
-0.03387027
0.04774316
-0.04558265
-0.04588856
0.05252573
0.02147571
-0.02983917
-0.00384638
-0.01931518
-0.06055506
0.002671498
0.01225051
-0.03467561
0.06401996
0.04504561
-0.05616659
-0.04028311
-0.02482989
0.003483356
0.01926531
-0.04650877
-0.02119093
0.04189168
-0.01194872
0.01710982
-0.01907094
0.05972807
0.05817149
-0.02363141
-0.03912331
-0.03895153
-0.005053779
-0.01252478
-0.03049064
0.01537898
-0.02792408
0.03195798
0.05263466
0.0002121133
0.03264361
0.03729461
0.01001999
0.06496456
0.03927913
0.03342863
-0.03788951
0.0643409
-0.0379326
0.03542674
-0.01240378
-0.05279273
-0.05643052
-0.06660786
0.02498331
0.009676087
0.05525728
-0.06208515
0.0343027
0.004938248
0.00366005
0.02968426
-0.02007404
-0.0481516
-0.04812849
0.0463331
-0.06021135
-0.04316133
0.06375165
-0.01929563
0.005033062
-0.02018794
-0.02498115
0.04289462
0.03877637
0.04990733
0.01140787
-0.01821887
-0.06532407
0.02255926
-0.0129373
-0.01547522
0.02972404
-0.04519187
0.056709
-0.0542672
-0.05045763
-0.006382537
0.03042853
0.0277699
0.02805832
-0.03377555
0.0655919
-0.02024021
0.06448869
-0.06497727
-0.01056798
-0.009765037
0.04515643
0.06088265
0.02570336
-0.06266479
-0.06734738
0.04929966
-0.03754295
-0.06015246
0.04012504
-0.03138852
-0.03744761
0.04301261
0.06620484
0.005539534
-0.0646977
-0.05619319
-0.05006108
-0.04880136
0.06789684
-0.04281879
-0.03692397
-0.06179791
0.02885411
0.01410781
-0.005653246
-0.03195487
0.02058267
-0.02912801
-0.01784323
0.06319568
0.04634256
0.03581702
-0.007461317
-0.04676372
0.004561314
-0.0582701
0.06479253
-0.01820913
-0.01606446
0.04836101
0.0602877
0.04892483
-0.02645562
0.04886751
-0.03687155
0.05535255
0.02950168
-0.04541784
-0.03701447
0.05384847
-0.03811576
0.04535342
-0.06493749
-0.03568581
-0.04077769
0.03901773
-0.03590808
-0.05634108
0.01092507
0.03254412
-0.03921964
0.05952168
0.02562739
0.04486597
-0.00979445
-0.005328013
-0.0174627
0.04503194
-0.06695841
0.06150903
-0.0530491
0.03608467
0.03519973
-0.04840079
-0.03516987
-0.01791218
0.03259433
0.04792323
-0.01695726
0.006930826
0.006480075
-0.001936109
-0.06005016
-0.003755077
0.03337482
-0.06694748
0.0328179
-0.03971213
0.06195059
0.03348021
0.04557459
0.05319699
0.03880242
0.01932804
0.01964402
-0.06717061
-0.04463919
-0.003384968
-0.009274666
0.03639309
0.004878625
0.05240636
-0.04639606
-0.03058688
0.03896095
-0.006263808
-0.05778293
0.05139991
0.06742068
0.04507111
-0.06151322
-0.01589468
0.0285528
-0.06394237
-0.04187258
0.0306531
0.05163522
-0.03855415
-0.05644547
-0.01078359
0.02979071
-0.04568719
0.05101797
-0.03250199
-0.05200219
-0.03830946
0.06521887
-0.05206493
-0.0001081869
-0.03593588
-0.04120962
-0.03195733
-0.01073873
0.01458627
-0.06588442
0.02201034
-0.02347667
0.03847334
0.0252206
-0.02829799
0.05877207
0.04935461
-0.03919619
-0.05105714
0.02705681
-0.006467345
-0.04329244
0.03480817
-0.006735998
0.05692755
-0.0508692
0.06185159
-0.01487612
-0.0664277
-0.06133424
-0.01737081
-0.06654823
0.05404256
-0.04652131
0.009333791
-0.003546059
0.06221862
-0.01642852
0.03541994
0.0183441
0.03838073
0.06278067
-0.05397009
-0.06599458
0.004053705
-0.01380685
-0.05477474
0.004161873
0.03978914
-0.001619037
0.04837272
0.06144561
0.03413849
0.008377818
0.02240178
-0.06295364
-0.03752592
0.02260769
0.01090089
-0.0530033
-0.03512458
0.05085541
-0.01224765
0.007983897
0.01942301
0.02062194
-0.009582604
0.01705803
-0.05204982
0.04318469
0.06449007
-0.002153493
-0.006679502
-0.001464623
0.05661271
-0.001311393
-0.05725897
0.03286613
0.05714692
0.002797778
-0.06403108
-0.01024691
0.01327136
0.003127959
-0.04177035
-0.0108798
-0.03275009
-0.02227189
-0.0009864626
0.004350815
-0.03395676
-0.02832568
0.04060721
0.02048662
-0.01446794
0.05546193
0.0070917
0.005982634
-0.01748096
0.05136839
0.06371237
-0.003896151
-0.01172493
0.06454108
0.001827513
-0.0174104
0.0001884948
-0.03233351
0.01970173
-0.04422345
0.06224195
-0.002455427
0.03339739
-0.05983351
-0.05690884
0.04305895
-0.03035256
0.05256101
-0.01818238
-0.03763382
-0.01456459
-0.05524734
-0.04989213
0.01153599
0.009204824
0.02487914
0.02517592
0.0407705
-0.05493331
-0.06678585
0.05953353
0.004695017
-0.01758954
-0.06215809
0.007022026
0.007801692
-0.0664586
0.0166669
-0.06663617
0.04357668
0.05686833
0.06752004
0.025963
-0.02469963
0.01004549
0.03643529
0.006213548
0.0325041
0.009458843
0.01040974
0.01787787
0.02246731
-0.04377161
-0.04778376
-0.002003642
0.05102309
-0.02194064
0.0446757
-0.01260037
0.044885
0.0253503
0.02735462
-0.04533683
0.01855096
-0.03582036
-0.01038969
-0.05280251
0.02761886
0.001081084
0.003226086
0.04158092
0.02091716
0.05126056
0.006177567
-0.02656553
-0.01414802
-0.01327372
0.04274412
-0.06644612
0.04070616
-0.04927104
0.06060844
-0.03662496
0.002593578
-0.0167271
-0.0308704
-0.01947
-0.03774239
0.007782173
0.02393556
-0.03819429
-0.04319768
-0.03866936
-0.04358455
-0.04971025
-0.03842291
0.04492025
-0.06052458
-0.05681589
-0.04750144
0.02130118
0.04653131
-0.0365136
-0.06170386
0.03676543
0.06489734
0.03914337
0.01798744
0.04671839
-0.05579225
-0.00363981
0.003251857
0.0431852
0.0146301
0.02621941
0.03267848
-0.003957039
0.02000622
-0.03265857
0.06298666
-0.05885632
0.0528765
-0.04809994
0.04508215
-0.02651625
0.01684198
-0.008350108
0.0269085
-0.01204881
-0.05607924
0.008868354
-0.02068577
0.03162339
0.04899194
-0.04853164
-0.02786572
0.02918542
-0.04285772
0.03376476
-0.01368782
-0.002077147
0.03047918
-0.01652416
-0.0043622
-0.04036126
0.02649048
-0.01844625
0.01463717
-0.001867344
-0.01445211
0.03347075
-0.04302259
0.04007061
-0.05186593
-0.05658174
0.0363613
0.02669463
-0.01365913
0.032749
-0.04801316
0.005310824
-0.05570175
-0.03790037
0.034861
0.003276019
-0.05089067
0.03956509
0.06212988
-0.004774879
-0.01385149
-0.06444356
-0.02903594
0.05417807
0.04896587
-0.002872811
-0.02139888
0.00146404
0.02419889
0.01750678
0.0149299
-0.03264839
0.04494935
-0.03916078
-0.06553332
-0.02161337
-0.01604568
0.007180246
0.0155527
0.03763706
-0.01695632
0.01337627
-0.02509207
-0.007670105
0.01384131
0.04893798
-0.01431202
0.0004429315
0.01655146
0.0602984
-0.05740721
0.05486201
-0.01263951
-0.04852457
-0.05595248
-0.01794517
-0.005429931
-0.02926404
0.05904136
0.0189435
0.03275376
-0.03303936
-0.06544088
0.03677071
-0.05011752
0.05257185
0.0282981
0.05139565
-0.04030367
-0.01146225
-0.04861492
0.00986571
-0.04392424
-0.0434438
-0.05575518
0.04070887
0.02858513
0.04657079
-0.02759986
-0.06790873
-0.05649741
0.04609481
0.0528492
0.03183711
0.00697737
0.02800451
0.04792774
0.0255373
-0.05114492
0.02034848
0.05175319
-0.05471826
0.01607551
0.06454583
-0.06305332
-0.05185358
0.01088053
0.006073847
-0.02548921
0.02920608
-0.04729674
0.002228952
-0.02719002
-0.0399229
0.0409767
0.0006637017
0.03084963
-0.03713234
-0.06070602
-0.02872472
0.02140632
0.0159359
0.06627244
0.05901347
0.007504294
0.05459557
-0.01795194
-0.02934136
-0.03814328
-0.0101854
-0.06329252
-0.06517582
0.03460395
0.007284473
0.004721182
-0.06183328
0.06172682
-0.04053344
-0.04832709
0.06403502
-0.03810829
-0.04542534
0.004123378
0.01113069
0.04732463
0.009210254
0.005348205
0.02483548
0.05879702
-0.06162295
0.0650915
0.01712346
0.01830669
0.04551642
0.06687878
-0.03211934
-0.05305408
0.02499866
-0.01089509
-0.04971228
0.03403498
-0.02771473
-0.02371949
0.05263281
0.02456197
-0.05005755
0.03556162
0.03346213
0.02329253
0.03487336
0.006873501
0.003446448
-0.05674187
-0.05680442
-0.05855305
-0.001104969
-0.05612409
-0.01279487
-0.05624779
0.06623066
-0.01868925
0.0251492
-0.02020177
-0.04445696
-0.007340277
-0.01247935
-0.01554588
0.05702415
0.008342312
-0.0310961
0.05915742
-0.03120846
0.03829827
-0.06655143
-0.03793658
0.05754306
0.04623077
0.01942719
0.05450534
0.02944556
0.04158526
0.0398227
-0.06639367
-0.04401296
-0.000559833
-0.00629157
0.005928708
0.007174486
0.03613286
4.713022E-05
-0.04393186
0.02767741
0.01330983
-0.00918913
0.03691359
-0.05905084
0.06042366
-0.04719916
-0.007963537
-0.0308953
0.03342495
0.04647409
-0.0428168
-0.01354799
0.04365256
-0.02985466
0.0330848
-0.05812706
0.04906878
-0.04815949
0.02060088
-0.007614667
0.0006364128
-0.01775672
-0.04329121
0.009424674
0.02360625
-0.04412543
0.0240395
0.06688792
0.04952856
0.04521625
-0.04704532
-0.05964144
-0.05510086
-0.03645661
0.02341833
-0.02044922
-0.0355284
-0.04682235
0.06505603
0.02549331
-0.04054589
0.01746401
0.06395722
0.06304779
0.01470288
0.01509093
-0.0197289
-0.0386418
0.02856025
-0.003880856
0.02604233
0.01635573
0.04738287
0.03161943
-0.04089563
-0.03687007
-0.03383454
-0.0404477
-0.01472048
0.03661246
-0.003302037
-0.006914831
-0.01248723
0.05614533
0.02558279
-0.05111198
-0.02638375
0.01217254
0.01466363
-0.0144026
0.04533797
0.02795452
-0.0452789
0.06304419
-0.03500539
0.05110902
-0.01377732
-0.03840238
0.06265842
-0.0594213
0.04354009
-0.005255323
-0.02960896
-0.01452721
-0.04876269
0.004535566
-0.03908769
-0.01878366
-0.0634976
-0.007648216
-0.05455131
-0.06301732
0.03583474
-0.03949306
-0.03914127
0.03430556
-0.03798537
-0.06012473
-0.03047163
-0.002121762
-0.02646194
0.03603518
0.01463119
-0.02497377
0.0187178
0.06602444
-0.006301996
0.0522753
-0.001311801
-0.02406802
0.04484387
-0.06336877
-0.0351695
-0.0232358
0.06100899
-0.06598333
-0.04524249
-0.06589665
0.0369714
-0.04688939
0.05591233
0.06033653
0.007733523
-0.04562477
-0.02778792
0.04041867
0.0600564
0.06215079
0.03424884
-0.001374334
0.02115777
-0.02158922
0.06000587
-0.00315644
0.03497726
-0.06043171
0.04805011
0.06330143
0.03469162
-0.04685051
-0.05709906
-0.02342637
0.05046476
0.02850704
0.01544454
-0.05911915
0.0400888
-0.008866084
-0.03256543
-0.04109456
0.01161143
-0.04002535
-0.0291595
-0.05151886
0.009902529
-0.01886185
-0.03963496
-0.007680656
-0.06512247
0.04623575
-0.06196858
-0.0005161635
-0.04991016
-0.06787409
0.02271082
-0.001503531
-0.05543803
0.03592356
0.009723563
0.05350408
-0.04609682
-0.0406073
-0.03265165
0.01588528
-0.05772696
0.01140208
-0.05806484
0.0471631
0.006867312
-0.03660539
-0.06760675
0.0009858573
0.0267796
0.007406781
0.05495086
-0.006753502
-0.06036634
0.04358811
0.05487765
-0.0140975
0.04713987
-0.01220586
0.06048727
0.05639249
-0.05281855
0.01135373
-0.04145284
0.05040223
-0.0621404
-0.05098855
0.06425551
-0.06377138
0.04934698
-0.01813289
-0.06293436
-0.01571789
0.06056292
0.02289184
-0.06172853
0.06643707
-0.02873363
-0.01886144
0.05338866
0.03941954
0.04590589
0.004982181
0.04064086
0.01061968
-0.05488832
-0.03847229
-0.00907381
-0.03108952
0.04898253
-0.04411555
-0.06157241
0.03404566
-0.03315795
-0.02110751
0.0007672083
-0.00114406
-0.0150817
-0.04053045
0.04136688
-0.01008075
-0.03292427
0.06410124
0.0195755
-0.02302413
0.002404521
0.00273213
0.0006201962
-0.01532156
0.03738001
0.05637721
-0.0533005
-0.001935306
0.002342108
-0.04686889
-0.05745002
0.01013589
0.03864949
0.01586411
0.03735393
0.04426851
0.02602188
0.0274084
-0.04481729
0.02552591
-0.0244971
-0.0290434
-0.05049657
0.01373381
-0.04581199
0.007352157
0.01358215
-0.0561398
0.007708299
-0.004467213
0.004407191
0.04974126
0.0533433
-0.004271632
-0.05972146
0.01031617
0.02884413
-0.06168887
-0.0005329124
0.06054195
-0.05875168
0.008299513
-0.03623307
-0.05422568
-0.03159411
0.05856794
0.02814307
0.03699081
-0.009947756
0.06503499
0.03183399
0.007603951
0.04098191
0.06198622
-0.06646366
-0.0364887
-0.01470793
0.054823
-0.03744619
-0.03790876
-0.02514157
-0.06509732
0.05829301
-0.0611273
0.01666054
-0.03925467
0.02472922
-0.0250155
0.007648948
-0.04089886
-0.05251224
0.01977413
-0.03999531
-0.03742261
0.01634097
0.03514001
-0.06074695
-0.0642075
-0.02260869
-0.0364433
0.04714571
0.04452796
0.02174458
0.01060994
0.03163542
0.06473986
-0.05917726
0.05929371
-0.005744598
0.04470386
-0.04291252
0.04195775
0.04369394
-0.03056077
0.01774689
-0.06159099
0.01794312
-0.04304239
-0.002949604
-0.06027607
-0.0340979
-0.01477805
-0.03859476
-0.03698552
0.0496106
-0.05587676
-0.02033736
0.0104679
-0.02229138
-0.03366704
-0.04367837
-0.01843704
0.009495075
0.06693374
-0.01711785
-0.001732903
-0.01890527
-0.02025354
-0.0248261
0.0198573
-0.04801403
0.03337213
0.04866572
0.03088171
-0.06592296
-0.02653336
0.04401681
0.05850208
0.01276712
0.009995337
-0.05073973
0.05023206
0.006678722
-0.03026924
0.06559122
-0.006012868
0.01518609
-0.00920653
0.02893596
0.01957555
0.0171406
-0.001708538
0.01364846
-0.04001417
0.0204456
0.04346114
-0.03547395
0.04469682
0.0544937
-0.04845683
0.0252509
-0.02973996
0.04972033
0.04512972
0.05567458
0.0004665883
0.004492854
-0.001539847
-0.03899918
0.008207341
-0.03195694
-0.01090282
0.06563739
0.03564991
-0.05086394
-0.0259738
0.04282085
-0.0281723
-0.0665941
0.05683164
0.05101762
0.05823788
0.01874712
0.02353497
-0.06521992
0.02163113
-0.04821295
0.02074327
-0.05750052
-0.04144748
-0.05899604
0.06725661
-0.06392824
-0.006712674
0.05268106
0.04693685
-0.06742489
0.02948563
-0.0180072
-0.002811993
0.0574309
-0.05121068
-0.03814397
-0.04720801
-0.01640412
-0.0398932
0.0005906858
0.04593517
-0.05708686
-0.02151721
-0.06729633
0.06063497
0.0433543
0.06559868
-0.03153783
0.03494964
0.01944954
-0.04175127
0.04241301
-0.03389318
-0.01925709
0.0516862
-0.01197595
-0.06548832
-0.0007332453
-0.03127693
-0.01491121
0.00441345
0.05090547
-0.02986417
-0.02648554
-0.0546014
0.05777152
0.004154515
0.06733736
0.03429168
0.02844523
-0.001981492
-0.02799753
0.0426099
-0.04689617
-0.0262115
0.009893512
0.03195332
-0.04208777
-0.05169439
-0.04403431
-0.06159029
-0.04311147
-0.0502052
-0.0404493
0.042263
0.05500924
-0.05205064
-0.05149153
-0.06219193
0.0287019
-0.04059227
0.02146186
-0.05306381
0.04295463
0.06411386
0.06296632
0.04071393
-0.0629683
0.05524169
-0.06507316
-0.02873684
0.06619794
0.002107109
-0.06143222
-0.04650559
0.05418288
0.06773973
-0.05493363
-0.06098221
-0.02614393
0.02400735
0.04453607
-0.01697548
-0.05517924
-0.02125753
-0.02041171
0.03317406
-0.05735148
-0.0008119117
-0.04167401
0.04188554
-0.01229058
0.06159267
-0.06234683
0.001100886
0.04449327
-0.04287033
0.06759189
-0.04307341
-0.0212412
0.03711621
0.026985
-0.02939283
-0.05455784
0.05263914
-0.05985161
0.02271805
-0.05670961
-0.06188033
0.05601674
0.05520613
-0.06505363
-0.05844595
0.03188863
-0.06324208
-0.01719172
-0.02949928
-0.06582119
-0.003724457
0.01658894
-0.03814436
0.03012879
0.005780235
0.02897908
-0.03902208
0.05149036
-0.06333135
-0.003482678
0.005403519
-0.02306224
0.02911659
-0.06778878
0.0560764
0.02819561
0.004676485
0.06495897
0.005992272
-0.03035425
-0.03988176
-0.02934255
0.02480687
0.02194704
-0.06340778
0.01110797
-0.02894352
0.03900255
-0.02178125
-0.03823258
-0.06704138
-0.04964402
0.00605593
-0.04498576
0.003379728
0.008274271
-0.05103346
-0.06094921
-0.04673186
0.009564716
0.05240086
-0.06678784
-0.06445687
-0.0417359
0.005823492
0.02911853
-0.04103648
0.05505829
-0.05319341
-0.01870493
-0.04072448
-0.06026443
0.04475263
-0.06708165
0.04199719
-0.04231853
0.05971869
0.007845217
0.02559995
0.06260888
-0.01001402
-0.01008801
0.005334996
0.04283785
-0.004377918
-0.01288908
0.03881845
0.00616573
-0.003231888
-0.02013449
0.01129245
-0.002310927
0.04375421
0.06436418
-0.01481849
-0.04103054
-0.0328223
-0.001393856
-0.05181307
-0.02458969
-0.01579217
-0.01606519
0.02425933
0.0648603
-0.06544472
0.06115967
-0.02646003
0.00520096
-0.01904632
-0.02223836
0.0164922
0.009057946
-0.01861254
-0.04140412
-0.04835788
-0.005447761
-0.004186216
-0.03935811
0.03057864
-0.04922405
0.0582367
0.02073442
-0.009646446
0.03487771
0.03793924
0.02952307
-0.03608202
0.04832508
0.01567346
0.01509111
0.05844039
-0.006824071
-0.008278335
-0.01774698
0.01046444
-0.06188546
0.03358928
0.008411318
0.04034595
0.002399037
-0.05436568
-0.03431913
-0.04272457
-0.04893015
0.03130993
-0.06570212
-0.05163501
0.01722172
0.04478544
0.0585659
0.0310923
-0.06140081
0.03596412
0.0653476
-0.01488977
0.03141003
0.06151788
0.05731825
-0.04101557
-0.02703117
0.02930506
-0.006848483
0.05746413
0.03379919
-0.01274213
-0.04462035
-0.05060034
0.06707107
0.01606806
-0.05440904
0.02889958
0.05533909
-0.01176744
-0.03975702
-0.06279499
0.02461922
-0.004477637
-0.02865292
-0.06436884
0.03570474
0.01322146
0.01463289
-0.06439698
0.02504418
0.05193543
0.05190458
0.02514843
-0.005689312
0.06507941
0.04699103
-0.05546672
0.04420765
-0.01850974
-0.0005594951
0.04103059
0.02041943
-0.02384664
-0.008587139
0.03174861
0.007993662
0.05283484
-0.05076946
-0.06678297
0.03125786
-0.03827031
0.04368983
0.01830325
0.007784517
0.06020597
0.02842763
-0.03204895
0.02223418
0.05375047
-0.008783683
0.02768399
-0.05326445
-0.01038812
-0.03551668
0.04980038
0.003289911
-0.00183216
0.02302559
-0.06594496
0.03701365
-0.06687894
0.05262855
0.005912204
0.05672868
-0.01285099
-0.0152778
-0.01947077
-0.06382712
0.007535093
-0.004425886
0.05080652
-0.003945705
0.01347923
-0.02771822
-0.004622134
-0.05969102
-0.03433529
-0.05057271
0.002041344
-0.03128485
0.01110336
-0.009764277
0.0583938
0.05821057
0.03969314
0.02635842
-0.03712907
-0.05626658
0.0095491
-0.03947793
-0.0581108
-0.03812737
-0.05276112
-0.03586
0.03020019
-0.02296223
-0.03015899
0.02951119
-0.04730112
0.00754714
-0.02003822
-0.03615845
-0.05323754
-0.009760262
0.008346418
-0.03630693
0.001192943
-0.05060652
0.03704208
0.04155478
-0.03031142
-0.01919607
-0.04695237
0.03327651
-0.04202633
0.01082195
0.06217137
0.01563826
-0.05090108
0.02872721
-0.04608534
-0.03114081
-0.005439598
-0.0209236
-0.01425171
0.02099727
-0.01912121
-0.01859739
0.01001822
-0.04959653
0.0384046
0.004090147
0.06466503
0.06243083
0.05668999
-0.02067481
-0.02446336
0.0002174419
-0.01807247
0.008063442
-0.04277115
-0.05445917
-0.02537203
0.03593094
0.05877012
0.02902189
-0.05911162
-0.018101
-0.06177029
-0.04855839
-0.01719698
0.02213937
0.01247564
-0.008091708
-0.01430414
-0.05683403
0.03721777
0.03562269
-0.06344517
0.05528577
0.05075091
-0.04814629
0.007311884
0.01870198
-0.06478643
0.03353505
-0.01592448
-0.04144658
0.04452313
0.04658511
-0.03265131
-0.005982697
-0.03422589
0.008972101
0.003561737
-0.05956279
0.06216784
0.02656609
-0.0117571
0.02466302
0.01217227
0.06691641
-0.02476372
-0.009360016
0.03553707
-0.05167139
0.05955112
0.004820114
0.008798342
0.04558739
0.01004405
0.007850564
-0.004274004
-0.005421621
0.02524916
-0.06256147
0.006165565
0.02386261
0.03278075
-0.04270155
-0.02299025
0.05027158
0.005312488
-0.04041877
0.05202954
0.05672234
-0.01157137
-0.06443308
0.05628318
-0.02267797
-0.05106525
-0.05728494
-0.02055683
-0.02017157
-0.02482312
0.05177112
0.04455405
-0.05126472
0.05110153
0.05482158
0.04192055
0.04719203
0.0176917
0.06687236
-0.03139557
0.02743475
0.06622793
0.03913235
0.05165957
-0.001813407
0.002208263
-0.02963139
0.06172196
-0.03699217
-0.02028335
0.02983731
-0.006332701
-0.05228157
0.006547069
0.04675135
0.02783659
0.05604758
0.01647356
-0.03646031
0.02871602
-0.000607633
-0.03952923
-0.05203905
-0.04853512
0.04141466
-0.03917891
-0.01050634
0.0406977
0.04589579
-0.01668548
-0.00224566
-0.03535675
0.00637675
0.05891341
-0.04334184
0.05843104
0.0172329
-0.04815602
-0.009840038
0.04305039
0.04650276
-0.05107028
-0.05150128
-0.06782485
0.01327619
-0.009832802
0.028899
0.01012483
-0.06358644
-0.04095163
0.05380959
-0.03721815
-0.01378461
-0.02978028
0.03714869
-0.0009726385
0.05033036
0.01973085
-0.05769172
-0.03057112
-0.05522202
-0.002392462
-0.05211045
0.04762993
0.04989893
-0.002742563
0.05522717
-0.04325835
-0.01804771
0.05625694
-0.05733293
0.03626698
-0.04162303
-0.01157408
0.05014988
-0.01747398
-0.05596457
-0.05215083
0.006125313
-0.01668916
-0.0001412811
0.04730545
0.03634752
0.0189108
-0.002558449
-0.03296413
0.04636448
-0.03177959
-0.0461719
0.02556742
-0.05983594
0.06543867
-0.05840093
-0.04720554
0.03033579
-0.0190414
-0.06689645
-0.03119459
-0.04978716
-0.05191787
0.002876648
0.004220727
-0.03976408
-0.05190676
-0.05155532
-0.05039402
-0.06353174
0.06572609
-0.01199355
-0.01331396
-0.01294469
0.03454456
-0.05433108
0.02693406
0.03750678
-0.03459086
0.02919664
-0.003084623
-0.01774824
0.01492644
0.01882958
0.01907014
-0.06502308
0.02432149
0.04815626
-0.05483498
0.02673129
-0.06235411
0.02602675
0.001254662
-0.01851415
0.04316664
0.06557295
-0.009893436
0.04837082
0.06357461
0.01913291
0.02031765
0.002529497
-0.02010105
-0.03736901
0.04857501
0.04815058
0.03507868
-0.02942451
-0.02644389
0.05183313
-0.01739837
-0.0167757
-0.003009972
0.01969858
0.004124793
0.05449026
0.003223023
-0.002810827
0.05174313
0.001307182
0.003851057
-0.03212639
-0.06465697
-0.009188684
0.06675899
-0.02823727
0.05468842
-0.06273643
0.01182528
0.03690824
0.02349898
0.04649987
0.04186879
0.01421286
-0.05905763
0.0623225
-0.0655838
-0.01564117
0.03819119
0.03885618
-0.03216513
-0.01419062
0.006663527
-0.03873149
-0.02380696
0.02235821
-0.0388999
0.04949271
0.04529768
0.056613
-0.005586697
0.06085401
0.0645643
-0.005669191
-0.05265477
-0.01549258
-0.0007501584
0.05702425
-0.03619138
0.008875655
0.06139879
0.02987849
0.02668683
0.004584493
-0.03960247
0.004038386
0.009292132
0.0507138
0.01081959
0.009738914
0.05213745
-0.04907243
0.0269346
-0.05504967
-0.03446431
-0.04989494
0.0291467
0.04201114
-0.05331834
-0.02353585
-0.05727399
-0.06274091
-0.04009749
0.0231489
-0.02544169
0.03058159
0.04987219
-0.02039864
-0.001068998
0.02437157
-0.004863962
-0.05467143
-0.04738641
-0.03862108
0.04539402
0.005892999
0.02705917
-0.06585759
-0.06706564
0.04009127
-0.05487054
-0.02167708
-0.0292635
-0.03237785
-0.06346107
-0.02445089
-0.03401721
0.05167735
-0.03914151
0.06517679
0.02329734
0.02517532
0.04240597
0.05528109
-0.001786979
0.05620307
0.002039362
-0.0643987
-0.03791044
-0.002247431
0.02210282
-0.03824585
-0.01615383
0.05438464
-0.05333374
0.03887226
0.0662506
-0.002380934
-0.03250707
0.02757932
-0.009017491
0.02706767
0.04114016
-0.02547299
-0.03660192
0.03233971
0.03445921
0.06021698
0.01867335
0.06694582
-0.003337825
0.06613145
-0.04919376
0.00169083
-0.0668624
0.03789734
-0.02914078
-0.03473088
0.03110252
0.05712757
-0.06408298
0.02352125
0.03998948
0.003118412
-0.04994817
0.05131193
0.06241338
-0.01571152
-0.04698073
-0.0343967
-0.02276487
0.03630034
0.0162478
0.001215802
0.006257663
0.0641663
0.05197178
-5.76659E-05
0.02394639
0.03380993
-0.04619276
0.009759004
-0.01513542
-0.03691965
-0.06684623
0.02390799
-0.05698871
0.05009196
0.05331042
-0.02329446
7.641996E-05
0.03304486
0.03445317
-0.02169801
0.02372568
0.03539788
0.05501481
-0.02991487
-0.04346143
-0.01997723
0.03786296
-0.01776588
0.03926109
-0.01486657
0.02177407
0.02829845
-0.01805297
0.01752706
0.06336979
-0.06309208
0.05386218
0.03885351
0.00925935
0.06522921
0.03538371
-0.005905366
-0.02927995
0.0089725
0.002028018
-0.005919543
0.04036402
-0.05561521
-0.001085316
0.04425036
0.0334635
0.0121269
-0.06608945
-0.02999081
0.04542674
0.0387964
-0.05878513
0.01395003
-0.02453285
-0.024013
0.0638836
0.03950974
0.03843454
0.06766777
0.009242911
-0.02720806
-0.02597566
-0.006579155
0.0546588
0.04846587
-0.009220023
0.02915953
-0.04415111
0.03716059
0.0108549
-0.03830558
-0.00325879
-0.02189431
0.03599373
0.03039473
0.00759537
0.02554154
0.05125605
0.06294735
0.01960655
-0.05828945
0.02645128
-0.05599878
0.04003694
-0.04336324
0.06362969
-0.02802447
-0.004550263
-0.03466427
-0.06659102
0.06381059
0.02359672
-0.02901109
0.06766621
-0.03870054
-0.0478805
-0.02099345
-0.04233738
0.01838544
-0.01446624
-0.06363266
-0.01165861
-0.03531342
0.02709091
0.0157957
-0.02588143
0.0310458
0.04589292
0.01300904
0.03632826
-0.02959457
0.05619031
0.04342381
-0.01987541
-0.0004042594
0.01427728
-0.0379135
0.02132053
0.03008541
0.05277281
-0.04913218
-0.03422682
0.05844978
0.03581499
0.01498094
0.006034327
-0.04218432
-0.0216239
0.006757654
0.01033861
-0.03934781
-5.769342E-05
-0.035066
0.009476972
0.01530259
0.02130578
-0.006171923
-0.01515307
-0.04369539
0.05045481
-0.03535273
-0.005980766
0.05037732
-0.003055908
0.03094017
-0.06031635
0.04810953
0.05880094
0.0001338486
0.0149588
0.05796962
0.02562265
-0.004486174
0.03354926
-0.03327069
0.03853079
-0.002171774
-0.003191781
-0.05582665
-0.05817525
-0.05163373
-0.01526693
-0.02880136
-0.06526619
0.007739439
0.03839975
0.0233197
-0.03398978
0.03275862
0.04622658
-0.04748742
0.04517619
-0.002920708
0.04756722
0.02018892
0.02478521
-0.01666752
-0.006430929
-0.06306181
0.007360663
0.02586142
-0.03304863
0.04617887
0.05973548
0.02030561
0.002966168
-0.06350814
-0.0006786415
-0.02518896
0.04470843
-0.04445907
0.06495648
-0.02726304
-0.05345676
0.03415192
0.04785081
-0.04511603
0.04770689
0.05714127
0.06047705
-0.01569942
0.01416269
-0.04189431
0.02184389
-0.005490406
-0.05514318
-0.03939326
0.01588323
-0.05457628
0.009880721
-0.01273831
-0.06367747
-0.008066594
0.004749306
-0.01610005
0.04935152
0.006490822
-0.02060021
-0.01763518
-0.06316335
0.03397127
-0.04393829
0.0591358
0.05598681
0.02274903
-0.04450728
0.004502601
-0.01740057
-0.05452133
0.04027472
0.001964621
0.003562211
0.004364418
-0.05560223
-0.04487654
-0.05623789
-0.05909095
-0.04360164
-0.002710736
0.007512168
-0.02557719
-0.01145475
-0.01403898
0.03286694
-0.01048988
-0.04871822
0.005086452
0.03592428
0.0305799
0.05273703
-0.02657663
0.04342081
-0.002594556
0.052368
-0.04143084
-0.03969776
0.02296351
-0.02994449
0.06703149
-0.02891975
0.008290838
0.04594392
0.002467931
-0.02691439
-0.06002052
0.0516361
-0.0001052631
-0.02040098
-0.01831078
-0.02779878
0.04050585
-0.01784416
0.05004714
0.04278928
0.03035046
-0.02251061
0.03803732
-0.04166776
-0.001459933
0.003530624
0.01834289
0.03651495
0.01995615
-0.03932173
-0.001085265
0.02648044
-0.06177985
0.01993304
0.05376523
0.06275783
-0.01126478
0.03879017
-0.0426965
-0.04172761
0.06715795
-0.003584488
0.05401395
-0.05506122
0.02495084
0.005810649
0.01932366
-0.04244919
-0.01370157
-0.009557941
-0.05570544
0.05920415
0.06131029
0.02255279
-0.04591908
0.04901639
-0.009798451
-0.003305347
0.03945206
-0.004435759
0.02067398
0.03971252
-0.04194885
-0.02614696
0.0421075
-0.01856434
0.04547933
0.04789832
-0.006229588
-0.01313199
0.05140262
-0.06622095
-0.04308428
0.02383813
0.04356795
-0.03400167
-0.008587929
0.02516191
0.001318019
0.06066604
0.05214358
-0.00714454
-0.01772011
-0.03842253
-0.05155291
0.007647205
0.03310677
-0.01639602
-0.002084508
-0.06318778
0.004619667
0.05997719
0.06727473
0.02967588
0.005535038
-0.04049119
-0.02957226
0.01222428
-0.0292321
-0.02442144
0.02826794
0.03936196
0.03171702
0.06736705
0.006976055
-0.05742112
0.03435181
-0.03046446
0.04692146
0.05601922
-0.01033231
0.03297626
0.06331325
0.04672264
0.01135728
-0.04011811
-0.01050399
0.06441031
-0.04253067
-0.03347633
0.01626551
-0.006061271
-0.01795379
-0.01097843
0.05018496
0.05936206
-0.06555905
-0.004823538
-0.04963353
0.01612251
0.06350721
0.04712441
-0.01354261
-0.04219716
-0.03553852
-0.05515501
0.02907506
-0.01715054
0.02253804
-0.06206841
0.04123202
-0.004365387
0.004619137
0.009832893
0.01508115
0.03958003
0.06460056
-0.04738453
-0.04961802
-0.02228348
0.03794943
-0.02604594
-0.01318166
-0.06369239
0.02724966
-0.03360741
-0.01062087
-0.02524117
-0.05075454
0.01555062
-0.05979869
-0.02876127
-0.04876755
-0.03713767
0.06044864
0.01047991
-0.02141775
0.03757379
0.01432454
-0.001424336
-0.001256544
-0.06129008
-0.02606435
-0.04839888
-0.006771719
-0.04730572
0.05725621
0.04014993
0.04187704
-0.05733169
0.06269813
0.0497621
-0.02314213
0.04058657
0.04610971
0.02161653
-0.007630549
-0.01778684
-0.0015102
0.06600551
0.02340248
-0.01362039
-0.03433262
-0.0609492
0.0656669
0.002056666
-0.02353446
-0.02617981
0.01732088
-0.06333538
-0.00693884
-0.04090986
0.006227545
0.01974293
0.04690969
0.03130289
-0.06791821
-0.0327194
0.01101595
0.006618762
-0.022927
0.01716582
0.0008184079
-0.06135947
0.02078911
-0.04162417
0.06231748
-0.0214175
-0.01531076
-0.02910452
-0.04982616
0.06430572
-0.02885263
0.01625566
0.0431098
-0.05557277
0.04097916
-0.03305177
-0.04612916
0.05910823
0.04416536
0.0154994
-0.04510757
0.0372758
0.01754377
0.03567136
-0.02440206
0.02505155
0.0616135
-0.0531298
0.02159812
-0.04284777
0.03913383
0.05980766
0.02099589
-0.06169996
0.05349782
-0.04090977
-0.01380169
0.03935444
0.007675804
0.06581967
0.05706757
-0.02151122
0.0544274
-0.003307933
0.05587939
0.05790851
0.04456975
0.03454584
0.05826035
0.03307018
-0.05452686
0.01984433
0.03039003
0.02951022
-0.005663234
0.03147923
-0.01096662
0.05305437
0.05071452
-0.03067069
-0.01509438
-0.03011758
0.01723398
0.06095823
-0.04276473
-0.02072367
0.06319639
0.03687314
-0.04113398
0.01395231
0.04868654
-0.01754698
-0.01650419
0.04628232
0.02636846
0.04434028
0.05078502
-0.04708492
0.04772859
-0.01437395
0.04841843
-0.04086896
-0.04345353
0.05646456
-0.05625753
-0.04864713
-0.03851899
0.05942229
0.0118999
-0.04591803
0.03799347
0.001080564
0.05657655
-0.02959012
0.01297742
0.01924852
0.02919142
0.0614058
-0.02847982
0.008666438
0.06264874
-0.06024001
0.007743197
-0.02362859
0.05232026
0.03095674
-0.0315881
0.05204433
-0.06479486
0.01793311
0.04863083
-0.03181832
-0.06261085
-0.002848155
-0.0111525
-0.04216205
-0.05460067
0.02870604
0.04927913
-0.06205423
-0.0501413
-0.06416252
-0.04296338
-0.06315257
0.04389547
-0.02033065
-0.006186909
-0.05485069
-0.03463173
-0.06081669
-0.05278776
0.05731584
0.04933152
-0.02887447
-0.009086064
0.04072181
0.01932447
0.04811168
-0.06379233
-0.01927765
0.05087759
-0.0226267
0.05628053
0.06190341
-0.02661223
0.001875169
-0.00424521
-0.008511919
0.04949899
-0.01279715
0.005912577
-0.06745125
-0.05580996
-0.03436222
-0.009128882
0.05887463
0.05065999
0.002959152
0.000412568
0.004714288
-0.03079297
-0.04467403
0.01873944
0.06395845
0.002784251
0.05925161
-0.01321323
0.03420024
-0.06169871
0.01606231
0.006450109
-0.03477573
0.02456175
0.0006201579
-0.0449952
0.04042201
-0.05250643
-0.03693016
0.03139628
-0.02591632
0.05185118
-0.06561162
-0.03641306
0.04610204
0.001207355
-0.05327313
0.04518917
0.01575712
0.04819104
-2.407512E-05
0.05799844
-0.05157131
-0.02023751
-0.0005699911
-0.05642129
0.027615
0.02657049
0.0602587
-0.008817466
-0.01792722
-0.05284823
0.02949117
-0.01474983
-0.03449994
0.04868936
-0.02724831
-0.02407637
0.01150651
-0.05730364
0.01838572
0.04344444
0.01965353
0.0394995
-0.04160773
0.02079972
-0.03311798
0.05967565
0.04057401
-0.005185526
-0.01187924
-0.05387418
0.03896628
0.05394582
0.006261985
0.02600049
-0.009915207
0.0533984
-0.04280489
-0.01089517
-0.004673574
-0.05408509
-0.04482851
0.03982392
-0.01861312
-0.04100472
-0.04557661
0.01707484
0.0660235
0.0653493
-0.03948095
0.03873986
-0.03425396
0.005124137
-0.03813131
0.02446811
-0.02959171
-0.02313418
-0.0465664
0.0465669
0.04463331
0.03587597
0.0539331
-0.002492394
-0.06487485
-0.03198966
-0.02387788
0.04348197
0.04692481
0.007436192
-0.009332053
-0.01271009
-0.04920811
-0.04553494
0.01530655
0.004534194
0.02033632
0.04776623
-0.009824008
0.06733361
-0.001560287
0.0177438
0.06158877
0.04316133
-0.03364119
0.01731753
0.0483164
-0.03409448
0.02414051
0.0497305
-0.01234442
-0.05471765
0.03202818
-0.02143517
0.01240814
0.02738708
-0.04008156
0.02560051
0.03676215
-0.05456008
0.05080979
-0.02112196
0.03808665
-0.009349312
0.006744736
0.04116576
0.02001135
-0.05665563
0.0577542
0.02527112
-0.06380484
-0.009421315
0.05462645
-0.04596339
-0.01980943
-0.04104711
0.04222382
-0.05716486
-0.03678782
-0.01425575
-0.01236944
-0.05772002
-0.04859516
0.06513093
-0.04815601
-0.02255102
0.02319835
0.04016368
0.009993533
0.0558561
-0.02332086
0.06267244
-0.05693255
-0.02320055
-0.05141279
-0.04837495
0.04759377
0.003001459
-0.03152002
-0.006870332
0.0652428
0.03703541
-0.02391206
0.06680601
0.04559871
0.06501351
-0.04140748
0.01005494
0.06631088
-0.01448136
0.05309987
-0.05085333
-0.005548292
-0.01691871
0.02574598
0.04059318
-0.04046342
0.04089234
-0.02912993
-0.03864086
-0.04996921
0.04778429
0.001287454
-0.06603852
-0.01934464
-0.05854065
-0.02042539
0.009890379
-0.06248721
-0.0393711
-0.02070427
-0.02871426
0.04229179
0.03801913
-0.01156193
0.01853178
0.03412867
-0.04746455
-0.0484044
-0.0452329
-0.04908017
-0.05479321
0.04178942
-0.04346173
-0.06518039
-0.04040416
0.0002841047
0.02792279
0.01899009
-0.02406936
0.06002509
-0.06123519
-0.03580524
-0.06081579
-0.02483774
-0.05047811
-0.03218867
-0.02581017
0.01821403
0.03620274
0.01750228
0.01663876
0.004605537
0.03774536
-0.06171372
0.01387751
-0.02520849
0.0243692
0.06257984
-0.06072242
-0.06147211
-0.06093549
0.02136012
-0.05183365
-0.05749732
-0.06311262
-0.06194175
-0.02318744
0.06707849
-0.0468771
0.00911187
0.01958844
0.05883691
0.02951876
-0.03145957
-0.0274057
-0.06084564
0.03517095
-0.005079752
-0.02902044
-0.01721618
-0.007997788
0.002258045
-0.01667051
0.005201441
0.002217691
0.008537873
-0.06389257
-0.04968463
-0.01112128
0.05274095
0.04385153
0.03327957
0.0117759
-0.03053387
0.05302396
-0.01465868
-0.05190821
0.06461815
-0.02966173
-0.05647298
0.0589354
-0.02495204
-0.002845493
-0.04084576
0.06585046
0.02573848
0.04302339
0.001268316
0.03362861
0.006786529
0.007557181
-0.03848767
0.02366366
0.02443038
0.0144623
0.004743082
-0.02990599
0.01090153
0.008221616
-0.003713877
-0.06598581
-0.04143943
0.01026315
-0.03168143
0.03319696
0.05424549
-0.02087561
-0.007883986
-0.01654692
0.0551896
0.05899919
0.03848942
-0.04335464
-0.04048409
-0.008214951
-0.05098237
-0.06283309
-0.04376138
0.007287601
0.04441584
0.0334511
0.002775739
-0.01537662
0.05002881
-0.02275285
0.01440258
-0.05832071
0.05528214
0.02294045
-0.01965574
-0.05268931
0.005126883
-0.01154009
0.04198877
-0.05842379
0.03243821
0.03272143
-0.03910068
-0.006106096
-0.05633165
-0.02132253
-0.01702924
-0.05012139
0.04637563
0.01572396
0.03700438
-0.06306966
-0.003788878
-0.0352913
-0.002491952
-0.0003604555
-0.05408124
-0.0643227
0.0317424
0.03077164
-0.000824926
0.04187381
0.02817096
0.05900804
-0.04914224
0.04462958
-0.00822113
0.03711219
-0.0648278
0.03994229
-0.01406432
-0.01790711
-0.01740679
-0.04999691
0.02728346
-0.01576717
0.04420422
0.03028134
-0.004317369
-0.002198253
-0.01745628
-0.0150395
0.006184378
-0.03363177
0.008179392
0.009535613
0.01340479
0.02263681
-0.04250422
0.04864134
-0.06654469
0.001512954
0.02465413
-0.0567195
0.01033775
0.05850102
-0.06338616
-0.0301721
-0.02490048
-0.03302461
0.05483522
0.01379519
-0.05323021
-0.06150328
-0.03814834
-0.01302513
0.02227375
-0.02172859
0.005361865
-0.0546614
0.02337195
-0.01642596
0.007931299
-0.03399597
-0.0197087
-0.05372205
-0.03224719
-0.006133886
-0.01710798
0.009258768
-0.03671183
0.03707868
0.01167979
-0.04553252
0.03855036
0.05235935
0.02537538
-0.02862391
0.007601956
0.03671906
-0.02031763
0.006439694
-0.0127548
-0.03922938
0.01090315
0.03668515
-0.02974591
-0.0002489621
-0.06342005
-0.0467321
0.05519848
-0.03280324
-0.05066167
-0.05577944
-0.04266723
0.01781788
0.06151828
-0.009286523
0.03092582
-0.003876815
0.0228116
0.01068435
0.0548725
0.03377738
-0.0642494
-0.05018008
-0.06582122
0.06023893
-0.03211702
-0.02257107
0.02953612
-0.01703896
0.03860608
0.03657943
0.03359285
-0.05100437
0.06426547
-0.02077594
0.02303751
0.01154277
0.04396048
0.03593839
-0.01065045
-0.03831249
0.02199691
0.06402803
0.01980373
-0.0004773897
0.06507134
-0.04720415
0.05877769
-0.03327472
0.008386896
-0.05645785
-0.05402916
0.03693464
0.01950381
0.02140444
-0.0429166
-0.00685339
0.03456975
-0.02204822
-0.03606857
0.02708764
-0.008331599
0.004300823
-0.003472701
-0.01930448
-0.02143567
-0.05959948
0.02148904
0.0143576
0.03561259
-0.04855358
0.02009933
0.05480983
-0.04660182
0.02524838
-0.05615615
-0.06034081
-0.002047191
0.002592791
0.06310422
-0.05284949
-0.01341214
-0.00512578
0.04251076
0.02712731
0.02267196
0.06459483
-0.00257156
-0.02507559
-0.04579596
-0.03804573
0.04490965
-0.001927926
0.004070334
0.03019853
0.03795572
-0.05024054
-0.000435885
-0.02882841
-0.04697834
0.0567342
-0.0007565636
-0.02351652
-0.0009506941
-0.01099615
-0.008620559
-0.04090236
0.01559984
0.06219206
0.00962397
-0.05051241
0.06313042
-0.03595966
-0.01721582
-0.0511557
-0.02743684
0.0647308
0.02972668
0.03733661
0.02596019
-0.01809388
0.0109087
-0.02137199
-0.007783064
0.005721697
-0.0255266
-0.04590937
-0.01719713
-0.008863728
0.05522927
0.06202101
0.008031693
-0.0411554
-0.01836549
-0.0615666
0.0158437
-0.05783224
0.06376153
-0.01442971
-0.03218875
-0.004362301
-0.01894163
0.003173003
0.03323706
-0.06322017
-0.03323953
0.01293269
-0.05264873
-0.01271059
-0.01030125
0.04116154
-0.0120306
0.03016412
0.01314802
0.03905216
-0.02211113
-0.04732119
0.05220316
0.06126423
-0.05340617
-0.03064781
0.04423139
-0.04347305
-0.06097384
0.01553958
0.009392519
0.0363492
0.05034245
-0.02358584
0.0009372296
-0.03754123
-0.06696735
-0.02378023
0.001588746
-0.03761414
-0.06708886
-0.06020093
0.01332757
-0.01249951
-0.0289754
0.02947733
-0.06119725
0.06345008
-0.0664991
-0.05386889
0.006114987
0.04580419
0.0136332
0.01051897
0.02848115
-0.004771736
-0.04209878
-0.06543931
-0.02896017
0.06639568
0.01934293
-0.0434052
-0.003789781
-0.05023914
-0.004676069
-0.001652105
0.03052687
0.03887373
0.0542888
-0.04069664
0.04019228
-0.05618699
-0.03936124
-0.01717447
0.03820441
-0.02984682
0.007287863
-0.003233948
0.02230301
-0.01494687
-0.03738718
0.04871792
-0.04491057
0.06083167
-0.05851203
0.03152495
-0.04522062
-0.02811315
0.01586963
-0.06222766
-0.06337907
0.06640858
-0.06275669
0.003129686
0.01097955
0.04425296
0.01152548
-0.004369911
0.06011318
0.04061333
0.06688708
-0.03213437
-0.05877534
0.04213416
-0.02612455
-0.005634642
0.01722881
-0.03712896
0.04025119
-0.00960865
0.05587702
0.02907179
-0.0198057
0.05392333
0.03584624
0.03856163
-0.06643125
0.003315165
-0.05966374
0.0317356
-0.0243681
-0.009296609
-0.04493252
0.04857983
-0.04525419
0.04172032
-0.06136693
0.02544569
0.0397826
0.06188807
0.02656432
-0.05627885
0.004589497
0.0496263
-0.01389734
0.06268381
0.03955664
-0.01910811
0.0190196
0.01505924
-0.05364048
0.05984495
-0.000427715
-0.04245834
-0.05016806
-0.02451424
0.01827766
-0.04874339
0.03522007
0.04035455
0.04274759
-0.05972631
-0.0126428
-0.03955905
-0.00295519
0.008247072
-0.05513847
-0.03941855
0.01945174
9.175968E-05
-0.01220433
0.05971974
-0.008974938
0.04629974
0.03176365
0.04421925
-0.04345433
-0.001495377
-0.0001159589
0.04109905
0.06694161
0.02061348
0.05223219
-0.006786353
0.01743946
-0.01627643
0.05906773
0.06546244
0.03081127
0.04719667
-0.04449397
0.05531308
0.05816225
0.06736468
-0.04879614
0.01835401
0.02430057
-0.02378808
-0.01535513
0.04579221
0.04988565
0.01103857
0.02937677
-0.04900878
-0.04067305
-0.0454236
0.0008832691
0.02120917
-0.006285369
-0.02645068
-0.04899654
-0.04816358
0.01930919
0.06205764
0.04134956
-0.04580252
-0.04402187
0.06208018
0.01093811
-0.05461538
0.01711597
-0.05266428
-0.002293204
0.04019169
-0.02335089
0.0004192064
-0.06637913
-0.008402996
0.02715926
-0.05452698
-0.04801795
0.04827037
-0.05407687
0.02202845
0.05915003
-0.01203359
0.05917333
0.03330434
-0.03404992
-0.005073555
0.05077692
-0.03007806
0.003811186
-0.01067467
0.02825659
-0.06426701
-0.03193273
0.06404123
-0.0419215
0.064943
-0.005560737
0.03015701
0.03321044
-0.02867638
-0.03926037
0.03461331
-0.05460484
0.05712171
0.04227873
0.02684436
-0.04698109
-0.05865036
0.06198653
-0.01969501
-0.04636936
-0.02933029
-0.06202334
0.06521736
-0.06502902
-0.01455348
-0.03703923
-0.0093896
0.02819348
-0.05192496
-0.03745567
-0.0207426
0.01146115
-0.05955516
-0.05600152
-0.02702051
-0.03558468
-0.06248374
-0.03441812
0.03015288
0.01897038
-0.01023833
-0.05287668
0.04253613
-0.006647803
-0.0433999
-0.02536536
-0.065885
0.05896223
0.007042334
-0.02602908
0.04149065
-0.02412797
-0.04443043
-0.03224193
-0.01034975
0.06569295
-0.02921347
0.06113363
0.0405686
0.03404561
-0.06410776
-0.0659731
0.01719877
-0.05915733
0.04941885
-0.04478447
-0.06298631
0.04518661
0.001362622
-0.005507573
-0.05243398
0.04370438
-0.03610297
0.02927124
0.03180559
-0.04439022
-0.03662285
0.003928545
0.04630751
-0.05712474
-0.03909086
-0.0004152119
-0.04678547
0.04204075
-0.01100971
-0.06455125
-0.01204504
0.04062339
0.02228485
-0.02477684
0.06156541
-0.05568074
-0.007050098
0.06404389
0.01514151
-0.01220186
-0.002138836
0.03375684
0.01186997
-0.06655206
-0.03031568
-0.04313498
-0.01033701
-0.05538671
-0.04153173
0.06572289
-0.05596162
-0.00576504
0.003889103
-0.03389614
0.03437918
0.0347946
-0.05311051
0.02975672
0.005199848
0.004244075
0.048749
0.04309465
0.019789
0.04603348
0.0351972
-0.03567307
-0.04503486
-0.04179716
0.0008636408
-0.06468985
-0.01718214
-0.03221023
-0.0538069
-0.02392917
0.02568523
-0.002443067
0.05999519
0.04492295
0.04112756
-0.06389249
-0.05801482
-0.05933538
0.01563586
-0.008795976
0.05934699
0.06165662
-0.03120234
-0.01175563
0.008780598
-0.04116582
0.06536638
0.03112981
-0.009092585
-0.05703918
0.006985755
0.02270314
-0.05396879
0.03377312
-0.03381263
-0.06257923
-0.06603675
-0.03647647
0.01168627
-0.0447785
0.01496841
0.04418523
-0.01989476
-0.04011835
0.008355245
-0.03111437
0.04273603
-0.03009683
0.05656578
0.001155721
-0.005677723
0.04014776
-0.04047783
-0.03935164
0.0546231
0.0414772
0.06346589
0.0346574
0.01735887
-0.02590716
-0.06211961
0.01962467
0.04481898
-0.06470434
0.0370217
-0.06495453
-0.0164109
-0.04171455
0.01079896
0.03577017
-0.06579237
0.04639827
-0.003085026
-0.007522267
0.04417223
-0.05277486
0.01361476
-0.05902061
0.04782575
-0.02804165
-0.01596523
0.02752659
0.04250065
0.05768831
0.01657516
0.03477461
-0.004755653
0.05331948
0.04708663
-0.00735321
-0.05810849
-0.03275752
0.01410128
-0.03034319
-0.05059551
0.06328036
0.06730288
-0.02312704
-0.00920343
0.005373151
0.05323315
0.01651395
0.02704083
-0.04714102
-0.000988531
0.01586063
-0.02470383
0.03498106
-0.01558726
0.03946134
-0.04007418
0.05454987
0.05476827
-0.0225361
0.05799468
-0.02170958
0.04506065
0.05506728
-0.01334288
-0.06568953
0.007737747
-0.00179376
-0.02086456
-0.04978445
0.02594204
0.03490177
-0.03563964
-0.04067846
-0.02486338
0.0488285
-0.05214112
-0.03119482
0.01811945
-0.02548403
-0.01333818
0.03545744
-0.06745086
0.02170505
-0.009259775
-0.06722209
-0.008458177
0.02819991
0.0009701161
-0.06031133
-0.03521565
-0.04472174
-0.01958917
-0.03129923
-0.02040125
0.03905069
-0.04971691
-0.05570103
0.05815246
-0.01145052
0.06557202
-0.01290971
-0.03055811
0.008888661
-0.005146438
0.03204632
-0.01643636
-0.051962
-0.008092185
0.003520862
0.02366584
0.05905725
-0.03150619
0.01231568
0.0587387
-0.04539938
-0.02219535
-0.04458103
-0.003609563
-0.01405742
0.01070526
0.04747446
0.06517275
-0.02848985
0.05336782
0.002727168
-0.01344568
0.06359622
0.04765942
0.004022547
0.03060879
-0.0643767
-0.02141066
-0.03836666
-0.02311943
0.06750815
-0.001921069
-0.008402897
-0.04108514
0.02663053
0.01715089
-0.0244328
-0.03164453
0.06538588
-0.01604055
-0.02633628
0.05472107
0.03603178
-0.02210131
-0.0429385
-0.006690578
0.06280074
0.01584516
0.004273255
0.04578084
-0.04983905
-0.01014583
0.06586836
0.02345747
0.06006302
-0.02244462
-0.01209596
-0.0316848
0.05582189
0.04084869
0.02010592
0.01253129
-0.06107616
-0.03250151
0.05916717
0.02445831
0.05414417
0.06444073
0.03769653
0.03672831
-0.03279856
0.01118236
0.06772349
0.05548732
0.01176747
0.01594272
0.01845917
0.01776091
0.02266129
-0.0572235
0.03574467
-0.01228524
0.04225271
-0.01621088
-0.041217
0.00971736
0.0001471954
0.03607626
-0.03321153
-0.01886147
-0.03868977
-0.06068463
-0.0195298
-0.04339944
0.03179015
0.02906905
0.0478606
0.0005966651
-0.01333186
0.0005398146
0.007101872
0.06629662
0.04608525
0.03548156
0.01064278
0.006915206
-0.009932702
-0.05755559
-0.05624663
-0.02381633
0.02703284
0.03807976
0.01359053
0.04510877
-0.0628326
-0.03554546
0.0382152
0.02307134
-0.05922113
-0.01848681
-0.04362551
-0.04986871
0.02971564
-0.01137862
0.007481463
-0.04005055
-0.03722446
0.04318631
-0.04423945
0.05063504
0.03601874
-0.05007412
-0.03684385
-0.04581514
0.003611253
0.03738467
0.009566138
-0.06116548
0.04108297
0.01980442
-0.04828656
-0.01023384
0.02438627
0.05854142
0.02204231
-0.008832909
-0.006338536
0.00329806
-0.04850345
-0.0006010058
0.05879047
-0.04314736
-0.008118823
-0.06278168
-0.0237713
-0.01096604
-0.03135564
-0.01047276
-0.03993652
-0.01724329
-0.02379695
0.01481761
0.05462049
-0.03894505
0.008101555
0.009170334
0.006986986
-0.008530947
-0.02643911
-0.03228065
0.02282502
0.03144406
0.049925
-0.01108893
-0.03813687
0.03454496
-0.006318353
0.03911084
0.03451569
-0.05162225
0.0342246
0.0274141
0.02375314
0.02429817
0.05978119
0.01122948
0.02598132
-0.0419988
0.04589278
-0.05335933
0.0008036869
-0.04789772
0.04670766
-0.00961036
-0.02433525
0.004832452
0.003082294
-0.004605304
-0.01749676
-0.05506464
0.05211673
-0.06574421
-0.03819945
0.05171382
0.0445106
-0.0405902
-0.02513574
-0.06496651
0.04329182
0.009620366
0.06328893
-0.002529858
0.02294817
-0.05625089
0.01646872
0.01672557
0.05900109
-0.03761431
-0.03078962
0.0648087
0.05112563
-0.01895084
0.01351289
-0.0410164
0.03485228
0.00278612
0.05267301
-0.008401264
-0.05469029
0.0249673
-0.03647396
0.06622357
-0.01132902
0.02164371
-0.03580235
0.0320322
-0.00232307
0.03997594
0.0477242
0.03243478
-0.0315714
0.02301122
-0.017354
-0.03166421
-0.04871164
-0.06460308
-0.002909267
0.03502193
0.04185754
0.0268758
0.01376798
-0.02724002
-0.0417523
-0.01436883
-0.03825365
0.003130942
-0.01132048
-0.06511967
-0.05107508
-0.02621215
-0.0253266
0.05120215
0.0576604
-0.0496121
-0.0218423
0.06500198
-0.05913746
-0.06663217
0.04748808
0.05237315
-0.04888798
-0.04891147
-0.01740189
0.004712223
0.02844348
-0.03982221
0.06633978
-0.02275952
-0.06024139
0.03151873
-0.06224123
-0.05028554
0.01767782
-0.01362947
-0.0567373
0.05870268
0.04003925
-0.06489681
-0.008039255
0.02900333
-0.02458395
-0.00514002
0.0231144
0.005999725
-0.01017525
-0.01483693
0.03328744
-0.03567852
0.05811471
-0.045777
0.062471
-0.004213721
0.05547047
0.05742101
0.007827154
-0.005257168
0.05809849
0.0214721
0.02512432
-0.06636807
0.004727783
-0.05649759
0.06305834
-0.01465719
-0.03190753
-0.04297768
-0.03441229
0.003353247
-0.06081142
-0.01260835
-0.04297389
-0.06217726
0.009343709
-0.04945187
0.009020475
0.02418866
-0.00408925
0.04453501
-0.05304915
-0.02465622
-0.00517303
0.03408168
-0.01293761
0.05347223
0.03698435
0.009909108
-0.0378194
0.02819343
0.04648
0.01645648
-0.06733243
-0.04936947
-0.02208451
-0.009607811
-0.04366108
-0.03602298
-0.0002617337
-0.03016503
-0.03002936
-0.0351342
-0.04836126
-0.03800243
-0.04280372
0.002786441
0.06513352
0.05671164
0.05437919
0.03698572
-0.01953609
0.05157511
0.06676871
-0.05437314
0.006584624
-0.01815609
0.006741586
0.03858273
0.02437665
-0.05835052
0.01629507
0.02611998
0.06277835
0.005330896
0.02480987
-0.009331279
-0.01321254
-0.06154105
0.02784387
-0.0489851
0.06214584
-0.02289316
-0.04348623
-0.04186084
0.00662775
0.05002167
-0.04423158
-0.03510723
0.008948778
0.05221257
0.05627534
0.04820933
0.02346654
-0.00686849
-0.0202071
0.0628415
0.0176244
0.05497733
0.01198253
0.0640082
0.05158722
-0.01430719
0.007536992
-0.009847836
0.02147652
0.01178728
-0.02997592
0.01424447
0.005124324
0.03446418
-0.05193764
0.05873794
-0.03906884
0.03542767
0.0427765
-0.06457955
0.02712472
0.04069293
0.006935732
0.02449958
-0.04186113
-0.02608781
-0.03830267
0.0401007
-0.04668924
0.03602236
-0.06528318
0.001710212
-0.04239862
0.02990499
0.04098094
-0.0002532476
-0.00558696
0.03177229
-0.0326357
0.0085164
0.03750646
0.03429823
0.004599258
0.06277709
0.01206096
0.009460577
0.02770507
0.04242122
0.03621359
0.06547402
0.01934155
0.05597549
0.01829163
-0.02356418
-0.03221983
0.0448681
-0.01989503
0.05541958
0.03793271
0.009738414
-0.04394114
0.03537292
-0.03109522
0.05339078
0.009133835
0.03625049
-0.01129353
0.04315596
0.06141986
0.01625223
-0.003611717
-0.002904507
0.0001267541
-0.03367652
-0.03414939
0.06076311
-0.03184295
0.01209526
-0.05549801
0.01661491
0.01414374
-0.01278727
-0.06404951
-0.04422663
-0.05125581
-0.05332205
0.0513552
0.04910217
-0.005811798
0.06404946
-0.04829484
0.006930085
0.06177619
0.0255625
-0.01547909
-0.06580307
-0.00254317
0.0191451
-0.01429336
0.04374709
-0.04718252
0.05248574
0.04893798
-0.04797526
0.001149112
-0.04569056
-0.01208789
-0.01596847
-0.05735141
-0.02504632
0.008774431
0.03594634
0.04298096
-0.04661882
0.06353129
0.03678276
0.03148581
-0.05480521
0.03670997
-0.005480742
0.05283191
0.007540918
-0.01896887
0.06530702
-0.003389548
0.05739482
0.00325592
0.04250087
0.04973919
-0.03628294
-0.004630342
0.01694857
-0.041548
-0.03130848
-0.004139196
0.02959462
0.006211368
0.05186237
0.02256088
0.06237137
0.02670246
-0.0006129466
0.03851696
-0.04870209
-0.01266159
-0.01630456
0.03188574
0.04045839
0.02996783
0.01567478
-0.02935226
-0.01567458
0.05037175
0.059124
0.0588518
0.01321319
0.003517982
0.05156758
0.02335091
0.01169091
0.01899014
0.01334786
0.002228963
0.04686815
0.04752064
0.05976249
0.009557715
0.006352821
0.025457
-0.03399995
-0.03736524
0.04756005
-0.009429464
0.04227522
0.03575342
-0.01449176
0.03696058
-0.03820339
0.01003199
-0.05502161
-0.04242755
0.03073415
-0.05540358
-0.03387222
0.06100594
-0.05689238
0.03451344
-0.03273538
-0.02222366
0.05058424
-0.04185998
0.0225804
-0.03942515
-0.05706666
-0.02455539
-0.05458202
0.06509471
0.05958543
-0.02828611
-0.004487455
0.04207435
-0.0424037
-0.05293522
-0.003968848
-0.01489661
-0.008975689
0.0616915
-0.05984009
-0.04456604
0.005406947
0.04418923
-0.02621525
-0.02640102
0.0104359
-0.01381816
0.05619261
0.0008148179
-0.03183544
0.05379883
0.0364764
-0.04268757
-0.02564353
-0.03936014
0.04280938
-0.06007659
0.007990982
0.01904859
-0.02029943
-0.001106011
0.02239881
-0.01164985
0.04531177
0.05801934
-0.05341718
-0.02915934
0.06791277
0.01573275
0.01650189
0.04896101
0.002045008
-0.05064726
0.02641691
-0.05610596
0.04030601
-0.06154162
0.05229189
-0.01895519
0.01807557
0.02468812
-0.01281138
0.01253978
0.02899353
-0.06215002
0.003174108
-0.0297365
-0.0002187455
0.06489306
-0.02780798
-0.01182888
0.04504903
0.03991235
0.01405431
0.009202543
0.0009717707
-0.05087982
0.06681409
-0.01629797
-0.04092047
-0.02834139
-0.01379431
-0.02747676
0.05224955
-0.01285983
-0.0161828
0.01918704
-0.001167856
-0.03747419
-0.01172953
0.03641438
-0.04443185
-0.04099045
-0.06696361
0.02294907
-0.05623125
-0.05807759
0.02729323
0.03952516
-0.01309139
0.04425595
0.03899603
-0.06491691
-0.02439588
-0.03960584
-0.06402464
0.03006928
0.003235052
-0.05072226
0.01085889
0.02324921
-0.06041908
0.0006532375
-0.04597135
-0.02151966
-0.02945419
-0.05327124
0.02822686
-0.02608326
0.0219694
0.05192369
0.03936797
-0.03068118
0.008685967
0.00371426
-0.03533366
0.01810286
0.03893933
0.05904185
-0.002502828
-0.008887259
-0.01023643
-0.0406477
0.06473003
-0.01723979
0.0005992029
-0.01681402
0.06485574
0.02391877
-0.01677181
0.02168454
-0.05198463
-0.01838222
0.01960355
0.03295789
0.02889684
0.02285153
-0.06295572
0.02249268
-0.01553336
0.06497661
-0.01836783
-0.01456013
-0.05038086
0.002921546
-0.06304865
0.00174059
-0.005666255
0.03982648
0.06366444
-0.01419088
0.05906658
0.01212982
0.01971719
-0.04819047
-0.03445098
0.04816524
0.003859824
0.03920507
0.04581776
0.05529645
-0.05019036
-0.06362853
0.05862518
-0.06765176
0.0359717
-0.01018643
0.01765189
0.04366471
0.04275404
0.009751434
0.01312196
-0.05148996
0.006638593
0.0004571835
-0.05845605
-0.06361292
-0.05820346
-0.006128132
-0.02212777
0.06679524
0.05678885
-0.04290736
0.02819096
0.06535569
0.03055459
0.003822168
0.02983721
-0.000142598
-0.0005277579
0.04866822
-0.04894491
-0.03422417
0.04461154
-0.002893193
0.04723035
-0.02267592
-0.005248693
-0.05066573
0.03488646
0.0150744
0.05202532
0.01860566
0.06500906
-0.01402362
0.04062378
0.04261992
-0.06244539
-0.04867661
-0.05767104
-0.03877468
0.03843207
-0.05794866
-0.006603781
0.04695914
0.06644423
0.06065362
-0.02388287
0.06120612
-0.03026972
-0.03578709
0.02791298
-0.05014213
-0.02374416
0.06202244
-0.009240276
-0.02059049
-0.02816488
-0.05840484
0.02116345
0.03215649
0.009572394
0.06039889
0.02692203
0.03073445
-0.05316671
-0.02975343
-0.03997979
-0.02572204
-0.04320472
0.05587129
-0.001669058
0.01057721
-0.01040818
-0.0296897
-0.05770047
-0.05893287
0.04031623
0.06558902
-0.001400796
0.05451335
-0.06672967
0.00148181
0.04754062
0.002736926
0.05509805
0.03423083
-0.0255868
-0.06495
0.06315327
-0.006722348
0.002848178
0.06389606
-0.001903448
-0.02189091
0.01958955
0.04596981
-0.01693407
0.03059839
0.03218923
0.02826103
0.03269679
-0.06609745
0.03647422
-0.01820439
0.0338186
-0.05060085
0.02820266
-0.06199108
0.05178629
-0.01824403
0.007029902
-0.02581728
0.01093258
0.03458672
0.03094953
-0.05984604
-0.05507835
-0.04375152
0.04357302
-0.01946091
0.06376999
-0.04296641
-0.02093869
0.03145425
-0.01491351
0.002371503
-0.05545597
-0.05645389
0.01865738
-0.03573366
0.02593782
-0.05821878
-0.03453683
0.03827479
-0.04612006
0.0673044
0.03294421
-0.002191612
0.03685495
0.03776228
-0.06190846
-0.03153234
-0.04879967
0.01346068
0.05418437
-0.03927117
-0.01497314
0.03144645
0.01509618
0.01149896
0.03311154
-0.04111917
0.05496199
-0.01628648
0.03242766
0.007726572
0.02277787
-0.06291665
0.06464574
-0.03648953
-0.0630815
0.01671993
-0.01271183
0.01958332
0.02375477
-0.002687935
-0.05921706
0.04059441
0.01277015
0.03158176
-0.02485363
0.01504988
-0.01266985
-0.06212588
-0.02548908
0.02736571
-0.06210335
0.03353724
0.0452065
-0.04357896
-0.05059198
-0.0189658
-0.003613443
-0.06077821
-0.0009085709
-0.0008796274
-0.04524416
0.04968626
-0.06208949
0.01409
-0.02341009
0.02792424
0.001099268
0.005407862
0.03290716
-0.01069177
0.04911612
-0.0004463783
0.05764253
-0.01106432
-0.04799073
0.01236907
-0.04926032
0.05145105
-0.03158403
-0.04987497
0.0394873
0.04915125
-0.05873402
-0.06287467
0.001893302
0.05717725
-0.04018653
0.04028808
-0.05383417
0.02382092
-0.04760325
-0.01987025
-0.04744473
-0.04330222
-0.0253804
-0.0409667
0.03474728
0.06661678
-0.01294478
0.01515875
-0.05398601
0.04985891
-0.02709641
0.05313931
0.04618622
0.006279648
0.04383133
-0.01166581
-0.06352486
0.004975575
-0.0376421
0.01287213
0.03874244
-0.01897023
0.02756969
-0.02645878
0.04048366
-0.06715144
-0.05573993
-0.01265071
0.0001741492
0.02874781
-0.008694585
-0.05885038
-0.03102514
0.001049739
-0.02093827
0.03300814
-0.05362054
0.06091259
0.04555841
-0.04794048
-0.003540797
0.02119384
-0.06382558
0.05756502
0.008311038
-0.04393671
-0.04112427
0.06355028
-0.05459071
0.0394159
0.03587632
0.009126873
-0.006473611
0.00746124
0.009323936
0.03946212
-0.002935293
-0.06685824
-0.01351374
0.0339621
0.05442008
0.06764255
-0.05295202
-0.01479719
-0.009383131
-0.03618265
0.01622783
-0.02280014
-0.0407187
-0.05711343
-0.02598189
-0.05650083
0.02735378
-0.05763824
-0.05152369
-0.05038802
-0.02308127
0.03794129
0.0331668
0.01648375
0.04190945
-0.05135358
-0.02599662
0.02869487
0.06080811
0.05011516
0.01555985
0.02945024
0.05966242
0.007536226
-0.03199319
-0.05469892
0.006489715
-0.05634031
-0.03442394
-0.003246727
0.006209243
0.01890824
-0.0009884713
-0.02344293
0.007772089
0.0496125
0.03633235
-0.0654139
-0.002538827
0.02444052
0.04970971
-0.016772
-0.008951691
-0.008224661
-0.005393228
0.02706004
-0.03208842
0.03793913
0.05998927
0.03783704
0.02570255
-0.01371027
-0.00766868
0.008438326
0.01619412
0.05471421
-0.01452595
0.0196817
0.04281639
-0.0392196
0.00494608
0.01575747
0.04472233
0.01965966
0.01133935
0.02594712
-0.02900686
-0.01132689
-0.05922496
0.06023357
-0.01974931
-0.02851934
-0.03670293
-0.03156903
-0.06753117
-0.03560477
-0.02953469
-4.953603E-05
-0.05500717
0.008883393
0.04532612
0.0364872
-0.04839296
-0.004324363
0.03898734
-0.04801711
-0.04135971
0.05850982
0.02829958
0.0209945
-0.003798176
-0.05128596
-0.04029367
-0.03125585
-0.04844218
-0.03398438
0.006442297
0.03932527
0.04837261
0.03659628
-0.01186973
0.04717509
0.02922747
0.06769232
-0.01035027
-0.01371473
-0.04494396
-0.04403627
0.008032872
-0.01613773
0.01631227
0.05346021
0.006752241
-0.03400363
-0.0166091
0.0363955
-0.00378619
-0.01888993
0.04860894
-0.008580158
-0.0006297998
-0.01958006
0.02831016
-0.01228285
-0.003904875
-0.03639997
-0.0561623
0.06248955
-0.05106348
0.03438984
0.02588955
-0.0009233385
0.01951448
-0.02366682
-0.0471835
0.06608765
-0.06067689
-0.04814867
-0.06191072
-0.01523456
0.06486347
-0.06526006
-0.01745967
-0.02349931
-0.06325439
0.01067823
0.009898418
0.06164658
0.05328986
-0.01690105
0.03773843
-0.04260439
0.05865296
-0.01098386
-0.03071054
-0.06022629
-0.04907168
-0.0264263
0.003660579
-0.04188692
-0.02548905
-0.03949689
-0.06090941
0.04157966
0.02590933
-0.05070101
-0.03399089
-0.03751756
-0.05475675
-0.01476012
0.02913577
-0.02357415
-0.02491583
-0.004093128
-0.005507013
-0.003306361
0.06581623
-0.01612715
-0.01696508
0.05335351
0.02163823
-0.04987226
-0.05873694
0.0337742
0.06458803
0.0005573253
0.008360328
-0.03743829
-0.0608929
-0.05489383
0.04722271
0.03368603
0.01612738
0.04791282
-0.05768213
0.03642375
0.06358597
0.008897294
0.01852797
0.05538324
-0.0232675
-0.02052065
0.04846672
0.0001133669
0.0218998
-0.006624045
0.05024806
-0.005190539
0.06245978
0.04053244
-0.0581059
0.03499209
0.0584754
0.01824369
0.004411472
-0.04355341
-0.04869657
-0.02674699
0.04492825
-0.04258461
0.008875282
-0.06448922
-0.04456128
-0.06779954
0.005953783
0.06338636
0.02823509
-0.004892035
-0.01434762
0.02600586
0.001044289
-0.01101768
0.03328149
-0.0044117
0.008684388
-0.02577774
-0.03040235
0.009086316
-0.05606222
0.003275454
0.01824589
-0.05438576
-0.03196144
-0.03348872
-0.06472456
-0.055706
0.04314725
0.06582031
-0.02443527
0.0538079
0.0171837
0.02239634
0.03190567
-0.006824036
-0.02142866
-0.0267149
-0.04389599
0.04832963
0.0620962
0.02645006
0.03307748
-0.01279652
-0.05877954
-0.03148271
-0.02844847
0.02084841
-0.06622603
-0.00504952
-0.05837732
-0.03774741
0.05478557
0.01015373
-0.03862138
-0.02628383
0.007106125
-0.004675584
0.03540884
0.05686406
0.06486164
-0.006276842
-0.04769751
0.0303514
-0.04839339
-0.0002189018
-0.05911446
0.04658457
0.02501327
-0.02783109
-0.05091966
-0.03253734
-0.04981837
-0.01079537
0.01492673
-0.01457566
0.03813459
-0.03689421
-0.06354284
0.06745788
0.06289638
-0.01763634
-0.05741659
-0.01973985
0.05626101
-0.05462449
0.06695896
-0.06090666
-0.006918898
-0.009747126
0.05400646
0.05118354
0.005812879
-0.03282343
0.05140462
0.0004364256
0.006210948
-0.06521054
-0.03233976
0.009375985
-0.04030487
-0.007096423
0.06377175
0.02954169
-0.02206648
0.04209664
-0.05586565
-0.002355686
0.06316362
0.0438909
0.0035182
-0.02393628
-0.009069367
0.03588758
0.06190431
0.01456136
-0.01679687
0.03997896
0.04202702
-0.06170552
0.0007587658
-0.06614442
-0.01443315
-0.03317622
-0.01390093
-0.03416658
0.02958641
0.05094167
