-0.03595739
-0.03445785
-0.01255837
0.05932919
-0.01572131
0.03261479
0.01434331
0.01508906
-0.03561912
0.005700035
-0.01704277
0.05248691
0.02767594
0.03656974
-0.04147412
-0.04386226
-0.005982431
-0.04002465
0.06760383
0.01727199
0.03591488
-0.03619329
-0.008768498
0.03868615
0.04353659
-0.003711622
-0.004352774
0.0367444
-0.02106045
-0.05796833
0.05125868
-0.05593598
0.0530506
0.05225665
0.04973373
-0.04456684
0.04739374
0.03396776
-0.02006984
-0.03472949
0.004938683
0.02062229
0.01733028
0.05066906
0.05319035
0.01195348
-0.02921953
-0.03622458
0.01315392
-0.06763799
0.06528233
-0.05083946
-0.04826988
0.03212917
-0.04091411
-0.06770072
0.04224727
0.01669211
-0.05214402
0.05592693
-0.03096905
0.04553553
-0.03178712
-0.04558742
0.02237797
-0.02904341
0.06737293
0.04335591
0.05477263
-0.06484391
-0.02331937
0.02798643
0.04798181
0.0343967
-0.05560331
-0.05264403
0.01441306
0.008499061
0.05343242
-0.03635351
-0.04242871
-0.03606482
-0.04434614
-0.02135908
-0.05531403
0.03416152
0.06027051
-0.04701519
0.02523414
0.04949784
-0.01887748
-0.037235
0.01817516
-0.008060149
0.06417619
0.02733978
-0.01552721
-0.00501892
-0.03964553
0.01429714
0.01251717
-0.004638821
-0.02306059
0.01006121
0.023618
-0.03064072
-0.03088464
-0.01472995
0.01979586
-0.0562067
-0.01417716
-0.03418842
0.03119631
0.05214611
0.03041902
-0.06284086
0.02194505
0.05750859
-0.05821001
0.05615307
-0.0213773
0.0464515
-0.04981485
-0.06266182
0.0219702
-0.054021
-0.05812535
-0.01189467
0.03815714
-0.01500646
0.03081981
-0.04850464
-0.01979203
-0.02880134
0.01906594
0.03014673
0.05493239
0.01352927
0.02295954
0.04326331
-0.002890461
0.007063848
0.00112558
0.01350422
-0.004261627
-0.05262569
-0.0004946865
0.03396566
0.02945745
0.05908042
-0.0625419
-0.005099181
-0.01474553
-0.02786199
-0.03226218
0.03400229
-0.02276059
-0.02833539
0.05602763
0.009702377
-0.040452
0.04894665
0.01504953
-0.0331343
-0.01908989
-0.03360914
0.05354023
-0.007938966
-0.03485645
-0.06766433
-0.04983663
-0.05952084
-0.03338757
-0.0335367
-0.008893085
0.03949547
-0.0226107
0.004617546
0.009536427
0.006659262
0.01441031
-0.02415439
0.0265845
0.04701334
-0.02040118
-0.03201763
0.03417751
-0.05986666
-0.06447578
0.05300027
-0.0150293
0.01533116
0.02543826
-0.05467946
0.01577869
0.01609951
0.05995094
-0.03367674
-0.03534251
-0.03858911
-0.03822929
-0.06049234
0.0008854867
0.02918516
0.04098043
0.06491556
-0.03964823
-0.04914545
0.04896772
-0.003821031
-0.01132362
0.04055849
0.0300648
-0.01856825
0.06322869
0.05163901
-0.04557448
0.03597282
0.0552035
-0.05500887
0.0001499768
0.04547027
-0.01139981
-0.01992009
0.01530159
0.002768827
-0.01702248
-0.04664473
0.01862123
0.04294403
0.04748116
-0.05687059
-0.02797656
-0.01981108
-0.02304806
0.006966033
0.04289674
0.06533596
-0.06190371
-0.01738012
-0.06030602
0.01538634
-0.04089776
0.00728187
-0.003612732
0.01234884
0.05320298
-0.02393011
-0.04997153
0.0320763
-0.006262635
-0.0439585
-0.02094362
-0.04827026
0.02919753
-0.01576295
0.01884408
-0.04713105
-0.05405305
-0.02972502
0.01400141
-0.06094012
0.0001699365
-0.06191293
0.01663444
-0.02238966
0.0005984262
-0.01806073
-0.06345681
-0.01167397
-0.05919435
-0.04297381
0.02993991
0.004647001
-0.06263947
0.05270026
0.01843141
0.04925495
0.05162926
-0.06498387
0.01750247
-0.06102899
-0.06460983
0.05448156
-0.01872996
0.02350303
0.03200966
-0.04764292
0.018928
0.0606515
0.05605857
0.02209117
0.05145238
0.03575793
0.03655509
-0.06730253
-0.05272022
-0.04692145
0.05858406
-0.04915969
-0.05618621
0.003327093
-0.02840992
0.02963906
0.02333403
-0.03122544
-0.005961785
0.042346
-0.05356741
0.0444339
0.03374226
0.03752576
-0.03082369
-0.05700579
0.02070913
0.007093776
-0.06426692
0.013625
0.02475366
0.06106802
0.01353731
-0.01969527
0.03094788
-0.05617169
0.0002040854
-0.0133489
-0.02648957
0.0621186
0.03602853
-0.06327357
0.03748386
-0.002583754
0.05860751
0.03285234
0.05913896
-0.05376125
0.03531756
-0.02631226
-0.03678909
-0.05544114
-0.0384718
0.05760028
-0.06201213
0.04243073
-0.04102738
-0.04940381
-0.01502176
0.04052155
-0.05288782
-0.03847531
0.06490102
0.001591402
-0.003738491
0.06545266
0.005239621
0.03144569
0.04031583
-0.04017485
-0.03850165
-0.03125369
0.06320076
-0.00014376
-0.06161916
-0.05823047
-0.06098659
-0.0316106
0.04685487
0.004260596
-0.04820814
0.006533757
0.03971284
0.02998197
-0.01752253
0.01225818
0.03160321
0.02387365
-0.02561977
0.05645377
0.05279231
-0.01832872
-0.06626376
0.0009254906
0.0470698
0.006567218
-0.06023797
-0.03204416
-0.06678189
0.06109148
-0.04032391
-0.04024335
-0.02614046
0.00755579
-0.05574724
0.06240122
-0.05070527
0.02960858
0.05128281
0.06415496
0.0354807
0.05851984
-0.02832206
0.04865426
0.02079307
0.008515041
-0.01025152
-0.03301757
-0.04882269
0.05193995
-0.03408717
0.04930259
-0.01087117
0.05179868
-0.02503054
0.0477637
-0.03292655
-0.005661359
0.02072306
-0.0002497504
-0.06592912
0.0389942
-0.03276534
0.05370001
-0.02335212
0.05997183
-0.03526241
-0.03577957
0.01779258
-0.01198713
-0.004973172
-0.065942
0.04052746
-0.0218381
-0.04696355
0.06220909
-0.05794328
-0.0469814
0.04806904
-0.02938186
-0.05111788
0.04071622
-0.0511581
-0.05078522
0.02724203
-0.02168988
0.03856445
-0.01000252
-0.03535029
-0.03557432
0.02739115
0.02289271
-0.05905111
-0.01640406
0.06214746
0.06442311
0.02334856
-0.01408545
0.00406976
0.02875786
-0.02415917
-0.04240857
0.01712647
0.03110106
-0.0110235
-0.0360818
-0.05916149
-0.05696969
0.0308256
-0.01930301
0.03777036
-0.05388178
0.01420622
-0.01783169
-0.01706849
-0.03870872
0.02221568
-0.04991674
-0.04147864
0.06627437
-0.04652924
0.04267673
0.06750733
-0.01456972
0.02855834
0.04007074
0.06104574
-0.0110051
-0.01604894
-0.04345004
-0.02907609
0.02407879
0.01688546
-0.04862544
0.06271393
0.05922732
-0.04434687
-0.01432254
0.0281749
-0.004612789
-0.03046501
0.02759751
0.0271085
0.05188935
-0.005408058
0.01333631
-0.05925013
0.02671721
-0.06727219
0.03291955
-0.02572918
0.005328683
-0.04054343
0.005732004
0.007350472
0.001100722
-0.04197929
-0.03624043
-0.06539389
0.01684238
-0.02919091
0.01978023
0.02701587
0.00633902
-0.05816355
-0.05424505
-0.002830612
-0.005104966
-0.012609
-0.008359187
-0.06229847
-0.0313984
-0.01015502
0.03107077
0.02880276
-0.006190126
-0.0523684
-0.05231863
0.05877496
-0.05271459
0.03138426
-0.0336081
-0.01166953
0.01896813
0.05021577
0.03353185
-0.003314402
-0.05678317
0.01196071
-0.006323415
0.03326998
0.05983018
-0.01686526
-0.05660411
-0.0433585
0.01769139
-0.06735498
-0.04716714
0.04211627
-0.01909963
-0.0517697
0.01379145
-0.02861041
0.00902362
0.0272814
-0.0622674
-0.05245292
-0.003677578
0.04486586
-0.05439602
-0.0144675
-0.05759728
-0.02707877
0.05525731
0.05339475
-0.06351944
-0.03648686
-0.05988888
0.02405987
-0.02375877
0.01700598
-0.01398407
0.05087094
0.06165104
0.02630745
-0.05419203
0.05340348
-0.02148754
0.006492644
-0.05682524
-0.006771765
0.06273536
-0.02649828
0.009937969
0.06699174
-0.05034382
0.06293894
0.04724347
0.05962335
0.04454655
0.01804814
-0.06757344
-0.03371241
-0.001579884
-0.05979253
0.02293064
0.01897232
-0.004185957
-0.04206223
-0.04777568
-0.01375837
0.06047052
-0.003290389
-0.002061578
0.03183101
0.03015099
0.03085713
-0.02232482
0.05065279
0.0135368
-0.04773426
0.03697124
0.0577664
0.03375449
0.02031236
-0.009266246
0.03683763
0.03091989
0.0562022
0.03580195
-0.05852175
-0.01579371
-0.05157561
0.04744994
0.02612971
0.0166428
-0.04820829
-0.0154858
0.05350695
-0.06455981
-0.005227725
-0.01034718
-0.04736193
-0.0136683
0.02486975
0.000694339
-0.001910868
0.04349992
0.04604358
-0.03109587
-0.01326433
0.01732714
0.0645273
-0.02185007
0.02434419
0.04901352
-0.05740322
0.00046973
0.04604438
0.01741033
0.05402963
0.05598906
0.007548465
-0.009927563
-0.05719055
-0.06590129
0.0441095
0.01719629
0.03974533
-0.05274841
0.01042265
-0.02159369
-0.00789515
0.04727598
-0.0491721
0.03054954
0.01639654
0.003498076
-0.05905189
-0.0483186
0.06058124
0.06127433
0.05281293
0.01936145
-0.01887034
-0.007912269
-0.01238439
0.03821108
-0.04483087
0.04505281
0.006109402
0.01925861
0.006406453
-0.03184001
-0.05065282
0.006719837
0.05004098
0.03050226
-0.02441437
0.02283441
0.02452146
0.04882946
-0.06418204
0.03085536
0.0264181
-0.05960726
-0.04271434
-0.0506853
-0.0406146
0.06173128
-0.03531964
0.007035322
-0.008415005
0.02642635
0.02476571
0.06069192
-0.06476049
0.05612364
-0.05899384
0.01865834
0.01441973
-0.06203821
-0.005909455
0.06262915
0.009078813
0.05910066
0.03993648
-0.04399176
0.02999218
0.01204469
0.04844519
0.05383091
-0.04002417
-0.01394968
-0.004903433
-0.05618484
0.05751975
-0.04597905
0.06087997
-0.0271997
-0.03313456
-0.02963571
0.01088906
-0.03862553
0.01243583
0.0670107
-0.04026301
0.04791673
0.0113309
-0.04340812
0.003543709
0.06185396
0.02155948
0.02486391
-0.05952194
0.01862304
-0.0131977
-0.05887457
-0.04616007
0.03525406
-0.03160711
-0.06665919
-0.01274086
0.01527733
-0.05465053
-0.02121393
-0.02087713
-0.06240195
-0.03660684
0.01301393
-0.06476445
0.04915518
0.06318029
0.03614248
-0.01614372
-0.02388118
-0.004990648
-0.03522054
-0.0177433
0.01000473
0.03142705
0.05995637
0.01261396
0.005463686
-0.05943564
0.05452785
-0.0356652
0.003048539
-0.02236436
0.04441015
0.02494948
0.0484577
-0.0677556
-0.04231071
-0.06352922
-0.03441199
0.05104177
0.06354836
-0.05191162
-0.03428686
0.01995121
-0.04579768
0.01658694
0.06625359
-0.04658029
0.02232515
0.06661029
0.05335362
-0.02692899
0.03229586
-0.04432293
-0.04591378
0.02680536
0.01177182
-0.06410961
-0.02362686
-0.01133653
0.04973207
0.006776351
-0.04124176
-0.05348535
0.04401096
0.02789903
-0.01308037
0.05600107
-0.04528553
0.04897416
0.03755438
0.03173507
-0.04966836
-0.006986334
-0.0006023798
-0.05124554
-0.05139306
0.05799015
0.00928811
-0.02456719
0.01429699
-0.01589264
-0.01382417
0.05585418
-0.0210822
-0.03795909
0.0132764
0.02079646
0.00292664
-0.04628428
-0.0115908
-0.04613772
0.02803427
0.04486116
-0.06662692
-0.01116462
0.05726676
-0.04873813
0.04387687
-0.005760093
-0.03826931
-0.0576841
0.06664186
0.0412876
-0.03888071
-0.04631807
-0.04519725
-0.02865442
0.02421607
-0.06260486
0.0102618
0.02171829
-0.0054611
-0.06699629
0.0423031
-0.002311906
-0.04733611
-0.02915932
0.03553347
0.01403343
-0.05331399
0.0340598
-0.01486219
-0.06693788
-0.007371661
0.01575548
-0.06423582
-0.0265929
-0.008296037
-0.05737438
-0.04057568
0.06528169
-0.05382334
-0.05288842
-0.05423449
0.004044471
-0.01459789
0.01282485
0.02679828
-0.04270075
-0.06069846
-0.0260058
0.06451701
-0.002405125
0.01139055
0.03462754
0.02726
0.02709394
-0.06537856
0.003621609
-0.03176514
0.01848946
-0.01633498
-0.03809318
-0.02038273
-0.004392491
0.02511471
0.06564312
-0.01927735
0.01330043
-0.05001888
0.04933227
0.04757823
0.01365383
0.04590745
0.01291673
0.007605007
-0.0205093
0.05517482
-0.02967799
-0.05565064
0.007775669
0.01197902
0.0102976
0.006795266
0.04062844
0.0374794
0.05547956
-0.01039181
0.02593742
0.05643211
-0.02339314
-0.02915096
0.05601897
0.04232737
0.00887148
0.01368005
0.05220646
0.03543093
0.01809462
0.04686638
-0.01230439
-0.03583442
-0.05443877
-0.06061849
-0.04209411
-0.005647415
-0.01707344
0.01962405
0.06641044
-0.04091409
-0.02016732
0.03985574
0.03223605
-0.008664371
0.02839582
-0.06142619
0.04130404
0.02304818
0.006925456
0.02606473
0.03757178
0.008098306
0.02272184
0.02480494
0.04131088
0.0105466
0.05949588
0.03926307
-0.03090065
0.06717329
0.02333517
0.01199639
-0.03085642
-0.00860775
0.02459036
-0.02432653
-0.001518829
0.00297947
-0.01904725
-0.02166077
-0.01338378
-0.03208112
-0.008865633
-0.001085105
0.008662803
0.004687737
0.006549618
-0.003253276
-0.05400506
0.002361042
0.04031263
-0.03877834
-0.03943115
0.05996651
-0.05864201
0.04753393
0.009380361
-0.01130709
-0.03399276
0.01529591
0.002793325
0.01160011
-0.01741192
0.06717377
0.003687358
0.03577291
0.002775541
-0.02709283
0.03468189
-0.01521427
0.008029266
-0.02961205
-0.0258412
-0.03935039
-0.02848811
0.001716268
-0.05097268
-0.04412967
-0.05179448
-0.03131348
-0.06393964
-0.005187463
0.02533152
0.03467492
-0.04107596
-0.00582311
-0.01650909
-0.02288631
-0.01790236
0.04499305
0.03422973
-0.05814836
-0.0309644
0.03359346
0.04348253
0.04295273
0.05326743
-0.008102787
0.06316416
0.04082651
-0.06602442
-0.03429418
0.03000146
0.02914583
0.0622684
0.001988061
0.05499948
0.06785587
0.020518
0.007578341
0.03056999
-0.01442659
-0.02744923
0.06525734
0.01129892
-0.05995584
0.05420522
0.01584978
0.04031311
-0.05842615
-0.01565462
-0.04227477
0.05874616
0.05762545
0.01849262
-0.001758994
-0.06658427
0.00850196
-0.0148963
-0.003504216
0.01638546
0.02506673
-0.03935721
-0.02468437
-0.03322567
0.03829116
0.0327477
0.0641223
0.04034315
0.0248726
0.007114034
-0.01642833
0.02453231
0.04245592
-0.05351356
-0.01928031
0.03723749
-0.02828511
-0.04564208
0.03550174
0.05668413
-0.03051897
0.01952072
0.05365369
-0.01145549
0.04418697
-0.02510371
0.04031263
-0.05728341
-0.00390923
0.0006357162
-0.0214391
0.01481555
-0.0439144
0.0591295
-0.06243336
-0.043006
0.06517176
0.03054639
0.04094438
-0.02476691
0.05801953
0.04344325
-0.05249611
0.002396433
-0.06716291
0.001129539
-0.05164639
0.04320239
-0.03016369
0.02894014
0.02963745
-0.01379258
0.01753858
0.007748275
-0.02103219
-0.06239061
-0.02507428
0.05470774
-0.009476016
-0.004541744
0.06037169
0.0534691
-0.02368424
-0.04369974
-0.03938348
0.03669273
0.0005100935
0.05126304
-0.05901682
-0.04421093
0.04000234
0.009105125
-0.01864984
-0.007667971
0.06660122
-0.006025599
0.004080205
-0.01667937
-0.0122292
-0.02487919
-0.04139395
0.06504686
0.0408169
0.03508725
0.03893488
0.0602901
0.06521359
0.01627394
0.01222507
0.06789388
0.0500049
-0.05747259
-0.02791422
-0.0224505
-0.01720198
-0.06338619
-0.0008091309
0.05914025
-0.0261567
-0.03591902
-0.06731717
-0.03497281
0.03428259
-0.05388938
0.05687442
-0.04740429
-0.06307936
-0.04273007
0.009083677
0.05293003
0.0014658
0.05954171
-0.0009996844
-0.05253344
-0.03108442
0.06326145
-0.05528442
0.009165128
-0.014698
-0.03173696
0.03941577
0.05217277
-0.02889865
-0.05897408
-0.02627921
0.02953831
-0.03091728
-0.06413596
-0.05840261
0.06205079
0.06272015
0.01287657
-0.05845928
-0.0442468
-0.02549864
0.06151548
-0.03717235
0.02676965
0.04614946
0.01840255
0.05543284
0.04000704
-0.06074636
0.02723165
-0.00150854
0.05839982
0.01146372
-0.0433174
-0.0593027
-0.01252681
0.05983485
0.05796236
0.005901631
-0.06235637
-0.007398169
-0.05155333
0.06186246
0.02532005
0.04032645
-0.04060052
0.0514496
-0.06688002
-0.05226408
0.01496951
0.0581465
0.05652585
0.05006437
-0.02468951
0.04090181
-0.02466328
0.03249718
-0.01411745
0.03095229
0.03483607
-0.01923318
0.06734535
0.04498251
0.01180632
0.01047108
-0.0167424
-0.04986202
-0.0555365
0.06310336
0.02206082
-0.06572069
-0.06317883
-0.06096168
-0.06403954
0.03108799
-0.04188193
0.06758965
0.005444225
0.05437982
0.01881335
0.03488957
0.05437624
0.0243345
-0.007779249
0.03702177
0.009902233
-0.05960118
-0.0317834
-0.01628259
0.0332972
0.02291263
0.006015686
-0.04092655
0.03900218
0.02481343
-0.006806899
-0.02859921
-0.01788049
-0.05308766
-0.01086777
-0.05867511
0.03904948
-0.06204676
-0.006388282
0.01275358
0.05338871
0.04955091
0.04616728
0.01215912
0.01484713
-0.02431631
-0.04088367
-0.0005606579
-0.05579768
0.06788312
-0.005672801
-0.02492577
-0.01517486
0.04272117
-0.06736778
-0.02507785
0.049858
0.02868271
-0.03813046
0.06708482
-0.003799755
0.04568434
-0.03202724
-0.02091635
-0.03004173
0.0546539
0.01753352
-0.009404743
-0.002689029
0.009551845
0.06377671
0.04848639
-0.03721384
0.04740379
0.05156968
0.02828795
-0.03783184
0.0239941
0.0368069
-0.01032311
-0.004140323
-0.06136028
-0.05306549
0.03905569
-0.03745039
-0.04981775
0.05451227
0.007334958
-0.0536565
-0.05372654
-0.04059649
-0.05756985
0.04402032
-0.005536477
-0.05138328
-0.06023225
0.01364153
-0.0008529912
-0.02573577
0.02812985
0.0260868
0.0364577
-0.06580825
0.002587095
-0.06383021
0.01377743
-0.05564855
0.005357968
0.05908811
-0.0277191
-0.05518264
-0.04207272
0.05981243
0.04012927
0.003288518
-0.0103761
0.03081321
-0.003146311
-0.05140258
-0.0481606
-0.06779499
-0.05773806
-0.02368486
-0.01689911
-0.01778829
0.05340993
-0.06347056
0.03625926
0.03085045
0.04386531
-0.0532902
0.03095778
-0.01820676
-0.05925956
0.03152671
0.0273386
-0.06348865
0.01228404
0.03494928
0.0167088
-0.06210583
-0.01878232
0.01618346
0.04199922
-0.06648052
-0.06646039
-0.04944566
-0.06404557
0.05911163
0.02692944
-0.02310884
-0.05114878
-0.01738703
-0.04551179
0.02798822
0.01588824
-0.007794062
0.01902748
-0.04756124
-0.04930353
0.009311371
-0.02397118
0.04244414
-0.05271382
-0.04236552
-0.01820379
0.04407066
0.05113537
-0.05933407
0.04388654
-0.01482407
-0.04940744
0.02984103
-0.0001747593
-0.05399139
0.01892394
-0.005984906
0.002252536
-0.01835521
-0.01926452
0.03491897
-0.06736161
0.04508425
-0.06401561
-0.000962475
0.06579521
-0.01959181
-0.04063159
-0.01931116
-0.05229814
-0.03280396
-0.01457951
-0.008091346
0.01631618
-0.06053919
0.02980197
0.006710168
0.0009606566
0.01642812
0.01965988
-0.04259443
-0.0326444
0.06322512
-0.05271153
-0.02618311
-0.04163801
-0.01305319
0.05072435
-0.05945702
-0.05887235
-0.04606348
0.05789002
-0.03055394
0.0396399
-0.01628587
0.008736359
-0.001118808
0.03852313
0.01618528
-0.04022411
-0.06654859
0.01676563
0.002509906
0.0609007
0.008753873
0.06769206
0.02662052
-0.05441178
-0.007572188
-0.01585674
-0.05572285
0.06099106
0.05376104
0.02992153
-0.04460672
-0.0003732525
-0.06265011
0.02985916
0.03010412
-0.02726108
0.01091178
-0.002379543
-0.0491112
-0.02837543
0.06170195
-0.02275736
-0.05196219
0.02020537
-0.03533456
-0.001338931
-0.03701584
0.03612366
0.052712
-0.01128439
0.01827186
0.008576567
0.03278232
-0.0656122
0.006471217
-0.02593855
-0.0003219128
-0.02657804
-0.009640084
0.02433635
0.06478712
-0.03911791
-0.06380763
0.007461154
0.01631
0.052024
0.003449846
0.03695865
-0.05951761
-0.02449026
0.01680074
0.003767569
-0.002059793
-0.03705128
0.06713536
-0.03642539
0.05171763
-0.06152147
0.04885941
0.06170337
-0.04677753
-0.02390989
-0.05965756
-0.002891198
-0.05628695
0.01475334
0.03478105
-0.06497453
-0.04454868
-0.01189395
0.04099745
-0.03044681
-0.06067608
-0.00551093
-0.02522593
0.03288325
-0.02688635
0.008513273
-0.06404124
-0.01942194
0.06314784
-0.006037873
0.02770466
0.009265631
0.03985149
-0.05343233
-0.05730026
0.001896974
-0.06481095
-0.02504002
-0.009719554
-0.006737059
-0.007500825
-0.003406827
0.003177256
0.02076039
-0.04739698
0.007020188
-0.004188521
-0.06637996
-0.05069368
0.0004877555
0.01357071
0.02031296
0.002448915
-0.02068908
-0.003492972
-0.06448548
0.05611128
-0.0336845
0.05839758
-0.02473226
-0.06541686
0.0003447285
0.06649214
0.02719697
0.01632208
-0.0009865665
0.02519393
0.06508201
0.004116978
-0.03505254
0.06777304
0.04842796
0.06576222
-0.02020211
0.04499064
0.01066737
0.05924844
0.0219503
0.01234361
0.03403008
-0.05523483
-0.0655979
-0.03666489
-0.005276532
0.04832804
-0.06054492
-0.06111991
-0.007396051
0.01799726
-0.0607514
0.01372232
0.03681018
-0.01550097
-0.05292391
-0.009256827
0.06009107
-0.001962346
0.04391691
-0.06349832
0.02152621
0.04976288
-0.001333907
-0.002560322
0.05229549
0.0006513432
0.03307938
0.02248736
-0.0452856
0.002256905
0.05377628
-0.0557973
-0.03377565
0.02190851
-0.04356913
-0.03743406
-0.06775558
-0.030927
0.003832052
0.04680555
0.008930382
-0.007803282
-0.03534664
-0.02085187
-0.003068245
0.01916176
-0.03697377
-0.00400769
0.05074951
0.05699134
0.05283619
-0.05530691
-0.0526051
0.017512
0.05875402
0.05220383
0.0140357
0.004899045
-0.02102375
0.06200875
-0.05268796
-0.01509566
0.05210231
0.05828366
0.0321576
0.06298252
-0.02043865
-0.05303495
-0.03986847
0.05244677
-0.009437871
0.02308145
0.06214222
0.06504798
-0.004492076
-0.03860713
0.0171729
-0.04841865
-0.0674287
-0.0348029
-0.03031151
-0.03084956
0.03967447
-0.03434031
0.01735733
0.04114657
0.06474442
0.01664898
0.03109112
-0.02783633
0.01646686
-0.004718001
0.05803337
0.009759927
0.03155689
-0.04391058
0.008031028
-0.02569368
0.01492715
0.001885854
-0.02833621
-0.05187544
-0.03207584
0.06623936
-0.001507412
-0.03818188
-0.04951251
-0.04971645
-0.04593255
0.02942453
-0.03290569
-0.005482269
0.004391123
-0.05415748
0.02438363
0.04609821
0.01316649
0.018506
-0.02701029
0.05894766
0.06617473
0.03084899
-0.01618944
0.05590448
-0.03195672
0.06321675
0.0329847
-0.01555433
-0.03444554
-0.02851812
0.02129846
-0.02507004
0.004590824
-0.001377932
0.06146994
-0.04637269
-0.06671034
0.04137173
0.03510372
-0.01239741
0.02272245
0.04652425
-0.005355097
-0.06627003
-0.06286726
-0.04598749
0.0588275
0.04425423
0.05331292
0.0533953
0.01085956
0.05746165
-0.06662001
0.02391611
0.003647748
0.008751418
0.03225062
-0.0200437
0.03025946
0.003212458
-0.003229961
0.03397844
0.05266571
0.05052219
-0.05981056
0.06010097
0.05786353
-0.06216757
-0.0476908
0.002819699
0.04487193
0.03973138
0.0513389
0.05332374
-0.03171142
-0.04828614
-0.03173253
-0.01785603
0.05083512
-0.05390585
-0.06354737
0.05666709
-0.0009306198
-0.01990422
0.02855895
0.03177344
-0.02638665
0.04861133
0.06291094
-0.0152181
-0.01068669
0.02126998
-0.05682435
-0.03604536
0.05876917
0.05668064
0.06179516
0.01205933
0.06147715
-0.05503161
-0.0359144
0.05305844
0.02400841
-0.01744341
-0.05941325
0.03906479
-0.06181388
-0.05200714
-0.01230909
-0.01600274
-0.02745267
-0.01782996
-0.002942197
0.01622868
-0.001176795
0.008039566
-0.03302756
0.004633305
-0.04597338
-0.02364738
0.01855099
-0.05868443
-0.05714189
0.03546393
-0.05443023
-0.04433468
0.02861911
0.01944764
0.06249119
-0.02045544
-0.04214467
0.02414476
-0.01139656
0.0379301
0.04994517
-0.04866919
-0.03527793
-0.05142384
-0.02842759
0.05743077
0.02565069
-0.04231614
-0.007016201
0.01097705
-0.05570205
-0.06079335
-0.04372444
-0.005116414
0.03306806
-0.01720701
0.02177158
-0.01077477
-0.009903917
0.0171879
-0.005645981
-0.04516659
0.04226371
0.0564811
-0.0309498
0.05285804
-0.05749094
-0.01332489
-0.0465617
-0.05979027
-0.04179468
0.01633919
0.06150322
0.02706432
0.03422013
-0.02044423
-0.02461912
-0.04954035
-0.03487573
-0.03546752
0.01863855
-0.007069494
0.0162684
-0.0001823184
0.02322935
-0.0615735
0.06732638
-0.0342011
0.0543162
0.01176158
0.0257096
0.03656672
-0.03388795
0.03935216
-0.02436054
0.02717515
-0.02299627
-0.02382241
0.04746258
-0.01334901
0.04698509
-0.02896104
-0.06369106
-0.01516255
-0.01516489
-0.004104617
-0.05435995
-0.002852136
0.02860007
-0.01442433
-0.06052451
0.00337531
-0.04383566
-0.04237301
0.06648597
-0.06651311
0.006501631
-0.0254906
-0.03468487
-0.03731291
0.05346828
0.04464678
0.0002955273
0.009613349
-0.01756325
-0.01042478
-0.01770949
-0.04578556
-0.01651177
-0.06089163
-0.06538457
0.06713992
-0.02906631
0.0464099
-0.014516
-0.02033703
-0.01131506
-0.03650567
-0.05295406
-0.04060265
0.06072307
0.0022419
0.005135452
0.0008039142
0.004349466
-0.04560233
0.01246576
-0.05945155
0.04080281
-0.02578405
-0.04726311
-0.0654423
-0.05707416
0.01683887
0.001119331
-0.06559831
0.03868006
-0.005367786
-0.06553593
0.06319652
-0.05433175
0.05936224
-0.05427699
0.02155509
-0.01697638
-0.05972781
-0.035495
-0.02230894
0.0400796
0.01888638
0.01273857
-0.02492932
-0.04047316
-0.06201885
-0.03009936
-0.01671024
-0.0284253
0.06742823
-0.06267274
-0.03989753
0.04504609
-0.02619456
-0.01865176
-0.05866434
0.0543081
-0.06787889
0.05627746
0.02203144
-0.02264605
-0.01685431
0.008919531
0.06198935
-0.03890636
-0.04821395
-0.05420752
-0.0665758
-0.01141773
0.05151699
-0.05015633
-0.003859351
0.05782929
-0.03316193
-0.03159454
-0.04602019
0.029414
0.04560284
0.04296749
-0.06299194
-0.02099839
-0.05010705
0.03076361
0.03918844
-0.01063167
0.04229823
-0.0497862
0.03979943
0.01007737
-0.06354927
0.03518361
-0.0170341
-0.04806864
0.01041018
-0.06759951
-0.01100271
-0.05796978
0.01868584
-0.05395958
-0.06019584
0.0601253
-0.03146019
0.06264412
-0.01200566
0.04964794
0.009123234
-0.02979021
0.0102714
-0.06253664
-0.04056819
-0.02014172
-0.05923136
-0.04290976
0.05133278
-0.0249068
-0.04047562
0.0203187
0.03766771
0.004684399
-0.01326797
-0.06636437
-0.02607033
-0.008716546
-0.01580509
-0.05160325
0.0348144
-0.02372733
-0.02051751
-0.03349904
0.04734479
-0.05598703
-0.05720846
0.03162579
0.0352267
-0.05518062
-0.05747482
-0.04481455
-0.02516735
0.05747713
0.04818172
0.00415181
0.007879029
0.03439945
-0.01729106
0.02452908
0.02647835
-0.04206096
-0.03146479
-0.03261964
0.04081274
0.03661522
-0.02770086
-0.05393518
0.02724501
-0.06176809
0.018259
0.04519298
0.01051258
-0.02833904
-0.05310308
-0.03508605
0.05866392
-0.02416618
-0.04194481
-0.05251778
-0.03086989
-0.02292053
-0.01019984
0.03857677
-0.0353686
-0.0635977
-0.02245058
0.0481272
0.0244393
0.05051685
-0.00630678
0.00746685
-0.05936211
0.02760246
-0.01014497
0.008938741
-0.06019916
-0.05583448
-0.006375161
-0.05720704
0.03965045
0.06466334
-0.06355584
0.02905817
-0.005503003
-0.03473118
0.0126095
-0.06476493
0.04264359
0.01533115
0.01342451
-0.03589141
0.008407638
-0.0327099
-0.01253766
-0.01853774
0.0360755
-0.002104947
-0.06518767
0.03647382
-0.008870829
-0.007891438
-0.01043786
0.04466478
0.01247531
-0.05714447
0.03661847
0.05084674
0.04974255
0.0058948
-0.04282352
0.04656179
0.0501456
-0.05267439
-0.0242316
-0.02759661
-0.02730132
0.02867861
-0.02385684
0.06729919
-0.008270577
-0.02562227
-0.06245301
-0.05882847
-0.03084428
-0.03835199
0.06699584
0.04128441
-0.02779651
-0.05954385
0.04079986
0.009842408
-0.05858344
0.02508764
0.01960041
-0.02039474
0.007164585
-0.04028399
-0.05135377
-0.01629516
-0.003413022
0.02969937
-0.04657086
-0.03118784
-0.009781953
0.03479934
-0.01810039
-0.006854591
0.05945833
-0.05287766
-0.05917304
-0.06053973
-0.04618472
-0.06455024
-0.02319223
-0.05118518
-0.01337505
-0.01954601
0.007572443
-0.01710932
-0.05620368
0.06327068
0.01070663
0.04134979
0.03303156
0.0152707
0.0372086
-0.04287866
-0.004338178
0.06409976
0.03317542
-0.05495395
0.01209576
0.06037493
0.002775598
0.02996667
-0.04698803
0.03667145
0.0188901
0.002292994
0.04768502
0.005913803
0.0497627
-0.04285547
0.06756581
0.03340297
-0.01190949
-0.06196982
-0.01965675
0.002848965
0.06091694
-0.04122603
0.02008019
0.03369217
-0.0280281
0.001252917
-0.04894388
-0.01998403
0.003717225
0.04288397
0.06552736
-0.04315835
0.06542021
0.06329519
-0.01811647
0.06371753
-0.004698865
-0.03862303
0.0006107805
0.01477772
0.06373947
0.01789012
0.02950051
-0.06265717
0.003142281
0.005819139
-0.05442864
-0.01437452
0.0417206
0.06756521
-0.04075643
0.0312418
0.04471471
0.06074948
-0.0647538
0.006464828
-0.007097514
0.0463402
0.02046641
-0.06641394
0.01097393
0.04093262
-0.0349824
0.04394275
0.004702254
0.02290675
0.008430216
0.05440413
0.04319762
-0.06408834
-0.02983479
-0.04122308
0.005356024
0.03350215
0.007046114
-0.0249098
-0.002789909
0.01480074
-0.03738673
0.03408938
-0.01225506
0.03336726
0.006231998
0.004088635
0.01570378
-0.03365106
-0.01993644
-0.06326589
0.06011238
0.04335533
0.002878421
0.01689755
0.008847177
-0.0009119005
-0.06413283
-0.04512977
-0.01506411
0.05349438
0.0005771941
0.04817215
0.06532554
-0.04089615
0.01036448
0.03787231
0.02946338
-0.06746998
-0.04205085
-0.05672406
-0.01423326
0.02809262
-0.05868188
0.04603837
0.01579031
0.05431365
0.01377774
0.04554329
-0.033236
0.02886559
-0.03969765
-0.02958331
-0.02509343
0.003759486
0.06222838
0.06777892
0.000969862
0.02120428
0.01786637
-0.0616687
0.02969836
-0.01576074
0.05809093
0.01165234
-0.05371308
-0.01762226
0.03670046
-0.03929554
-0.04493384
0.03629631
0.04256188
0.01523714
-0.05953683
-0.03114901
0.01890399
-0.03591687
0.03410059
0.02477667
-0.06682938
0.02247015
0.05324697
-0.0417395
0.05604286
0.02400693
0.02525541
-0.03777612
0.005328962
-0.006370564
-0.0351879
0.01052218
-0.03103417
-0.05967753
-0.01739972
-0.04831877
-0.01848579
-0.06640914
0.03793832
-0.0023976
0.03181482
-0.03452405
-0.05032343
-0.01486334
0.02254051
-0.001595687
0.05424033
0.01300183
-0.03798309
-0.06188105
0.05279212
0.03020862
-0.03425829
0.04412981
0.02009704
0.06333284
-0.04697905
0.003501239
-0.003866974
-0.03385262
0.05433355
0.05199966
0.0449854
-0.0248656
0.06382899
0.0124806
-0.0006061448
0.03430279
-0.03529976
0.05671856
0.05527341
0.0173765
-0.005918565
-0.03143843
0.06089847
0.03563129
0.004856964
0.0001736978
0.003656605
-0.01029808
0.03770322
-0.05568304
-0.06772964
-0.0007266136
0.008773937
0.002540092
-0.02315615
-0.007227358
-0.01183795
-0.01279594
0.0665969
0.04594959
0.005394457
0.003854319
0.01120547
0.04775178
-0.01157283
0.04247878
-0.01075571
-0.05787671
0.06694708
-0.04799908
-0.01963504
-0.02676503
-0.04921783
-0.03252101
-0.03180943
0.06511676
0.05116796
0.05240238
-0.009460747
0.02078387
0.06778125
-0.06150552
-0.003619216
0.04207997
0.05179269
-0.02222461
0.03429709
-0.006647721
-0.03229987
-0.06131541
-0.02179588
0.04543281
0.05805828
-0.05861281
-0.05595457
0.05816374
0.02529272
-0.05478993
-0.02073251
0.0303148
-0.05700721
-0.006403307
-0.009308537
0.01776567
0.03188862
0.02697201
-0.0194454
-0.02664168
-0.0335871
-0.02033629
0.009541301
0.003696293
0.06460143
-0.02212359
0.04610496
-0.001036648
-0.06046309
0.03706212
0.06389572
-0.05728484
-0.05975493
0.06382863
0.04235978
0.06032586
0.04173343
0.002868775
-0.01688669
-0.05854164
-0.04450306
-0.02203655
-0.02811258
0.03802127
0.005198263
0.02816107
0.00985446
0.006247941
0.01573964
0.04655173
-0.05774527
-0.04311594
0.06515742
-0.006997854
-0.04099724
0.05597304
-0.002920088
0.04244445
0.048768
0.01224524
-0.03678114
0.0130187
0.0506902
0.05616722
-0.05074903
-0.03138429
0.02213311
-0.05289922
0.01917353
-0.001697781
0.04396887
-0.03891678
-0.02407793
-0.02884038
-0.05007525
0.05638607
-0.06016034
0.03945665
0.06643465
-0.03149626
0.03595857
-0.02807961
0.05116033
-0.0390782
0.02687077
0.03907504
-0.05450564
0.01517955
0.03688926
0.05432336
-0.004690668
0.06722561
0.02203739
0.03880469
0.04617612
0.01041487
-0.00479013
-0.01634317
0.02083368
-0.03135407
-0.06190866
-0.005182942
0.05501103
-0.0504992
-0.06535376
0.04910813
0.04889861
0.02606118
-0.02485923
-0.0294467
0.04819676
0.02555989
0.04394642
0.01232765
0.04422329
0.05923508
0.02979499
0.02183178
-0.03864017
-0.02188745
-0.04481528
-0.06098306
-0.02185185
0.03278679
-0.06494374
0.04467988
0.006982451
0.005053998
-0.007079876
0.007446504
-0.006760419
0.02411946
-0.04931366
0.0298521
-0.03752423
-0.02679511
-0.01515402
0.03372291
-0.04166107
0.04569926
0.05811305
-0.01263019
-0.02789784
-0.00160067
-0.06181001
0.03768607
-0.04465743
-0.05822688
0.06251802
0.05487765
0.04855651
0.04131471
-0.04563963
-0.02521549
-0.05447542
0.06701102
-0.05126771
-0.04571238
-0.05349208
-0.04209702
-0.02581094
-0.02409201
-0.03479557
0.03563089
0.04525035
-0.04385933
0.006936922
-0.05384231
-0.01808475
0.003081779
0.006452479
0.0640087
-0.004443779
-0.01640281
-0.01206387
0.03575154
0.03485141
0.04768544
0.02666018
-0.03469318
0.0214007
-0.002727296
0.0104726
0.005979091
0.02682662
0.01986149
0.001822463
0.04383846
0.01639089
-0.03659863
-0.04346402
-0.03737826
0.01927837
-0.06750067
0.00357358
0.01426843
-0.04577124
0.00440789
0.02108561
0.04998593
-0.03718748
-0.05875175
0.02779449
-0.00850038
-0.01951145
0.05248443
-0.02217813
0.03869981
0.054785
-0.02229033
-0.035777
-0.03101653
-0.004435938
0.04913772
0.004438909
0.04485298
0.03337201
0.02716196
-0.05913235
-0.04254777
0.02225483
0.03103509
-0.002296579
-0.04942274
-0.02139083
-0.02410588
-0.02320629
-0.004879733
0.04796023
0.04160432
0.01358616
-0.03749311
-0.04133679
0.04461087
-0.06544232
0.01221582
0.03741483
-0.04896364
-0.04244608
0.04227881
-0.025897
0.03105928
0.05699008
-0.0292554
0.06711499
0.05548914
0.0349943
0.03807728
-0.004002955
0.02665723
0.04883304
-0.00499658
-0.004396379
-0.004303245
-0.04020552
-0.0002859414
0.01148145
0.009280613
-0.05504617
-0.06334218
0.0077541
0.05063822
0.05867619
-0.05475594
0.03206014
-0.06622051
-0.05761636
0.01888982
0.04664342
0.06015971
-0.06049848
0.01439904
0.001671424
-0.03347454
0.05128586
0.05913217
0.04198163
-0.0409778
-0.04860112
-0.008943342
0.008836436
0.006653054
0.06705984
-0.04663361
0.0607079
-0.04935389
0.03483989
0.03090308
0.01687976
0.002780236
-0.06720226
-0.0398024
-0.06185409
-0.04704052
-0.03341191
-0.008598605
0.04031971
0.0438094
0.006621087
0.06539889
0.04516888
-0.05183214
0.05937047
0.003773957
0.01921908
-0.03350262
0.06126862
-0.03885846
0.01234752
-0.03140107
0.02566905
-0.01547737
-0.01005489
0.02183379
-0.004241998
-0.06683557
0.051515
0.03737318
-0.04752722
0.0134774
-0.03312379
-0.02058282
-0.06592657
-0.02407343
0.05942534
0.04724054
0.008316505
-0.01922468
0.06787398
-0.00805216
-0.04912416
0.06610885
0.02033773
-0.04606339
0.0138244
-0.007268047
0.0152192
-0.004650734
0.002083926
0.02627389
-0.04268588
0.005761728
-0.04938106
-0.01965579
0.04504781
0.01621173
0.03818911
-0.01575126
0.0251381
-0.03451296
0.007823015
-0.0649901
0.0234
0.06108031
0.03058606
-0.002184925
-0.05384219
0.01550729
0.01228524
0.03991516
0.0261175
0.01255667
-0.03879582
-0.04753694
-0.05021354
0.02749682
0.03212152
-0.03192813
-0.05992723
-0.06491058
-0.01411816
-0.01177089
-0.03264736
-0.005864489
-0.01177334
0.02905111
-0.03913838
0.02166584
-0.001184619
-0.02472301
-0.05888519
-0.04386886
0.02357385
0.03445032
0.05206145
-0.05207068
-0.02522776
0.02719405
-0.008712824
-0.05192729
-0.02136248
0.06764854
0.05100065
0.03010539
-0.06778023
0.01269407
-0.02337907
0.0660925
-0.03737887
-0.05038564
0.05202683
0.002180621
-0.02376064
0.02211205
0.04754182
-0.04834272
0.03559389
-0.03867214
0.004917023
-0.06640167
-0.03098317
-0.007571411
-0.05124472
-0.03092838
0.03086373
0.002049739
0.05691945
-0.00530952
-0.03166177
-0.06607947
-0.01521204
-0.06300914
0.04472132
0.05993668
0.02438853
-0.01383007
0.005165084
0.00518387
-0.00602088
0.04346922
-0.01550644
-0.03729425
-0.00889191
-0.01873561
-0.008813219
0.00687081
0.04782841
-0.06647483
0.05484512
0.03246755
-0.01972795
-0.05449225
-0.0456596
-0.01024778
0.0469925
0.05414556
0.05095663
0.01399241
0.06717828
-0.001893348
0.02371124
0.04986707
0.02981764
-0.03923602
0.03276303
0.04709935
0.02539593
-0.0157607
0.06566014
-0.006564723
0.01442882
-0.0375266
0.03528536
0.02938443
0.0170414
-0.06162554
-0.06661613
0.03542751
0.04582147
-0.0439437
0.02215795
0.05545765
0.007781984
0.003807309
0.0215851
-0.02865641
0.05058708
-0.01296753
-0.05499244
0.03817959
0.003149913
0.0591093
0.005942209
0.06380909
-0.04817865
0.002563108
0.0008247252
-0.03759252
0.01643799
0.01202405
0.04941151
-0.004347508
-0.06419834
-0.006526781
-0.04989789
-0.05013797
-0.02184099
-0.007107404
0.04064745
0.04068141
0.05282506
-0.0524075
0.03610756
0.04318536
0.04388532
0.03619022
-0.02585154
-0.04192629
0.007115505
-0.006517183
0.0644489
-0.02957317
-0.02870489
-0.04045607
0.05822198
0.02325614
0.02446781
0.0394129
0.009626453
-0.05345833
0.005486357
0.03891302
-0.0489471
-0.03413921
-0.02541859
-0.04143116
0.05171937
-0.05362786
-0.01423142
0.00378645
0.0611212
-0.01024214
0.01432165
-0.02773723
0.05329116
-0.01237921
-0.04493489
0.03069347
-0.04801285
-0.01643224
-0.03952198
-0.02518561
0.0232286
-0.04498145
0.01551177
0.01104805
-0.04357924
0.04419434
0.003187855
-0.005217409
-0.006669163
0.006682736
0.05120276
0.02616916
-0.03274156
-0.05402458
0.06447622
0.00231015
0.0006673314
0.01737986
0.05240746
-0.0401603
0.04024176
-0.06460757
0.000298239
0.006754418
0.02404181
0.06696896
-0.0258106
0.002664573
0.0002544036
0.06171097
0.01948913
-0.04187793
0.05400027
-0.03726466
-0.05225221
0.06397098
0.01828564
0.03146998
-0.06578854
-0.06041159
0.01112091
0.05892261
-0.05748101
-0.01349816
0.006491716
0.05608911
-0.06293229
0.03937911
-0.008918809
0.02069158
-0.03791049
0.002543908
-0.0009030814
-0.0672983
0.002509258
0.01989955
0.02265693
-0.05917927
0.05494286
-0.04261158
0.002068326
-0.06741334
0.06246481
-0.0004435087
0.05513023
0.02514407
0.04010551
-0.06341353
0.06616426
-0.06743138
0.05196113
0.03713397
0.01523178
0.04488243
0.01665541
0.04925577
0.06081006
-0.05414023
-0.06767392
0.03588932
0.06196463
0.002746905
-0.05635324
0.04749944
0.03168483
-0.0509914
0.02696177
0.05336194
0.02816271
-0.004215135
-0.02662258
0.009528284
0.04446374
0.04475966
0.005456704
0.01059763
0.06439442
0.01089912
-0.0006917685
0.04928426
-0.05195303
-0.06745538
0.04115148
-0.009424054
0.03666708
-0.007107835
0.05524875
0.02215111
-0.01601708
0.02119011
0.02702611
0.008860535
-0.05944197
-0.04888308
-0.03663959
0.06725805
0.05687652
-0.05297125
0.03580828
0.03818501
0.06611892
0.05468019
-0.02363961
0.002442766
0.02712782
-0.02550377
0.06060685
0.03840874
-0.02851089
-0.06187884
0.05279797
-0.01802568
0.01448817
-0.04902156
0.01990572
0.06148339
0.02953204
0.02100744
-0.05710426
-0.02914395
-0.03830353
-0.06312595
0.001442406
-0.06096403
0.03669538
0.03245351
0.00103363
0.0254102
0.01346263
0.006135283
0.02165773
0.04942905
0.04302746
0.02905984
0.05110197
-0.03869659
0.02412085
-0.0292279
0.03138474
-0.005765775
0.0002219373
-0.05109661
-0.01727462
-0.02207487
0.03632877
-0.02288483
0.06230899
0.05751622
-0.0008521805
-0.03018637
-0.03021062
-0.03206754
-0.06380362
-0.002984387
0.008551921
0.06130825
-0.01469883
-0.03061221
0.03368401
0.06261094
0.04139922
-0.03273997
-0.04299051
0.03329045
-0.01559995
-0.06456771
0.006883476
0.05336495
-0.03218691
-0.009334302
-0.03057408
-0.009176674
0.05755932
0.01659814
0.03857073
-0.05514354
0.02208529
-0.04441935
-0.02935618
-0.008356406
0.03808114
0.01145404
-0.04167424
-0.02428762
-0.03159072
-0.01421136
0.04529605
-0.02192477
-0.0474287
0.05773034
0.04393886
-0.01320356
0.005024711
0.03671042
0.02077163
-0.03497471
0.05983052
0.01737155
0.0614617
0.03295986
0.03816831
-0.05899258
0.0217665
-0.0594545
-0.06754892
0.04690268
-0.02169023
-0.01246514
0.0263815
-0.004241166
-0.02871366
-0.03821611
0.06668059
-0.02589621
-0.04340682
-0.03799144
-0.05900235
0.04923373
-0.003055459
0.06654803
-0.04192714
-0.03912837
0.03285703
-0.02198062
0.01466346
0.05056611
0.05373524
-0.04708773
0.06376313
0.005608821
-0.04703743
-0.06322289
-0.03794442
0.005620588
0.02141191
0.0291371
0.05762416
-0.05015636
-0.02467533
-0.01055677
-0.06045775
-0.01017543
0.01963035
0.02474909
0.01850737
0.01421834
-0.01194753
-0.0370157
0.01218062
-0.009173553
-0.04390898
-0.05733983
-0.04750961
0.06285029
0.006950374
0.009360064
-0.02391299
-0.0241895
-0.006181339
-0.0501784
0.06110406
-0.04253912
-0.008291651
-0.04716394
-0.02514036
-0.03342739
0.06766494
-0.006876619
0.02062851
-0.004607297
-0.02767897
0.05909063
0.005972432
-0.06043531
0.05906916
0.03618491
0.0091779
-0.05982868
0.02744862
-0.06749151
-0.005422982
0.02281432
0.008668269
0.005000066
-0.01841882
-0.05763422
0.05222334
-0.03285809
0.06660683
-0.05588478
-0.01488654
0.01387703
0.0239616
-0.04243355
-0.003724206
0.05001799
0.06605284
-0.001142335
-0.01804718
-0.01600186
0.01449003
0.06286571
0.01029241
-0.0511487
-0.0494312
-0.03506299
0.004624361
-0.05501092
-0.0641555
0.03870208
-0.06775445
-0.03202093
0.0162985
-0.006626455
0.02318121
-0.02964688
0.01672923
0.05464491
0.0391915
-0.03544275
-0.01771411
0.03258641
-0.005546833
0.008576667
-0.05765738
0.02638062
-0.03280758
-0.01953064
0.01122552
-0.05888546
0.0380687
-0.05761639
0.02615512
-0.02448614
-0.01404491
-0.0003520699
-0.05541472
-0.00811965
-0.01350536
-0.05129244
0.005678037
0.03929764
-0.03663922
-0.04003187
-0.05606695
-0.05080223
0.06551515
-0.03734857
0.002321868
-0.04201395
-0.03464786
-0.05652868
0.02760279
-0.05054105
-0.06622437
0.04984024
0.0004759205
-0.06622088
-0.06142794
-0.007875195
0.06568121
-0.04378162
0.001700188
0.06266658
-0.06730324
0.05779855
0.009760568
-0.02715198
-0.06051817
-0.04440335
-0.04216878
-0.04308774
0.0002136375
0.02254732
0.02681583
0.01092487
0.001289004
-0.03345159
-0.003293011
0.06108147
0.02880209
-0.06339563
0.04608411
-0.01469716
0.04369902
0.02666076
-0.01728255
0.00875955
-0.0261984
0.004051473
0.06710863
-0.05713046
-0.01462833
0.06230646
-0.04903703
-0.01847696
-0.03033917
-0.03136918
-0.04066525
-0.04592887
0.007373825
0.02473051
-0.04476703
-0.02121141
-0.06778179
-0.05949673
0.0111943
-0.06288116
-0.009420258
-0.009212614
-0.01938539
-0.03400911
0.005008755
-0.05457279
0.03125934
0.06114023
-0.02192911
-0.05153928
-0.04896906
-0.02602738
0.007144479
-0.06693561
0.06698304
0.003366982
-0.04357536
-0.05297494
0.03947721
0.005843798
0.003647733
-0.02264383
-0.02667258
-0.03527844
-0.06072296
-0.02530076
-0.01422898
-0.06386504
0.04930801
-0.0006411006
-0.01485199
0.03525914
-0.05247016
-0.02233802
-0.04975681
0.05095084
-0.04449976
0.03318112
0.005797404
-0.02799216
-0.0368895
-0.04224064
-0.06448448
-0.04673652
-0.05033673
0.05329875
0.01486327
0.006372807
0.02568409
0.01980262
-0.04557267
0.05312978
-0.03103732
-0.06258612
0.001407733
-0.05471305
-0.05047666
-0.05204356
-0.04122277
-0.0376271
0.0275928
0.02718776
-0.0561044
0.04664861
0.03124934
-0.01629158
-0.04149383
-0.03845413
0.05075783
-0.05190442
-0.02006988
-0.008819857
0.009164275
-0.0004672563
-0.02520332
-0.02204825
-0.02609597
-0.04787268
-0.05287834
-0.04608509
0.02777259
0.04733484
-0.02161251
-0.03843123
-0.02300505
-4.514395E-05
-0.001640163
-0.05782066
0.04419087
-0.06298038
0.03349087
-0.06039282
0.006467273
-0.02451211
0.01235166
0.003859357
-0.05407286
-0.04319646
-0.01004923
0.03389147
0.02685596
-0.01461923
0.0235516
0.009651887
-0.02806413
0.03118381
-0.02397112
0.03736655
0.03055382
-0.04448064
0.03931954
0.06533265
-0.06710185
-0.06307431
0.002536925
0.04819459
-0.01913634
0.05026345
0.001717038
-0.03664214
0.0532852
-0.05160979
-0.01470837
0.04580159
-0.01745867
-0.02761368
0.05264949
-0.03426024
0.0551177
0.03887394
-0.03591201
-0.05083613
0.03011317
-0.01883318
-0.005004424
-0.02554481
-0.04415338
0.03667222
0.05756952
0.01374777
-0.04401065
0.0289299
-0.02043787
0.02073489
-0.0343633
0.03609484
-0.06122759
0.00160496
0.04088758
0.03209369
-0.04494092
-0.03639968
0.02302312
-0.04134371
0.04854289
0.01052913
-0.06784748
0.04568662
-0.04082606
0.06748618
0.04647093
-0.05764751
0.05018547
0.0596165
0.059368
0.02221905
-0.03271714
0.01966795
0.009866737
-0.03985489
0.02441134
0.01212806
0.06063055
0.05590589
-0.06056812
-0.04358132
0.0367647
0.03249336
0.01222827
0.01438311
-0.03432272
-0.01689209
-0.007211198
-0.04491261
0.01587824
-0.06744895
-0.005922631
0.003520254
0.00056055
0.05240307
-0.02563395
-0.02190338
0.009561663
0.05801996
0.03521346
-0.05429976
0.04668105
-0.01211775
0.02930351
0.01135427
0.0008753663
-0.01295892
0.05967484
0.01280585
-0.06025427
0.01086764
-0.02909361
0.03505385
-0.04871221
0.02418759
0.04170105
-0.03240421
-0.03447827
0.01272745
0.03387228
-0.004573598
0.01750031
0.02716146
-0.02419836
0.05888032
-0.03979494
0.03169923
-0.04882922
0.02540029
0.05371568
-0.02162189
-0.06537022
-0.06532604
-0.04724418
0.06166826
-0.02232575
-0.01905418
-0.06474677
-0.06706262
-0.05442888
0.04657282
-0.008630313
0.04791957
-0.05259496
-0.06292602
0.02958129
0.02696014
-0.01570416
0.04430959
-0.05723461
-0.06116636
-0.05536174
0.06477083
-0.04378894
-0.02814957
-0.003863452
-0.04841703
-0.05585601
0.03835981
-0.01678742
0.03711276
-0.03206632
-0.03366207
0.02702679
0.02930424
0.008301248
-0.0317042
0.01436141
-0.04244385
-0.02142328
-0.007181391
-0.03559405
-0.03535227
-0.00078029
0.05523608
-0.06387991
0.03751737
0.0118198
-0.02920896
-0.03863759
0.001181545
-0.02053324
-0.02520218
0.01469827
0.04694543
-0.03419678
-0.06220444
0.04639953
0.04884201
-0.002404908
-0.04184534
-0.03113479
-0.03516997
0.01766142
-0.02360502
0.01070251
-0.04290487
-0.04704384
-0.01396258
-0.003290648
-0.006651131
-0.05533789
-0.04119693
-0.002203754
0.01788341
0.04236431
0.04792716
-0.002385496
-0.0310884
-0.03220629
0.0265558
0.007699793
0.04128958
0.009060776
0.04996766
-0.01029062
0.06107249
0.01957628
0.04801799
-0.004435606
0.002569068
-0.01016711
0.03345603
0.02789768
-0.04751456
-0.04398322
0.06751253
0.01492292
-0.04511189
-0.02340305
0.04696158
0.01662459
-0.04215425
0.04201831
0.03595017
-0.01141718
-0.04727293
0.04493819
0.06475149
-0.06335551
-0.01418731
0.008117677
0.009551305
0.01311167
0.03897591
0.01839148
-0.004487744
0.02370588
0.03563039
0.05462222
0.01756665
0.005455472
-0.02712521
0.05840965
0.06207691
-0.06442064
-0.0208573
-0.001157988
-0.02262582
-0.006069992
0.0427884
-0.03493239
-0.02521023
0.06025127
-0.01123125
-0.0580054
-0.01808259
0.06720789
0.04104723
-0.006551781
-0.03095431
-0.05180233
0.02276141
0.04343687
-0.05818491
0.06238801
0.04821821
-0.04759226
0.05685839
0.002030575
0.02844114
-0.02412996
0.04722916
-0.03179749
0.02696692
-0.02643051
-0.02418683
-0.03262727
0.04787802
0.03243419
-0.0584965
0.02182168
-0.0003726144
0.00288486
-0.03820729
-0.04719155
-0.03460872
0.01723665
-0.04359371
0.02904469
-0.03146255
-0.003759011
0.05059527
-0.02575445
0.01763991
0.001432356
0.05063068
-0.002625455
0.04865794
0.06762552
-0.04470223
-0.04120166
0.00992024
0.04328023
0.03342549
-0.001018257
-0.01422492
-0.06134936
-0.03465227
-0.05273736
0.03411805
-0.05339193
-0.04860676
-0.05932358
-0.0159919
0.01516063
0.01650691
-0.04806007
0.01370753
0.05694325
0.02906011
-0.03695507
0.06393807
-0.04012292
-0.03444349
-0.03573647
-0.006788613
0.005046987
0.01849922
-0.04240206
-0.009124569
0.04637525
-0.01334859
0.04818913
0.009199795
0.05064178
-0.05603518
0.02428377
0.037396
0.03074759
0.03496999
-0.04119598
-0.0160477
-0.05879297
0.06286327
-0.04600724
-0.02308888
0.04198223
0.05817407
-0.06545734
0.05286207
0.03075413
0.05160363
0.05965131
-0.02937122
0.06018946
-0.03720311
-0.01789346
0.009787105
0.001225333
-0.06216627
0.04866472
-0.01191196
-0.06018683
0.02432383
0.05567942
0.02789328
-0.02885927
-0.0005867537
0.001302935
0.003259186
0.06015975
-0.01751944
0.05089656
-0.04596336
0.002319463
0.04702925
0.05479442
-0.03504956
-0.05637288
0.05528903
0.01916578
0.01480954
0.01601993
-0.02732751
0.02805793
0.06270824
-0.005063283
0.009623723
0.01694695
0.01990827
0.0297949
-0.05343995
-0.03176596
0.02497724
0.0542419
0.0386526
-0.02379749
-0.01518018
-0.06075278
-0.005963898
-0.06216623
-0.02536764
-0.01106549
-0.0007798974
0.06063894
-0.01966305
-0.06722955
0.03767805
0.03624595
-0.05477642
-0.0240609
-0.05078052
-0.001776639
0.01387292
-0.01339542
-0.03408144
0.04000473
0.0350773
0.06420253
0.06090781
-0.03498006
0.02945364
0.05040291
0.04933129
0.04140091
0.04566308
-0.05369011
-0.0420173
-0.03226864
0.03160349
0.002890124
0.002037978
-0.0422334
0.01752764
0.04951864
-0.0234032
-0.0420616
-0.0511368
-0.02002982
-0.02021565
0.06200117
0.02519529
0.0413144
0.003786748
-0.02396744
0.0126388
0.01627331
0.02229774
-0.02956396
0.02038672
0.06658449
0.009061837
-0.01144609
-0.05372396
-0.03892046
-0.02368325
-0.007833932
0.007539852
0.02575582
-0.05296077
-0.03390957
0.04272437
0.002010061
-0.06329416
0.01027008
0.04183774
0.05938951
0.04863234
0.0322909
-0.05792885
-0.05995647
0.02320491
-0.01282951
0.01648155
0.06684326
0.007761273
0.05607586
-0.02132046
0.005362109
-0.03917452
-0.03854685
-0.008051219
0.05548329
0.01528127
0.03295562
0.06176491
-0.05445255
-0.05644606
-0.01148852
0.005265269
0.05236735
0.01833517
-0.008955992
-0.03500567
-0.0542427
-0.04865982
-0.04475139
0.03667194
0.06145329
0.002131436
0.02118592
0.03557759
0.05794346
-0.03957174
0.01240656
-0.02455704
-0.04604528
0.04000898
-0.05263061
0.02125489
-0.01182248
-0.0544501
-0.06575888
-0.003006285
0.0535227
0.04207827
0.05517771
0.05466542
-0.02831316
0.0164418
0.02835367
0.04789895
-0.007815766
-0.04091099
-0.04235958
-0.01035502
-0.03577572
-0.04576046
0.002787628
0.04756647
-0.01542396
-0.04853271
-0.01483712
-0.06470595
0.007576186
-0.006187816
0.001941946
0.0271184
-0.06506192
-0.01042396
0.03987357
-0.02652491
0.06412116
0.03519322
-0.05084887
0.03888083
0.01615743
0.06198692
-0.02059175
-0.02838435
-0.03590091
-0.03148019
-0.002951522
-0.02292513
0.04171439
0.04122359
-0.02454326
0.03091782
-0.06514878
-0.04517504
-0.05671794
0.0676518
-0.03071527
-0.03226045
-0.03125778
-0.0312264
0.02832365
0.06688369
0.05735415
-0.008226108
-0.0278003
-0.03987731
0.05179071
0.05004742
0.04450485
-0.01305804
0.05171441
0.02492764
-0.05799874
-0.01330379
0.04142417
-0.02982601
0.04276792
-0.03676465
0.01553076
-0.05188039
0.02235544
-0.05984861
-0.03848371
0.03428921
-0.04958117
0.03896075
0.02433055
0.04804974
-0.02164264
0.04015839
-0.06374627
0.02844499
-0.001485625
0.04831415
-0.05737944
0.01721036
-0.06330386
0.05557098
0.06735257
-0.06396022
-0.01533428
0.01493768
0.0005066408
-0.0131642
0.05744581
0.01846572
0.02097994
0.01609163
-0.01866259
0.04104469
-0.04305274
-0.06188725
0.02014541
-0.04731401
0.01435479
0.02023564
0.03743078
-0.04487169
-0.02658156
0.001175579
0.003728758
-0.06419566
0.003753436
-0.06359016
-0.01724839
-0.04466721
-0.04152336
-0.03837626
-0.02386097
-0.0437228
-0.03445878
0.05513356
-0.03618059
0.01155436
0.03139051
-0.06051886
0.007581368
0.04261711
0.04478003
-0.0001102703
-0.04995581
-0.0596977
-0.001224285
0.005249296
0.01527451
0.0660776
-0.05963704
-0.02210824
-0.03397726
-0.009678455
0.0477162
0.04950445
0.01421591
-0.00175963
0.0002476434
-0.01907524
-0.05675238
-0.003839819
-0.06385243
0.0341764
-0.007947544
-0.008580422
-0.02798402
-0.04287641
0.007566845
-0.03024968
0.04222997
-0.05934557
-0.01076789
0.006937027
-0.05528235
0.06275029
-0.02171509
0.04146533
-0.01680523
-0.004510165
0.004965254
0.06644076
-0.01092805
-0.01538937
-0.05296679
0.0485215
0.06353762
0.05375411
-0.02350238
-0.0160266
-0.02701898
0.03351566
-0.05662991
-0.01747087
0.06417014
-0.05651543
0.03853292
-0.05733299
-0.06009935
0.02656123
0.03622295
-0.0262845
0.06561907
-0.02241243
-0.04408899
0.06764515
0.05659627
0.02702233
-0.02233272
0.05290253
0.003282922
0.0406872
-0.05289102
-0.06317881
0.04389612
-0.05525652
-0.06084839
0.01947357
0.01920657
0.01146757
-0.004181421
-0.01380151
0.0485626
-0.04434317
0.06470592
-0.05922231
0.06522097
-0.06123364
0.01070351
-0.06670354
-0.04371924
-0.03231873
0.03362806
0.02457016
0.02720351
-0.03668687
-0.06711493
-0.05645224
-0.039237
-0.05267531
0.05986185
-0.03142133
0.008150212
-0.008468288
0.04862709
0.0002304421
0.01847006
-0.06138772
0.006569627
0.05149004
-0.06360367
-0.04887727
-0.008602936
-0.003630301
-0.03719397
-0.01791216
-0.006910471
0.04202562
-0.01918174
-0.0528033
-0.06551244
0.04989329
-0.0516178
-0.02356581
0.02868515
-0.03233498
-0.06087748
-0.009524558
-0.0224457
0.01264637
-0.05607821
0.06354047
-0.00922605
0.00394526
0.01954234
-0.04069671
0.0459849
-0.01090574
-0.02503365
-0.003461141
-0.009755743
0.05867206
0.0001333533
0.02715009
0.06483675
-0.06277859
0.04422083
-0.03067826
-0.006172494
-0.02282095
0.03816022
-0.04120393
0.03066612
-0.05437032
-0.05509949
-0.05796806
-0.04774016
-0.0362206
0.03078319
0.01302545
-0.006828698
-0.03994201
0.0289946
0.06185988
0.03963162
-0.05920751
0.0282854
0.05538842
0.04476398
-0.06443388
0.004039561
-0.06394135
-0.0008773525
0.05221603
0.02488906
-0.05624789
-0.01817668
-0.01083126
-0.02046593
0.02352712
-0.008619186
0.0377374
0.06458456
-0.06756137
0.04242277
0.05306235
-0.03506228
-0.02279235
-0.008891869
0.009573784
-0.06089317
0.01426888
0.0262477
0.02987753
-0.06456906
-0.03775036
-0.03825916
0.006210098
0.05545509
0.05610764
-0.02312737
0.05676903
-0.007505615
-0.009675235
0.04107611
0.03416495
0.02761004
0.04638672
-0.01132276
-0.06678823
0.02814524
0.03102772
0.05218195
-0.06068055
-0.04629198
0.02337052
-0.03658994
0.02861936
-0.04849952
0.0545059
0.04379138
-0.01685887
-0.003656326
-0.03274643
0.06439591
0.0577073
-0.02225243
0.03718174
0.04884847
-0.005297206
0.0499479
0.04354984
0.001650271
-0.008636951
-0.02128213
0.002548406
-0.02269361
0.006323172
-0.04070086
-0.0596788
-0.04248431
-0.01351237
0.05646703
-0.01004026
0.04936516
-0.02398427
0.03002355
0.01899163
0.008232892
-0.02000297
0.06677621
0.001058101
-0.01322701
-0.06698743
-0.05562037
0.06166812
-0.007511267
-0.04269581
-0.006134524
0.05130543
-0.01151924
0.05836492
0.06547487
0.06191107
-0.0487995
0.05253202
-0.03855916
-0.00711772
0.0285382
0.01909623
-0.02187249
0.02502351
0.0013836
-0.05675733
0.02905358
-0.01063287
-0.00538928
-0.06155268
-0.01417497
0.02044356
-0.04025287
0.02669256
-0.03898777
0.0009148159
-0.004136795
-0.01904682
-0.01115977
0.0007010801
-0.0209532
-0.01501364
-0.05787695
-0.04793442
-0.05547892
-0.02406967
0.01977705
-0.0329126
-0.01105062
0.06249258
-0.02917738
0.06476976
-0.05336173
-0.03079535
0.05839005
0.05707328
-0.0660671
-0.02618392
0.06761112
-0.0244063
-0.02810439
0.02294912
-0.0008792169
-0.0138952
0.03941578
0.04135853
0.02362167
0.02972483
0.02941607
-0.00337657
-0.001888758
0.03818394
-0.004244824
0.02867638
-0.05410114
-0.02438478
0.009036558
-0.04187469
0.01256581
-0.04248335
-0.008597761
-0.005970431
-0.06751888
5.476024E-05
0.03556132
-0.01100811
0.005868672
0.05847911
0.03623913
-0.02812443
-0.000954706
-0.0458895
-0.01872132
-0.0546901
-0.03913115
0.0240343
0.0538022
0.02395488
-0.01941358
-0.02890084
0.02024528
0.05798885
0.005607947
0.06026258
-0.003555283
0.0005753004
0.001077963
-0.01410148
-0.04463084
0.01483821
-0.0198999
0.04374421
0.0291869
0.04215785
0.05212809
0.04580266
0.02253138
0.06700265
0.0184801
-0.01751273
-0.03244676
0.03307919
0.06142232
-0.01039612
0.06551476
-0.02393588
-0.01103136
-0.01749135
-0.0001290986
-0.01019881
-0.01025036
0.0530183
0.04547551
-0.02646998
0.005207994
0.001350013
0.05635824
-0.05984483
-0.06432658
-0.0329506
0.05585055
-0.04796647
0.03517332
-0.0465357
0.05971208
0.0232377
-0.007139775
0.007057446
-0.03888156
-0.01699719
-0.0664337
0.05473618
-0.06246185
0.06603577
-0.0643907
0.05510271
0.06450316
-0.05193255
0.06268444
-0.04755602
-0.05632997
-0.04936731
0.05396424
0.03350459
-0.04284805
-0.004981576
0.06620532
-0.01227975
-0.03098676
-0.01715855
0.05738104
0.01443958
0.0633926
-0.01650592
-0.005426661
-0.05241692
0.06584249
0.0400214
-0.002171579
-0.02565957
0.05114052
0.04984782
-0.04654641
-0.05106853
-0.01170173
0.00295008
0.04754353
0.04737636
-0.0300159
0.01804191
0.004783483
0.04035418
-0.05459265
0.05116607
-0.04455726
0.03728124
-0.03399408
-0.06626789
0.06424896
-0.003242964
0.024969
-0.06279665
-0.02989241
0.04621361
-0.006441603
-0.01293666
0.0592802
0.0219807
0.003525811
0.05596284
0.05719684
-0.04345487
0.01817564
0.02040738
-0.03075992
-0.03824116
0.06511572
0.03709615
-0.02273029
0.02213849
0.01541152
-0.04910766
-0.05020047
0.01890795
0.04599459
-0.05090976
0.001095606
-0.05571009
-0.03988528
0.02522872
0.04951379
0.06417376
0.04370905
-0.06686524
0.01730805
0.04600054
0.01180361
-0.0248234
0.02330969
-0.0667017
0.0116065
-0.04237379
-0.02408607
-0.01804212
0.02878168
-0.01969827
-0.04575809
-0.00706341
0.01398937
0.06162052
0.04010214
-0.00315361
0.02439902
-0.02582615
0.04928214
0.006140048
0.05534044
0.01913626
-0.0677176
-0.02346846
0.05390435
0.04705366
-0.006070645
0.04623371
-0.06148757
0.06095971
-0.0192273
0.01710426
-0.06483728
-0.008823844
0.01789185
0.02200249
-0.05415016
-0.02396522
-0.05740463
-0.01015131
0.04291502
0.03577827
0.05806289
-0.002243759
0.06278495
-0.05977761
-0.001762833
-0.03356918
0.0530632
-0.01526922
-0.02816189
0.001598583
-0.04821075
-0.05676862
0.05859673
0.06060397
-0.02504241
-0.02115847
-0.05266943
0.03248946
0.03163347
-0.002383159
-0.02449117
0.0357586
0.06746565
0.005074273
-0.01016274
-0.04512341
-0.02420795
-0.04983697
-0.01694007
-0.01957238
-0.03635814
-0.008503176
0.03116164
-0.04837446
0.02900999
0.002462776
-0.01831679
0.04574534
-0.01912012
-0.04043809
0.06110713
0.02171827
0.02118498
0.04711074
-0.002621609
0.05986796
0.0005160506
0.0252245
-0.02089172
0.03494493
-0.03923242
-0.02195747
0.02615184
-0.02263844
-0.007667175
-0.04563233
-0.001772786
-0.01022594
0.01832176
-0.02457604
0.05857539
0.03496355
-0.06626578
0.05934711
-0.02997989
0.02822904
-0.01999364
0.03903456
-0.03634264
0.04043143
0.06509495
-0.03047815
-0.01632704
0.004134937
0.00444633
0.02172717
-0.053363
-0.04758171
-0.06024074
-0.002094078
0.02229716
0.01850417
0.03899137
0.01605163
-0.04827658
0.05353595
0.03328161
-0.01413654
0.02722934
0.006705696
-0.06370106
0.05984577
-0.04051304
-0.0624807
-0.03107686
-0.04179304
0.02004743
0.02977449
0.009154011
0.03708597
0.01192497
0.02941811
-0.006369479
0.006613471
0.0377866
0.05918235
0.0623062
-0.04591972
0.04085185
0.03854227
-0.06020595
-0.0221277
-0.01792183
-0.04752078
0.02106342
-0.0278654
0.06390881
-0.01438078
0.03968707
-0.01557922
0.06288406
0.06207952
-0.0561314
0.02488828
0.03619587
-0.06268744
-0.05790172
-0.02178296
-0.03272483
-0.02169725
-0.06625687
-0.01520086
0.0112009
-0.02939009
0.05391757
0.06081567
-0.04306297
-0.03555873
0.04620165
-0.03952231
0.05916637
0.0112647
0.01294823
0.05662369
-0.001024979
0.02636326
0.009830977
-0.06092888
-0.0156075
0.06472517
-0.03776523
-0.03350841
0.05802403
-0.04320339
0.04213853
0.01778208
0.01761289
0.03667886
0.03835422
0.03253742
0.04914745
0.01615253
0.05474173
-0.005387519
0.03686253
0.02293154
0.03460803
-0.05646836
-0.03350173
0.02818437
-0.05273905
0.03153092
0.007354185
0.01127276
-0.006808966
-0.01631726
-0.01880533
-0.04481847
-0.04202336
-0.05810401
-0.0045818
-0.06490947
0.06176116
-0.02951337
-0.05186864
0.03518815
-0.005288277
-0.01353233
-0.003591994
-0.03180113
-0.02473384
-0.01180521
-0.005976328
-0.05427239
-0.02073314
-0.02492278
0.02445959
-0.04960087
-0.04817545
0.0439801
0.05969185
-0.001637285
0.04050947
0.02414475
0.04952759
-0.001359526
0.02707403
-0.02118535
0.03154219
-0.009480829
-0.03134922
-0.005505261
0.01076559
0.02852161
-0.0308174
0.04612029
0.02232799
0.01631848
-0.0214555
-0.06626225
-0.03971681
-0.01979627
0.01506026
0.06623602
-0.01501841
0.02700278
-0.03042938
-0.006310048
-0.03593072
-0.04982281
0.02715977
-0.03714108
-0.06457964
-0.01806684
-0.04985924
0.06499211
-0.03748231
-0.03032021
-0.01110435
0.01742751
-0.0598225
-0.05203955
0.0228621
-0.06204779
0.06748471
0.04870804
0.04536582
0.03343869
0.04448164
0.001083189
0.02068585
-0.05979551
0.03979125
-0.04984983
0.01576029
0.0115515
0.05123908
0.04221007
-0.02877345
-0.04541181
-0.03886677
-0.03455254
-0.05319125
0.01342838
0.03129603
-0.06214476
-0.008862247
-0.03910419
0.01044423
-0.02787289
0.01566598
-0.01528841
-0.04051379
0.02905361
0.06149687
-0.05561388
0.02527826
0.009171419
0.06668793
0.004210165
0.04957359
0.004068559
0.01714494
0.03092271
-0.002572033
0.01901866
-0.008995704
0.05320681
0.0341095
0.006525886
-0.0541836
-0.01175576
0.06638986
-0.03362916
-0.01164234
0.04266667
-0.06678493
-0.05850291
-0.02540719
0.06169285
-0.01036633
0.01653339
-0.04494216
0.004417901
0.05335383
-0.03196236
0.0486549
-0.05719898
-0.04341007
0.003437541
0.05420986
-0.02586896
0.04345877
0.034953
-0.02704877
0.02500129
0.01623914
-0.01617734
-0.05193621
-0.05565925
0.01478756
0.005867562
-0.005277064
-0.06401828
-0.04162591
-0.04051488
-0.01374165
0.06105198
-0.02724067
-0.04910643
-0.05676557
0.01584454
-0.03335801
-0.06294154
-0.05336012
-0.03489642
-0.0189259
-0.05520958
0.04550551
-0.03854629
0.03830038
-0.01973334
0.02868026
-0.03726467
0.02025265
0.03962198
0.01272209
-0.03649976
0.06135624
0.03129299
-0.04150909
0.01732903
0.06136993
-0.03768456
-0.02103133
0.05170273
-0.04612617
-0.04886051
-0.02189281
0.02593208
0.04971592
0.05553954
0.0379783
-0.06224027
-0.007733508
-0.02957131
-0.06044757
0.03846369
0.02037651
-0.06008897
-0.02400943
0.003512101
0.00625378
0.05454671
-0.02602301
-0.03341572
0.04512392
-0.03594902
-0.01633431
-0.01331127
0.01469965
-0.04517851
0.06763237
0.009402971
0.06033928
-0.006157985
0.02241124
-0.06361008
0.02602641
-0.03712623
-0.05670688
-0.03800202
0.03461985
-0.0483632
-0.02032559
0.05069746
0.01022497
0.02298391
0.03840546
-0.01811267
0.03213293
0.04219503
0.01106035
0.05350859
-0.01263421
0.02291543
-0.05686137
-0.0611134
0.05627507
-0.05555224
-0.06135781
0.05775947
0.03541043
0.05935508
-0.05670419
0.02695781
0.05584379
-0.03936129
-0.05464293
0.0663611
0.01595408
-0.06477411
-0.05549935
-0.01043389
0.06455453
-0.05394403
0.03682888
-0.01331964
0.006935677
-0.008783851
0.02429593
-0.04579661
-0.006417861
-0.06615826
0.02249242
0.04044124
0.01169776
-0.05381284
-0.04589944
-0.03051277
-0.01723324
0.01558802
-0.05194853
0.01364203
-0.04370504
-0.04652972
-0.005475823
0.04320138
-0.05959564
0.02065322
0.06279029
-0.01835036
0.009690215
0.03998099
0.03386988
0.02897042
0.02975775
-0.04644239
0.05689069
-0.0266268
0.05402318
0.02439489
-0.0001124589
-0.002877697
-0.01191155
0.05237542
-0.003759291
0.03363207
-0.03107396
-0.02920881
-0.05267657
0.04172001
-0.06139847
0.04380647
0.01565772
-0.06757057
0.05511104
-0.001204751
-0.03466547
0.04314762
0.01946841
0.06156411
-0.02166062
0.05421907
-0.003637521
-0.02529033
0.0124498
0.02153777
-0.03209152
0.06145862
-0.05725313
-0.00979648
-0.0427669
0.04866398
-0.01659933
0.02630849
-0.05223614
0.01886579
-0.04238304
-0.02814384
0.02516619
0.02882873
0.006338717
0.03754979
0.005393175
-0.04686634
-0.02488851
0.03382037
-0.04361335
0.03350382
0.04179601
-0.03697412
0.0561597
-0.05419356
0.02184141
0.06039568
-0.02188111
0.01360509
-0.0671768
-0.05455784
-0.028011
0.04263956
-0.002213024
-0.02459595
-0.0398923
0.02505653
0.01655029
-0.04212582
-0.007530823
0.05728585
0.0526022
-0.03169137
-0.02675833
0.06141499
-0.04995519
0.05857631
-0.01271122
0.008726208
-0.01911072
-0.0247078
0.0675348
0.04656605
-0.002785498
0.002341274
-0.04827401
0.04765762
0.001980437
-0.05650996
-0.04111406
-0.009058394
-0.01974702
0.00209539
0.01810597
-0.05576183
0.06780379
0.05046326
-0.03689487
-0.03700195
0.009505475
0.04827327
0.004519988
-0.05069931
-0.02658543
-0.03296258
0.04883824
0.005550758
0.05772083
0.06268134
0.06369825
0.03120172
0.005170286
0.0373293
-0.03522081
0.02546763
-0.05415602
-0.006640426
-0.02251157
0.06338233
-0.04425857
-0.0196133
-0.04486053
0.005123636
0.06692486
-0.06640905
0.009096251
-0.01742981
0.01813928
-0.03893313
0.06154783
-0.03248182
0.02753456
-0.0436459
0.06715736
0.0005526323
0.03870883
0.05029749
0.005214858
-0.03775954
0.02143965
0.01411186
0.05787341
0.007235721
-0.05227159
-0.004379161
0.05370794
0.01086029
-0.03062042
0.06057496
0.06633082
0.006507589
0.005038199
-0.03234058
-0.06068
-0.03881785
0.02519718
0.06733298
-0.04968755
-0.028113
0.02587779
-0.00166857
0.0553481
0.02871734
-0.06680311
0.02824344
-0.06426945
-0.01912044
0.03810857
0.03216318
0.05469542
-0.0365169
0.05608134
-0.05268864
-0.02599395
0.009566197
-0.009550084
0.01584037
-0.0105414
0.003367397
-0.05218037
0.06617258
-0.05474601
0.02550095
-0.03732733
-0.01289639
0.0304166
-0.008061487
-0.05090251
0.03803858
0.04329208
0.03931248
0.03204842
-0.03460876
0.004299284
-0.0448284
0.02670038
-0.03878056
0.006102209
-0.01257841
-0.008046325
0.004891762
0.04068834
0.005153026
-0.06205708
0.0349111
0.01836287
-0.01020978
0.06159
-0.002309578
0.03866886
-0.05857982
0.009937749
0.01488168
-0.04386925
0.02764183
-0.01485918
-0.03808947
-0.001891956
0.0140299
0.06576347
0.01172865
-0.03615455
-0.06786663
0.05680772
-0.05255368
-0.0006286989
0.02275348
0.01094869
-0.04910218
0.05080244
-0.03870615
-0.05819846
-0.0658996
-0.0565229
0.01086449
-0.04245238
0.008037584
0.0196214
-0.004301801
0.03667736
-0.02731024
-0.001714864
0.01934369
0.06730635
0.03393527
-0.03856189
-0.05076987
-0.05867613
0.04459407
0.0379674
-0.003146772
0.03104802
0.06000894
-0.01040526
0.04816164
-0.02689031
0.04061835
0.01628193
0.05843322
-0.03239683
0.06354602
0.04677815
0.04275555
0.01482461
0.00943839
0.06755526
0.007900732
0.003467952
0.01320288
0.002157595
0.04503986
0.01022575
-0.06552678
0.04528916
0.02513708
-0.05449311
0.01243839
-0.06723636
-0.04506417
0.05394483
-0.01779545
0.01349299
0.03429125
-0.01913296
-0.01398741
-0.001817555
-0.05027077
0.01244227
-0.03674792
-0.03018182
-0.01513411
0.05969228
0.02912481
-0.0398416
0.04106797
-0.006151766
0.02346621
-0.06341754
-0.01006867
0.03431663
0.021474
0.0136988
-0.003942398
-0.02550015
0.06086417
0.0545641
0.02863818
-0.05321684
0.03239429
0.03471813
0.02860793
0.03991808
-0.006590521
-0.06344824
0.05333524
-0.0178836
-0.05544972
-0.006048112
-0.0391246
-0.05668068
0.04988942
0.06339508
-0.02772075
-0.02455192
-0.05064492
0.0532842
0.04903756
0.04225144
-0.06371544
-0.03664777
-0.01002269
0.007919304
0.01076894
-0.01144418
-0.03546578
0.03644238
-0.05050123
-0.00814523
-0.0120605
-0.0006148924
0.03748089
-0.06499055
0.04798461
-0.003529428
0.009146873
0.01288443
-0.001653821
0.02463642
-0.02524022
-0.008985051
-0.01863867
-0.03842231
0.04364369
-0.02132461
0.05236384
0.02601554
-0.02651708
-0.0473271
-0.04279185
-0.06035666
-0.06241008
0.05432336
-0.05743803
0.001105438
-0.0231958
-0.047248
-0.03878748
-0.06308296
0.03995417
-0.05104376
-0.03531899
0.02063213
-0.06192423
0.02942691
-0.02622494
0.04694334
-0.05252615
0.0437453
0.03423784
0.004407275
-0.0129986
-0.04353547
-0.0004449656
0.01320624
0.04992752
-0.03953701
0.03221224
-0.03584307
0.004128601
0.006455299
-0.004977169
0.0647625
-0.03329
-0.01964047
-0.006141431
0.05109415
0.0603841
-0.02105745
-0.04827025
-0.01154175
-0.01626471
-0.006507483
0.05261886
-0.04213308
-0.04160268
0.02866582
-0.0444347
-0.05371984
-0.06303629
-0.06251613
0.01060507
-0.002325757
-0.01362832
0.0207375
0.02057857
0.04906201
-0.0131683
-0.002707641
0.01911454
-0.05159542
-0.01152362
0.06499222
0.0007250599
-0.03443775
0.02187004
-0.03214487
-0.01401449
0.02565286
-0.03236828
-0.009382473
0.05449587
0.03646792
0.02407893
-0.02215704
-0.04726463
0.0614455
-0.02821772
-0.02624851
-0.01312771
-0.04667492
-0.06303893
0.01799546
-0.04074341
-0.001291892
0.06378686
0.06528521
0.01045419
0.01390913
0.02771759
0.01273318
-0.003674174
-0.004844883
0.02776463
-0.06461145
0.06791849
-0.01332031
0.06070408
0.01911999
0.003933505
0.05847881
-0.02525631
-0.002150932
0.04658506
0.01428281
-0.04907538
0.04207376
0.04153194
-0.0594079
6.550529E-05
0.02706968
0.009343113
-0.05485641
-0.05751656
-0.002147155
-0.05649311
0.03841754
0.03779901
-0.06591967
-0.03028798
0.02452145
0.02533756
0.040013
0.06587189
0.02283516
0.06222832
-0.00859587
-0.05923333
0.02075376
-0.02213891
0.0339923
-0.06719519
0.02059891
0.03775461
-0.003669895
0.04651801
0.007048621
0.03934702
0.01291041
-0.02015314
-0.04622353
-0.04418335
0.001925471
-0.054093
-0.06728871
-0.06454656
-0.01675438
-0.01526495
-0.03802484
0.05981828
-0.03843568
0.0168173
0.05868713
-0.01852865
0.04734868
-0.03479537
0.002667303
-8.620184E-05
-0.04418673
0.01999111
0.02745712
0.03337047
-0.04715844
0.03066763
0.03400983
0.02632826
0.05668082
-0.0246744
0.01408996
0.01927146
0.004394894
0.06700714
-0.04304802
0.02217009
-0.05200107
0.0007681754
-0.04452453
0.02616938
0.06522398
0.0194451
0.01104608
-0.06126754
0.04672813
0.0288721
-0.05163986
-0.05076162
-0.0579457
-0.02880906
0.05834255
-0.03681115
-0.02408591
-0.0608018
0.01559713
0.06085593
0.02032637
-0.01165738
-0.06496153
0.03919446
-0.0201662
-0.02568035
-0.05329076
-0.0600166
0.03858171
0.01064033
-0.01251324
-0.03750619
-0.008071298
-0.03141958
-0.0344642
-0.02135612
-0.05820746
0.04443454
0.002626436
0.004304796
-0.0589916
0.02078804
0.05457896
-0.008093919
0.01437087
0.01683482
0.01633734
0.01755327
-0.01508033
-0.01703551
-0.02457925
-0.002739928
-0.01652661
-0.03596732
-0.0660929
0.02759293
-0.002206914
-0.01578237
-0.02160104
0.02296771
0.004799239
0.003126067
-0.03191263
-0.03184881
-0.02655128
0.05380296
0.0252463
0.04141051
-0.06228148
0.01176205
-0.04654031
-0.0005838352
0.004508386
-0.05664429
0.0519109
0.06747495
0.001700287
0.01106901
-0.04311303
0.0309356
0.02591894
-0.002907404
0.02300035
-0.01231939
-0.03271704
0.05816331
0.04695704
-0.04004059
-0.03326331
0.005879491
0.04878742
0.02551154
-0.00190104
0.04759535
0.06744218
0.005818953
-0.01523595
0.01849115
-0.04947926
0.02850453
0.05952514
0.04286345
0.01189813
0.04109424
-0.03843183
0.0439412
0.06068831
-0.02781894
-0.01994161
-0.06563123
-0.04204398
0.0546607
-0.04060597
0.01539998
0.06498539
-0.06022998
0.04806234
0.04834338
-0.06706839
-0.01677797
-0.06109071
-0.002649728
0.006737191
-0.000224352
0.03091125
-0.004115225
-0.06661942
0.02484966
-0.05614984
-0.02184467
0.01477428
0.05114576
-0.007388356
-0.003680937
0.03934707
0.05099211
0.05313109
0.04984273
-0.04182419
-0.008721625
0.06541163
0.006839364
0.04783763
-0.0355687
-0.02001315
0.06206334
-0.001819115
0.0506356
0.05054658
0.05973554
0.02569324
0.00435729
0.01762292
0.03523534
0.02165862
-0.00576175
-0.03181036
-0.05581414
-0.05775363
0.03362002
0.042624
-0.03209797
-0.03960572
-0.06603356
-0.01246888
-0.02525312
-0.005887567
0.03101159
0.04398953
-0.05394334
-0.04542445
0.06615623
0.02223095
0.009589855
-0.01425298
6.551608E-06
0.01744926
-0.02563073
-0.04814782
0.03678453
0.06564051
-0.04931839
0.0422397
-0.04794876
0.02039872
-0.05751963
-0.03441378
0.02531293
0.04259707
-0.02282779
0.01486585
0.04100861
0.03965974
-0.007507588
0.016591
0.02957298
-0.02149154
0.04593457
0.0448368
-0.06269666
1.428603E-05
0.03510592
-0.06129055
0.03655329
0.03722336
0.02747363
0.05006296
-0.05990356
-0.01844831
-0.04628456
0.04472561
0.06175699
0.0602703
-0.02660154
0.03591613
0.02400577
-0.006401055
-0.05959358
-0.01849565
-0.02288587
-0.05877596
0.03673613
0.05635114
-0.001119298
-0.0008725612
-0.01849644
-0.04144013
-0.03819808
0.06093548
0.02411067
-0.04643853
0.03945131
-0.002530909
-0.05338779
-0.03116638
-0.03740203
-0.05596446
-0.06225021
-0.0172355
0.06086171
-0.03964597
-0.04244684
-0.02417538
0.020945
0.0003832137
0.02104548
0.04867493
-0.001675342
0.0245129
0.06052185
-0.03196259
-0.02983457
-0.003506396
-0.0002139486
0.06401593
0.03121478
0.0466914
0.007765365
-0.03051077
-0.01221683
0.0009771365
0.02032442
-0.05290242
0.02537765
-0.06778264
-0.06266232
-0.003648723
0.04572147
-0.06337178
0.005381535
0.01203361
-0.01208747
0.02557853
-0.01142074
-0.05117652
0.0516075
-0.007025111
-0.03253048
0.06643411
0.04601858
0.0007652523
0.02817183
0.005225634
-0.06752299
-0.01186337
0.05133266
-0.02497892
0.06561966
-0.0494671
0.005555464
-0.0161568
0.004206798
0.03619718
0.06291795
-0.008052048
0.007966225
-0.05748105
0.01838359
0.02079103
-0.004891092
-0.04324242
-0.06498316
-0.006240177
-0.04880525
-0.01944838
0.0480615
0.01252352
-0.06002228
-0.01697405
-0.05552819
-0.02969673
0.01128526
0.009267876
-0.008592729
0.05495454
0.04074192
-0.05283783
-0.05331605
-0.03069561
-0.05117868
0.03025323
-0.001331762
0.02725194
-0.0009906279
-0.04639829
-0.06010981
0.01965198
0.0305972
0.06456793
0.008793878
0.04115193
0.04252792
0.01461511
0.003388581
0.02132438
-0.002188213
-0.03352461
-0.01390573
0.01986201
0.008011756
-0.02912748
-0.03289326
0.01465709
-0.06187553
-0.03268443
0.04049456
0.06287555
-0.02314672
-0.05997322
0.01914265
-0.007132564
0.06377162
-0.01885742
0.004033086
0.0327923
0.02602596
-0.02429848
0.06268707
0.06552965
-0.02727519
-0.0395271
0.04986294
-0.05665359
0.04216869
-0.0287435
-0.004288025
0.06460676
-0.06205733
0.03801951
-0.01079386
0.006329916
0.02900452
-0.005241434
0.02922926
0.04588542
-0.004790133
0.05194777
0.02119084
-0.03624282
-0.01895623
-0.05504873
-0.02513793
0.0226338
-0.02251134
-0.05201018
0.04531693
-0.006551284
-0.05735459
0.0385329
0.06323504
-0.04582636
-0.02827506
-0.01149877
-0.02079942
-0.02039777
-0.01105379
-0.0441763
0.04042502
0.0348046
0.03954022
0.04382442
0.05699625
0.006770398
0.01875727
-0.05512389
0.03179953
0.00107643
0.01984995
0.02608429
-0.03035419
0.04201481
0.0224473
0.03099327
0.01654927
-0.04016308
0.05354745
-0.04070748
0.03379438
0.02624225
-0.006123815
-0.06567337
0.05402473
-0.0326536
0.04272109
-0.03290413
-0.03333164
-0.02743333
-0.05237863
-0.0183096
-0.01099741
-0.02855045
-0.05641387
0.05432287
-0.007846417
0.005155967
-0.04410836
0.03602829
-0.06406009
-0.03532407
-0.01587309
-0.02369612
0.04153539
-0.01550226
0.0009504624
-0.0467164
-0.0003370332
0.008668288
0.03988859
-0.04857296
-0.006008599
-0.03828293
-0.01003406
-0.05375385
-0.02700821
0.03727696
0.05773631
0.02171323
0.03198593
-0.01627522
0.04614437
-0.008703759
-0.01448156
-0.02977708
-0.03085493
0.06613289
0.03049207
0.03606105
-0.02909693
-0.05654332
-0.06399134
-0.05041746
-0.04458401
0.001181826
-0.02582128
-0.05036432
-0.03927213
0.001590371
0.03433255
0.02150086
0.03536953
0.02593669
0.0006147034
0.06413095
0.05563562
-0.04065109
0.04942023
0.0652766
0.01339445
0.02281325
0.01535628
0.002115032
-0.06389426
0.02015175
-0.01353182
0.06076729
0.05872206
0.003375847
-0.05258396
0.002754194
-0.009271841
0.03153853
-0.0301714
0.02849529
-0.05251825
-0.02352776
-0.06163555
0.05672074
0.04000405
-0.04458051
0.00861247
-0.01179068
0.0553173
-0.05745155
0.01629188
-0.04772894
0.05861816
-0.01067589
-0.01747608
-0.05814045
-0.05122396
0.03315209
-0.04527002
0.01602644
-0.003962978
0.00183025
-0.05445983
0.003200864
-0.05322297
-0.01865195
-0.04114976
0.02528864
-0.0137623
-0.03635826
-0.03716392
-0.06410563
-0.01182853
0.04005603
0.04871258
0.01122676
-0.04695217
0.06063611
-0.04266407
-0.009961659
-0.05373585
-0.04078966
0.01473436
0.06149392
-0.06407675
-0.03373951
-0.06578749
0.001461332
-0.0470847
-0.06238012
-0.01395847
0.02551269
0.008871935
0.02173878
-0.03547835
0.01358812
-0.03700456
0.00310021
0.04200709
-0.009280623
0.06450588
0.05126045
-0.065965
0.02373894
0.04764898
0.01246088
0.03203622
-0.04937449
0.008548152
0.03923378
0.05674834
-0.04392345
0.007879541
0.03262826
0.001825669
-0.03110993
0.05503251
-0.04801712
-0.0006590092
0.04845316
-0.02080108
0.02532553
0.004436717
-0.0193188
0.04553683
0.005260015
-0.005040945
0.03436931
0.007597765
-0.03281217
-0.0197053
0.01788424
-0.0493076
0.03455317
-0.006530909
-0.03705968
-0.04276128
0.05893204
-0.05409169
-0.008601012
0.002160902
0.05152363
0.0608498
-0.01838186
-0.05119184
-0.03797165
-0.05030347
0.0441803
-0.04802351
0.0635682
0.02649223
-0.05692406
-0.0641774
0.06149055
-0.05641617
-0.02875628
-0.02111289
0.02129041
0.04613873
-0.02554765
-0.05043479
0.06560352
0.01096436
-0.0265763
-0.008997534
-0.02907253
-0.06255247
0.04126299
-0.02877745
-0.02905128
-0.05628527
0.06403709
-0.06186205
-0.05999462
-0.02164437
-0.004388081
0.03241235
-0.04511805
-0.03606358
0.01557186
-0.01237313
0.01871538
0.0144562
0.01196618
0.008632222
-0.03071787
0.01412502
-0.04286154
0.02303272
-0.04571125
0.05198984
0.003884928
-0.05514331
0.03939259
-0.02610284
0.004494002
-0.02737736
0.01948948
0.0585523
0.04581731
-0.0433558
-0.02362984
0.005021131
0.04896439
0.05191686
0.03039176
-0.06299863
0.06375384
0.0151983
0.01590854
0.006767993
-0.04393147
-0.01058263
-0.03736975
0.0547621
-0.001213547
-0.0167893
0.0669348
0.0327281
-0.04621629
0.02473907
0.04824569
-0.04970635
-0.05100282
-0.01310449
0.00776642
0.05124378
-0.03331802
0.03404484
0.04179825
-0.04494734
-0.05501375
-0.03573372
-0.01394427
-0.009008962
-0.05667991
-0.05424237
0.03342844
0.02798595
0.04617709
-0.03565586
0.01830781
0.009876785
-0.06081244
0.01545738
0.02798468
-0.05346907
0.05016306
0.05256711
0.04304733
-0.04665332
-0.02637553
0.05469801
0.03683197
-0.04685838
-0.02366487
-0.04186012
-0.01191267
-0.005867739
-0.02378619
0.0470846
0.03825601
-0.03822763
0.04133667
-0.00708074
-0.006154873
0.05973888
-0.06457498
0.03957583
0.04350539
-0.01490779
0.01771888
-0.02898777
0.05448763
0.05737619
-0.06150535
-0.02956771
-0.05683053
0.00147642
0.02684745
-0.006701135
-0.06685591
-0.0179485
0.05893414
0.02051494
0.04936481
-0.04177514
-0.004629069
-0.03502251
-0.05328071
0.05311683
0.02560691
-0.02864044
-0.01616449
0.06702911
-0.005975246
-0.01140119
0.03647674
0.01420492
-0.04632437
0.03618242
-0.05683071
-0.05734939
-0.05887491
-0.009981501
0.003564428
-0.06532438
-0.06772625
0.0473924
-0.05328964
-0.06203378
-0.05296621
0.05454753
0.03522144
0.05085157
0.04600389
-0.01173211
-0.02922515
-0.04711489
0.01149107
-0.03231636
-0.003568673
0.03838416
0.02491992
0.05832518
0.02742191
-0.0215773
0.05511333
0.05539515
-0.004585184
0.01783245
0.001892173
-0.003098832
-0.02013583
0.05860164
-0.01780705
0.05843011
-0.02701022
0.0009790189
-0.0509861
0.04675257
-0.04198551
0.01591516
-0.04966949
-0.05918355
0.03814641
0.038996
0.004074741
0.0009205668
-0.0469114
-0.06217976
-0.05011266
0.01565501
-0.06522277
0.05392861
-0.02818553
-0.02727825
-0.01433269
-0.04926347
0.03053321
-0.04279489
-0.05250109
-0.05518477
-0.01595904
-0.003185477
0.004010667
0.01806924
0.006746743
0.04455641
0.000721994
0.0555104
-0.05265852
0.03773246
-0.06406541
0.03267512
-0.05826746
0.04845279
0.02011703
0.01616685
-0.04775785
0.05636254
0.04228458
-0.01374386
0.03436992
-0.01034205
8.495354E-06
0.05417379
-0.005812682
-0.006127815
0.01885055
-0.05846542
0.004826171
-0.04568337
0.03838243
0.05974541
0.03131704
-0.05473736
-0.03606243
0.02145261
0.004742407
-0.04785945
-0.03568736
0.02745495
-0.06773805
-0.03448518
0.05841539
-0.0199085
0.0117838
-0.02996127
0.04425945
-0.008701697
0.02054135
0.03743709
0.06643101
0.0421073
-0.01714286
0.02917938
-0.02161808
0.06231963
0.06474265
0.0177735
-0.04405469
-0.05506206
-0.04223076
-0.008749208
-0.01725239
0.06096147
0.06728665
-0.0558742
-0.06657854
0.06440651
0.0165786
0.06660104
-0.05651218
-0.06783503
0.02411328
-0.05310699
-0.01394243
0.0009184824
-0.000820814
-0.04801963
-0.02554664
-0.04378803
0.01754936
-0.04038437
-0.01107014
0.03532571
-0.04417776
0.06421176
0.008951647
-0.06579897
0.03481734
-0.03044544
0.02464658
0.05490553
0.06413186
-0.04856192
0.001749083
0.008947781
0.05070383
0.06539053
-0.01925852
-0.0002786183
-0.03131936
0.04778956
0.04265633
0.02187693
0.02601265
0.06632941
-0.0499426
-0.03197249
-0.02481481
0.04540006
-0.004796176
0.04482565
-0.02461648
0.06766996
-0.0046748
0.06609024
-0.06561568
0.01535852
0.03720261
-0.06486174
0.003110771
0.06715705
-0.03834744
-0.02091259
-0.02598216
-0.04348109
-0.06403027
0.004738577
0.01308055
0.04504641
0.01815127
0.001725275
0.03917552
0.0426686
0.05546796
0.03769642
-0.01510408
0.03498955
-0.05862356
-0.04257055
0.04621774
-0.02701249
0.02695246
0.0573539
0.04228736
0.04775755
0.01158539
0.06439853
0.0240495
0.003595463
0.006626845
-0.03259131
-0.0397487
-0.02233341
0.06454723
-0.03053979
0.01820038
-0.004367707
-0.02007753
0.001557108
0.06242306
0.01325544
0.02288358
-0.0019246
-0.04068783
0.06141517
-0.06228648
0.0006515342
-0.05573462
0.0255654
0.0132577
-0.03266862
0.006045462
0.01183654
-0.04314286
-0.03781337
-0.02773204
-0.02776472
0.004736674
-0.005803086
0.01287015
-0.06049218
0.0486257
-0.05845153
-0.02951705
-0.01719404
-0.02646265
-0.006427694
0.046058
0.01807112
-0.04844057
0.05720025
-0.01286954
0.007755953
-0.03705699
-0.03497433
0.01804055
-0.03905956
0.03010511
0.04880881
0.04210741
-0.05700277
0.05219653
0.06642073
0.05827438
-0.02864116
0.02929985
0.01635139
-0.04712718
0.03442398
0.06512886
-0.02197153
0.05883224
0.05366217
0.05662358
0.05497862
0.03256636
0.01339849
-0.04034417
0.04444283
0.0199412
0.01207783
0.02253016
-0.005869124
0.006069344
0.02399408
0.04813754
0.06622613
-0.0190431
0.05976809
0.0120827
-0.0566091
0.0100668
0.02386448
0.02002613
0.001936297
-0.04475209
0.0501416
-0.0487893
0.06706073
0.02144273
0.02512259
-0.02723714
-0.0563026
0.02087888
0.04146758
0.06630462
0.001404911
0.019069
-0.02409899
0.0003959332
-0.06329456
-0.06665201
0.0535989
-0.03906901
-0.03790705
-0.01159631
-0.009870964
-0.007585241
-0.03365631
-0.008842084
0.03101034
-0.03254214
-0.03895865
-0.04559535
0.05380134
0.0358983
-0.03296886
-0.03430057
-0.01324934
0.03179409
0.05036139
-0.005748832
-0.03946827
-0.04493652
0.06275523
-0.02862165
0.01089614
0.04118862
0.03253839
0.02562607
-0.02120399
-0.02077949
-0.06288073
-0.008564463
0.007440642
-0.05789371
0.02440452
-0.005003129
-0.01000345
-0.05440402
0.03305549
-0.01020979
0.05280364
0.00796619
0.05836901
-0.01027189
-0.05621511
0.05722937
0.03501416
-0.06236734
0.03133687
-0.03223114
-0.03561829
0.01204354
0.01797116
0.01039089
0.04075288
0.0305988
-0.03388762
0.05865123
0.04544417
0.01687704
0.02781299
0.008654236
-0.05557472
-0.01614679
-0.03759803
0.03754244
0.01490063
0.04375843
-0.05644284
0.03997089
0.0436395
-0.02678194
0.06667522
-0.007365445
0.00938415
0.02050216
-0.03536892
0.005090503
-0.04034316
0.0216034
-0.06176217
0.02696911
0.06222582
-0.05690948
-0.05309782
-0.006987649
0.041401
0.06498637
-0.03070997
0.06174234
-0.03905213
-0.0007180592
-0.03191156
-0.05175817
0.02991384
-0.02378722
-0.004395716
0.006579187
-0.04061048
-0.02582093
-0.02560789
0.05919235
0.06201212
0.05930261
-0.007934012
0.05910028
0.01330494
-0.04260001
-0.06692988
-0.0476859
-0.001968903
0.0289585
0.03105777
-0.04409586
0.01070258
-0.06709274
0.01436504
-0.06660186
-0.0309856
0.03732624
0.06407806
0.01785088
0.006531779
-0.05024856
0.0110864
-0.02357906
-0.06280701
0.05049677
0.03065733
-0.03476525
-0.04303875
0.02598852
-0.02223564
0.05341439
-0.02072533
-0.0530179
0.03289361
-0.06501341
0.01896116
-0.04426148
0.04764403
0.01606439
0.06397963
-0.0509607
-0.004225378
-7.400985E-05
0.03616079
-0.05575233
0.005475868
0.02906996
0.02978437
-0.005730474
-0.03037184
-0.0100001
-0.02196237
0.02447785
-0.01527605
0.04432406
-0.01972041
-0.05229157
0.05397066
0.03074479
-0.005320726
0.035772
0.06328947
0.0399792
-0.01674249
0.04558001
0.0445661
-0.004216144
-0.03204972
0.01144182
-0.0176264
-0.05466074
0.05761883
-0.01992295
0.02180788
-0.01044415
0.02191344
-0.05677621
0.008196766
0.06088195
-0.02291572
-0.06634925
0.003386998
0.03062835
-0.01157627
0.05570108
0.007440129
0.02273344
0.03019478
0.05650617
0.02264363
0.003316105
-0.03029552
-0.05103737
-0.04655151
-0.03972899
-0.04631355
0.02373204
-0.05126815
0.0585174
-0.03238181
-0.05824461
-0.006816939
-0.04959407
-0.0560407
-0.04364772
0.0003176968
0.0658972
-0.06526665
0.06310472
-0.045526
-0.03088082
0.007448287
0.06102534
-0.01427612
-0.006908102
-0.03555162
-0.0352755
-0.01638115
-0.004506951
-0.02979674
-0.04610396
0.0335257
-0.02061928
0.05673482
0.04699412
0.0435714
0.04071958
-0.04130806
-0.006399756
-0.03206722
0.06611802
0.06242855
0.01761598
0.02532713
-0.03260773
0.008404315
-0.01495555
0.01873242
-0.03586517
-0.01255323
0.00947955
0.02006346
0.03502668
0.03409555
-0.01441218
0.06380444
-0.02338423
0.03117536
0.02829321
0.06375925
0.05689857
-0.02782343
0.02117543
0.02037752
-0.05421447
-0.02383369
-0.05413429
-0.03839227
-0.03509819
-0.0192825
0.02753474
0.03926864
0.009069732
0.02723532
-0.0437074
-0.02537275
0.05776893
-0.03223842
-0.04960501
0.0526242
0.04734055
0.0139287
-0.04845261
-0.05989034
0.02866033
0.001769203
0.06643564
0.0132218
0.003210375
0.0511263
-0.0009809902
-0.05839241
-0.001664651
-0.002222389
-0.02102917
0.02600482
-0.0266835
0.06517508
0.01160499
0.05916258
-0.005398021
-0.0444999
-0.01410601
0.05135395
0.02784865
0.03814754
-0.05694289
-0.06014526
0.009866328
-0.05697605
-0.06190111
-0.05908244
0.01284375
0.04360563
-0.05151791
-0.02496675
-0.04730744
0.01312914
0.05965381
0.01195294
-0.02233271
0.0005805396
0.02633397
-0.01828787
0.04963512
0.01799053
-0.02700333
-0.0566445
-0.01967213
-0.001775601
-0.06662587
0.06053047
0.02409322
-0.04083097
-0.009914396
0.02390382
-0.03990191
-0.03186993
-0.01980237
0.05844942
-0.009224525
0.05864428
-0.06458116
-0.007750191
0.04509078
-0.009835174
-0.003299537
0.02266634
-0.0186411
-0.06399903
0.005375644
0.02812398
-0.06241535
0.06758866
0.01355867
0.06195806
-0.002897252
-0.06375476
-0.06621779
-0.0580785
-0.002785754
0.06763823
0.0274635
-0.05629469
-0.05828681
-0.05449495
-0.01523903
-0.0142619
-0.01441659
-0.007485117
-0.05300146
0.05249912
-0.03500511
-0.06673223
-0.04675915
-0.01304037
-0.002774929
-0.03385245
0.004557968
-0.008466331
-0.04664656
0.01826695
0.02993322
-0.02360972
0.06078538
-0.02681323
0.0550092
0.02444118
0.01354698
-0.003935836
-0.04113555
-0.04408378
-0.03358877
-0.02966049
-0.006701448
-0.008926133
-0.03675584
0.05965016
-0.0174
0.03164911
-0.06253276
-0.05697426
-0.03085369
0.05678064
0.05693904
0.02081315
-0.004807533
-0.06361975
0.04641119
-0.04133759
-0.003203632
-0.03698142
-0.0003761055
0.01018517
0.05650468
0.04688392
-0.03023161
-0.01686341
-0.04914345
0.03646304
-0.04156752
0.02825641
0.04012774
0.05745586
-0.03428619
0.05901894
0.01815126
0.062592
0.007905844
0.0301036
-0.04422115
0.005511531
0.05148417
0.04084548
-0.01387019
-0.05760892
-0.01881598
0.0410892
-0.01261214
-0.0279644
0.04593093
0.05069232
0.04596661
-0.01305205
0.06720442
0.0637825
0.02422895
0.02416269
-0.01822855
0.01435126
-0.04663115
0.04804419
0.04085699
0.01407358
0.005280015
-0.02285255
-0.02916537
-0.02037293
0.02313022
0.06585672
-0.06527473
0.000537086
-0.003588971
-0.05162903
-0.06505306
0.05922146
-0.02052897
0.02671504
-0.04388126
0.04617698
-0.00223672
-0.003384183
0.06368536
0.04675757
0.05846873
-0.02432323
0.05022642
-0.01475684
0.05818807
-0.03013207
-0.03314663
0.0619252
0.01288393
0.06149121
0.008798125
-0.02432872
0.03259116
-0.03052603
-0.03237116
-0.05895426
0.03949307
-0.06637967
-0.04997764
-0.01053225
-0.03062628
-0.02254278
-0.01365533
0.02965902
-0.01593561
-0.05995366
0.01637484
0.06545053
0.0001073279
0.003531084
-0.05134865
0.02468966
0.05229545
0.06203604
0.02354147
-0.03833338
-0.005142353
0.05352809
-0.01062438
-0.01467434
0.03106674
-0.05926331
0.05558977
0.00285644
0.007509466
0.02721228
-0.04130633
-0.05793956
-0.008850423
-0.05286362
-0.06125271
-0.003793668
-0.02134316
0.006280983
0.009447233
0.01307489
0.05726872
-0.04736921
-0.06675784
0.05020511
0.02142971
-0.03066055
-0.006118751
-0.05858377
0.04490323
0.05204509
-0.008687547
0.03849175
0.01386913
-0.0619744
0.01412471
0.05390161
0.01218132
0.03263332
0.02633763
-0.0392996
-0.01019593
0.05142485
-0.04578707
0.02478873
0.04928929
0.006377782
0.006364334
-0.01496567
-0.003152831
0.02038164
-0.0219038
-0.02192215
-0.01534781
-0.05747005
-0.02766548
-0.02570976
0.05234931
0.007107135
0.03183257
-0.006209332
0.01479206
0.04623692
0.02588983
0.023401
-0.03203679
-0.01186145
-0.003872069
-0.01481264
0.0009482891
-0.04721769
0.05196163
0.01396014
0.04787998
-0.01918979
-0.0446658
-0.06209275
0.06635448
-0.02360995
-0.0670208
-0.05288469
0.03091174
-0.0590897
0.01250568
-0.04341503
0.006012265
-0.05470202
-0.01409706
0.003402552
0.03362771
-0.02810215
-0.06638432
-0.06286243
-0.06713587
-0.03538966
0.01384496
0.01150377
-0.0424016
-0.001251452
-0.0111111
-0.006785883
-0.05768677
-0.04675964
0.05202266
-0.02387176
0.03635664
0.03207268
-0.001865505
-0.06409464
0.05513238
-0.03350936
-0.02412762
0.008022632
0.006191312
0.01678064
0.03081555
0.005945142
-0.03420538
0.001368235
-0.05054789
-0.0452714
-0.06570102
0.060662
0.01949627
-0.03888618
-0.04877
0.04688744
0.01315939
0.01533301
0.03490187
0.01176705
0.04824547
-0.0003306883
0.05543777
0.007701706
-0.06313454
0.009734763
-0.04317574
-0.03155918
-0.01183504
0.0418762
0.01510011
-0.01793904
0.0162068
-0.0007995578
0.06396209
-0.006470331
-0.001117124
-0.01597988
0.001731416
-0.0600368
-0.02222748
0.02416679
-0.01864019
-0.03377632
-0.00902149
-0.05041215
0.001680707
0.02297222
-0.04303839
0.05740581
-0.04902333
0.05073811
-0.03105989
-0.0245713
-0.0138182
0.04413969
0.02052148
0.06642623
0.01197855
-0.04685584
-0.01881574
0.06529042
-0.05473334
-0.02448747
0.007565113
0.02017464
-0.02348142
-0.04764079
-0.03491165
0.02563696
-0.01993206
-0.03879735
-0.05433503
0.02700205
-0.03394209
-0.04385795
-0.04962712
0.02127748
-0.05121342
0.05521423
-0.05988257
0.00178866
-0.05645742
-0.001304238
0.02296291
0.03229862
-0.05481577
-0.02715853
-0.05491798
-0.04811422
0.04094481
0.0003932698
0.03997818
-0.01934937
0.02671556
-0.01958128
0.01096351
-0.06208934
0.02659518
0.03874049
0.04100589
-0.01861512
-0.01005275
-0.0007387251
0.009401252
0.05771064
0.03713651
0.009874685
-0.05856583
-0.03789688
0.02583019
0.06718063
0.04970303
0.02470094
-0.05490989
0.04733222
0.05381122
0.01450752
0.02048624
0.04320311
0.007053794
-0.06425951
-0.06065944
-0.05473406
0.05262877
0.0476113
-0.01083891
0.03295096
-0.06765013
0.05357581
0.01311516
-0.0554744
0.06261891
-0.02201729
-0.05372828
0.02666918
-0.05609522
0.01221793
0.05723113
0.03318889
0.06309874
0.003246167
-0.03652932
0.05091552
-0.006007785
0.04170081
0.01862686
-0.05265938
-0.0323761
0.04731996
-0.005455878
0.06439262
-0.01463897
0.0513287
-0.03624993
0.03732878
-0.0258923
-0.02325531
0.01456913
0.02972658
0.0006129365
-0.06375107
0.009588198
-0.04420502
0.01692458
0.01336797
-0.06337491
0.003783701
0.0104926
-0.01364245
0.03549082
-0.02634333
0.02521301
0.05523398
0.048041
-0.06412899
0.04020642
-0.04363834
0.01921035
-0.05700866
-0.03895219
-0.02611615
-0.002609557
-0.04703347
-0.008904931
0.01665917
0.02710119
-0.05664641
-0.05370398
-0.02312043
-0.01537514
0.03509671
0.06558543
-0.04043207
-0.03536067
0.05891319
0.06159459
-0.06026091
-0.03394568
0.04856087
0.03713909
-0.05309346
0.004784643
0.04920297
-0.05610748
-0.04704916
-0.02875701
-0.001936325
-0.06464893
-0.04005755
0.06505898
-0.05019059
0.02547097
0.003641161
0.0007421433
-0.04120753
0.006795105
-0.01131495
0.03263653
-0.06767121
0.0542034
0.06120812
-0.01044894
-0.03432359
-0.06620393
-0.06754252
-0.02399214
-0.002291544
0.02265803
0.05706444
-0.05778696
0.03253072
0.05824396
0.0385861
-0.02621113
-0.05379535
0.03703583
0.0161241
-0.05886262
-0.02979239
-0.02252044
-0.03889911
-0.05993411
0.05429019
-0.02024278
-0.03312118
-0.05831087
-0.005992355
0.02676241
-0.06208976
-0.01581854
0.00497292
-0.02496082
-0.03421109
0.06229409
0.04386759
0.02529209
-0.02882839
0.04747027
-0.05650158
0.0448796
0.04147115
0.04334226
-0.05377674
-0.05020722
-0.03540837
-0.04049793
0.05482149
-0.03808434
-0.01339913
-0.01030674
0.05860763
-0.02038896
-0.005507703
0.02278585
0.02516589
0.0532056
0.003197489
0.05385581
0.03485387
0.05870498
0.04993683
0.03888267
0.01681117
0.004946357
0.005176739
-0.01044508
0.02451843
0.04422864
-0.002142097
-0.01115082
-0.002072409
0.03659045
0.06557559
-0.006735364
0.003945032
-0.01430475
0.06177926
0.03656079
-0.05277104
-0.06055987
-0.04519574
-0.03584464
-0.02777508
0.01615359
-0.006489549
-0.04257474
0.0484835
0.01093969
-0.03080843
0.05859861
-0.04584201
-0.01474758
-0.05532022
-0.04726994
0.06287938
-0.06534814
-0.04140553
0.009213526
0.01255267
0.04297333
0.002920267
-0.05734377
0.03199438
0.0656883
0.0597023
-0.04591944
-0.01802793
-0.06670896
-0.04909581
-0.02846598
0.05936297
0.03457332
0.03869023
0.02747712
0.0359641
0.01784486
-0.001278875
-0.06727904
-0.05650071
-0.02018514
0.009008043
-0.05435788
0.00710044
0.007195913
-0.03324543
-0.05526145
0.02397405
0.04490891
-0.001678124
0.001356548
-0.04083584
-0.01537089
-0.0439285
-0.02780775
0.004456486
-0.0557886
9.759585E-05
-0.02552676
0.02438792
-0.02850673
0.04338981
0.04725584
-0.007901129
0.06559417
0.06717227
-0.01247872
0.01449881
-0.01486071
-0.01529742
-0.0229021
0.003867359
-0.04206311
-0.00222238
-0.03519882
-0.03397133
-0.01065847
0.003492414
-0.04313815
0.03099711
0.04702713
-0.001956866
0.004999782
0.002905784
0.01748427
-0.05556675
0.006797238
0.0105652
-0.001438648
-0.04491599
0.02381607
-0.05018936
-0.04368874
-0.02373034
0.03994264
0.004361674
0.02968882
0.02147987
0.009442891
0.007960269
0.04716991
-0.001823645
-0.02910186
-0.007730292
-0.04671265
0.06542581
-0.06670935
0.05478811
0.05920693
-0.06177304
-0.05282166
0.008655611
-0.02470088
0.01141275
0.04529742
0.04138676
-0.0295466
-0.02358656
0.04255122
0.05322431
-0.007561595
0.04489271
-0.05199916
-0.03788134
0.02882313
-0.04064936
-0.02038053
0.04960385
0.0257716
0.02837613
0.004276466
0.03579828
0.06198614
0.0168382
0.05176381
-0.01908585
-0.04079163
-0.05520655
-0.01831819
0.01999508
-0.05679403
0.01994575
0.01929489
-0.007602236
-0.06003095
-0.05277616
0.04244814
0.01283513
-0.001091138
0.0664925
-0.03402835
-0.01466123
0.04686527
0.02415521
-0.05241476
-0.06565941
-0.01776111
-0.05915714
0.0313832
0.06187333
0.01786971
-0.04837658
-0.03892012
-0.03710582
0.001887122
-0.02068332
0.01460609
0.02639754
0.02758556
-0.003553351
0.01424176
-0.04227667
0.06266824
-0.04538048
0.04208171
0.04042928
-0.04233881
0.0235397
-0.04578701
0.01366267
-0.01516087
0.03472096
-0.01724163
0.02721573
-0.005532137
-0.04899892
0.05686963
-0.03010568
0.001316339
0.04948661
0.06661188
-0.04957111
-0.01865313
-0.0122549
-0.06581125
0.05951918
-0.009070754
-0.01153591
0.05844726
0.02858899
0.0005543748
-0.05188603
0.05318619
-0.06547441
-0.01568588
-0.0596883
-0.009392858
0.02430912
0.05001012
-0.02490741
0.04461601
0.02663581
0.0545665
-0.05021609
0.00909758
0.05108537
0.03680167
0.001800777
0.03636294
-0.01705058
-0.009616327
-0.02322485
-0.04285542
0.04603558
-0.002228606
-0.004123752
0.04431308
0.006986519
-0.04750584
0.05049915
-0.01843659
0.03713373
0.03302906
-0.006439379
-0.05482833
-0.03121146
0.04947139
-0.01970384
-0.02503501
-0.01378046
0.02833056
-0.03537611
-0.01217918
-0.04171287
-0.06306603
-0.02796056
-0.03620098
-0.03637366
0.04658414
-0.04896001
-0.04521911
0.05706509
0.02003777
0.007561219
-0.02973131
-0.0441574
0.05890601
-0.06078601
0.004690818
0.05637449
-0.03606476
0.05155724
0.003878342
0.0674476
0.0614658
-0.06045434
0.06154338
-0.006930746
-0.06332438
-0.02762758
-0.06632264
-0.01143111
-0.04110083
-0.01779323
0.02255549
-0.04217684
